<GAP_2024_2_26_60_18_54_21_622>
<Potential label="GAP_2024_2_26_60_18_54_21_622" init_args="IP GAP label=GAP_2024_2_26_60_18_54_21_622"/>
<GAP_params label="GAP_2024_2_26_60_18_54_21_622" gap_version="1686220958">
  <GAP_data do_core="F">
    <e0 Z="1" value=".00000000000000000E+000"/>
    <e0 Z="2" value=".00000000000000000E+000"/>
    <e0 Z="3" value="-.28663766000000002"/>
    <e0 Z="4" value=".00000000000000000E+000"/>
    <e0 Z="5" value=".00000000000000000E+000"/>
    <e0 Z="6" value=".00000000000000000E+000"/>
    <e0 Z="7" value=".00000000000000000E+000"/>
    <e0 Z="8" value=".00000000000000000E+000"/>
    <e0 Z="9" value=".00000000000000000E+000"/>
    <e0 Z="10" value=".00000000000000000E+000"/>
    <e0 Z="11" value=".00000000000000000E+000"/>
    <e0 Z="12" value=".00000000000000000E+000"/>
    <e0 Z="13" value=".00000000000000000E+000"/>
    <e0 Z="14" value=".00000000000000000E+000"/>
    <e0 Z="15" value=".00000000000000000E+000"/>
    <e0 Z="16" value=".00000000000000000E+000"/>
    <e0 Z="17" value="-.27567309000000001"/>
    <e0 Z="18" value=".00000000000000000E+000"/>
    <e0 Z="19" value=".00000000000000000E+000"/>
    <e0 Z="20" value=".00000000000000000E+000"/>
    <e0 Z="21" value=".00000000000000000E+000"/>
    <e0 Z="22" value=".00000000000000000E+000"/>
    <e0 Z="23" value=".00000000000000000E+000"/>
    <e0 Z="24" value=".00000000000000000E+000"/>
    <e0 Z="25" value=".00000000000000000E+000"/>
    <e0 Z="26" value=".00000000000000000E+000"/>
    <e0 Z="27" value=".00000000000000000E+000"/>
    <e0 Z="28" value=".00000000000000000E+000"/>
    <e0 Z="29" value=".00000000000000000E+000"/>
    <e0 Z="30" value=".00000000000000000E+000"/>
    <e0 Z="31" value=".00000000000000000E+000"/>
    <e0 Z="32" value=".00000000000000000E+000"/>
    <e0 Z="33" value=".00000000000000000E+000"/>
    <e0 Z="34" value=".00000000000000000E+000"/>
    <e0 Z="35" value=".00000000000000000E+000"/>
    <e0 Z="36" value=".00000000000000000E+000"/>
    <e0 Z="37" value=".00000000000000000E+000"/>
    <e0 Z="38" value=".00000000000000000E+000"/>
    <e0 Z="39" value=".00000000000000000E+000"/>
    <e0 Z="40" value=".00000000000000000E+000"/>
    <e0 Z="41" value=".00000000000000000E+000"/>
    <e0 Z="42" value=".00000000000000000E+000"/>
    <e0 Z="43" value=".00000000000000000E+000"/>
    <e0 Z="44" value=".00000000000000000E+000"/>
    <e0 Z="45" value=".00000000000000000E+000"/>
    <e0 Z="46" value=".00000000000000000E+000"/>
    <e0 Z="47" value=".00000000000000000E+000"/>
    <e0 Z="48" value=".00000000000000000E+000"/>
    <e0 Z="49" value=".00000000000000000E+000"/>
    <e0 Z="50" value=".00000000000000000E+000"/>
    <e0 Z="51" value=".00000000000000000E+000"/>
    <e0 Z="52" value=".00000000000000000E+000"/>
    <e0 Z="53" value=".00000000000000000E+000"/>
    <e0 Z="54" value=".00000000000000000E+000"/>
    <e0 Z="55" value=".00000000000000000E+000"/>
    <e0 Z="56" value=".00000000000000000E+000"/>
    <e0 Z="57" value=".00000000000000000E+000"/>
    <e0 Z="58" value=".00000000000000000E+000"/>
    <e0 Z="59" value=".00000000000000000E+000"/>
    <e0 Z="60" value=".00000000000000000E+000"/>
    <e0 Z="61" value=".00000000000000000E+000"/>
    <e0 Z="62" value=".00000000000000000E+000"/>
    <e0 Z="63" value=".00000000000000000E+000"/>
    <e0 Z="64" value=".00000000000000000E+000"/>
    <e0 Z="65" value=".00000000000000000E+000"/>
    <e0 Z="66" value=".00000000000000000E+000"/>
    <e0 Z="67" value=".00000000000000000E+000"/>
    <e0 Z="68" value=".00000000000000000E+000"/>
    <e0 Z="69" value=".00000000000000000E+000"/>
    <e0 Z="70" value=".00000000000000000E+000"/>
    <e0 Z="71" value=".00000000000000000E+000"/>
    <e0 Z="72" value=".00000000000000000E+000"/>
    <e0 Z="73" value=".00000000000000000E+000"/>
    <e0 Z="74" value=".00000000000000000E+000"/>
    <e0 Z="75" value=".00000000000000000E+000"/>
    <e0 Z="76" value=".00000000000000000E+000"/>
    <e0 Z="77" value=".00000000000000000E+000"/>
    <e0 Z="78" value=".00000000000000000E+000"/>
    <e0 Z="79" value=".00000000000000000E+000"/>
    <e0 Z="80" value=".00000000000000000E+000"/>
    <e0 Z="81" value=".00000000000000000E+000"/>
    <e0 Z="82" value=".00000000000000000E+000"/>
    <e0 Z="83" value=".00000000000000000E+000"/>
    <e0 Z="84" value=".00000000000000000E+000"/>
    <e0 Z="85" value=".00000000000000000E+000"/>
    <e0 Z="86" value=".00000000000000000E+000"/>
    <e0 Z="87" value=".00000000000000000E+000"/>
    <e0 Z="88" value=".00000000000000000E+000"/>
    <e0 Z="89" value=".00000000000000000E+000"/>
    <e0 Z="90" value=".00000000000000000E+000"/>
    <e0 Z="91" value=".00000000000000000E+000"/>
    <e0 Z="92" value=".00000000000000000E+000"/>
    <e0 Z="93" value=".00000000000000000E+000"/>
    <e0 Z="94" value=".00000000000000000E+000"/>
    <e0 Z="95" value=".00000000000000000E+000"/>
    <e0 Z="96" value=".00000000000000000E+000"/>
    <e0 Z="97" value=".00000000000000000E+000"/>
    <e0 Z="98" value=".00000000000000000E+000"/>
    <e0 Z="99" value=".00000000000000000E+000"/>
    <e0 Z="100" value=".00000000000000000E+000"/>
    <e0 Z="101" value=".00000000000000000E+000"/>
    <e0 Z="102" value=".00000000000000000E+000"/>
    <e0 Z="103" value=".00000000000000000E+000"/>
    <e0 Z="104" value=".00000000000000000E+000"/>
    <e0 Z="105" value=".00000000000000000E+000"/>
    <e0 Z="106" value=".00000000000000000E+000"/>
    <e0 Z="107" value=".00000000000000000E+000"/>
    <e0 Z="108" value=".00000000000000000E+000"/>
    <e0 Z="109" value=".00000000000000000E+000"/>
    <e0 Z="110" value=".00000000000000000E+000"/>
    <e0 Z="111" value=".00000000000000000E+000"/>
    <e0 Z="112" value=".00000000000000000E+000"/>
    <e0 Z="113" value=".00000000000000000E+000"/>
    <e0 Z="114" value=".00000000000000000E+000"/>
    <e0 Z="115" value=".00000000000000000E+000"/>
    <e0 Z="116" value=".00000000000000000E+000"/>
    <e0 Z="117" value=".00000000000000000E+000"/>
    <e0 Z="118" value=".00000000000000000E+000"/>
  </GAP_data>
  <gpSparse label="GAP_2024_2_26_60_18_54_21_622" n_coordinate="5" fitted="T">
    <gpCoordinates label="GAP_2024_2_26_60_18_54_21_6221" dimensions="1" signal_variance=".83053258526219609" signal_mean=".00000000000000000E+000" sparsified="T" n_permutations="2" covariance_type="1" n_sparseX="15" sparseX_filename="gap_file.xml.sparseX.GAP_2024_2_26_60_18_54_21_6221" sparseX_md5sum="d1c893b7211f3b9e385be98ffad6a9e4">
      <theta>  0.50000000000000000E+000 </theta>
      <descriptor>distance_Nb order=2 f0=0.0               cutoff=5.0 n_sparse=15 covariance_type=ard_se delta=0.8305325852621961 theta_uniform=0.5 sparse_method=uniform compact_clusters=T Z={17 17 }</descriptor>
      <permutation i="1">1  </permutation>
      <permutation i="2">1  </permutation>
      <sparseX i="1" alpha="205.27803728856856" sparseCutoff="1.0000000000000000"/>
      <sparseX i="2" alpha="266.47035471902410" sparseCutoff="1.0000000000000000"/>
      <sparseX i="3" alpha="461.23488776335188" sparseCutoff="1.0000000000000000"/>
      <sparseX i="4" alpha="374.14701198369579" sparseCutoff="1.0000000000000000"/>
      <sparseX i="5" alpha="19.658040755201572" sparseCutoff="1.0000000000000000"/>
      <sparseX i="6" alpha="93.512479109141807" sparseCutoff="1.0000000000000000"/>
      <sparseX i="7" alpha="-175.73295012377534" sparseCutoff="1.0000000000000000"/>
      <sparseX i="8" alpha="-241.59713966404323" sparseCutoff="1.0000000000000000"/>
      <sparseX i="9" alpha="-348.17606866733456" sparseCutoff="1.0000000000000000"/>
      <sparseX i="10" alpha="-189.37442299729759" sparseCutoff="1.0000000000000000"/>
      <sparseX i="11" alpha="-593.89124420822145" sparseCutoff="1.0000000000000000"/>
      <sparseX i="12" alpha="-637.32864409996841" sparseCutoff="1.0000000000000000"/>
      <sparseX i="13" alpha="190.88819534090240" sparseCutoff="1.0000000000000000"/>
      <sparseX i="14" alpha="872.05676271816515" sparseCutoff="1.0000000000000000"/>
      <sparseX i="15" alpha="-296.89173728004988" sparseCutoff="1.0000000000000000"/>
    </gpCoordinates>
    <gpCoordinates label="GAP_2024_2_26_60_18_54_21_6222" dimensions="1" signal_variance=".83053258526219609" signal_mean=".00000000000000000E+000" sparsified="T" n_permutations="1" covariance_type="1" n_sparseX="15" sparseX_filename="gap_file.xml.sparseX.GAP_2024_2_26_60_18_54_21_6222" sparseX_md5sum="3830203be0ab7f5d730194e7c8fa1d23">
      <theta>  0.50000000000000000E+000 </theta>
      <descriptor>distance_Nb order=2 f0=0.0               cutoff=5.0 n_sparse=15 covariance_type=ard_se delta=0.8305325852621961 theta_uniform=0.5 sparse_method=uniform compact_clusters=T Z={3 17 }</descriptor>
      <permutation i="1">1  </permutation>
      <sparseX i="1" alpha="-272.97169380498991" sparseCutoff="1.0000000000000000"/>
      <sparseX i="2" alpha="-305.31810403434872" sparseCutoff="1.0000000000000000"/>
      <sparseX i="3" alpha="-815.92879509504746" sparseCutoff="1.0000000000000000"/>
      <sparseX i="4" alpha="2682.6630980422929" sparseCutoff="1.0000000000000000"/>
      <sparseX i="5" alpha="298.12446495017537" sparseCutoff="1.0000000000000000"/>
      <sparseX i="6" alpha="64.964414361136619" sparseCutoff="1.0000000000000000"/>
      <sparseX i="7" alpha="-301.45409994733870" sparseCutoff="1.0000000000000000"/>
      <sparseX i="8" alpha="-95.516001907423146" sparseCutoff="1.0000000000000000"/>
      <sparseX i="9" alpha="465.62077939830118" sparseCutoff="1.0000000000000000"/>
      <sparseX i="10" alpha="133.44339413049369" sparseCutoff="1.0000000000000000"/>
      <sparseX i="11" alpha="1176.7149867451376" sparseCutoff="1.0000000000000000"/>
      <sparseX i="12" alpha="-2082.6250334240867" sparseCutoff="1.0000000000000000"/>
      <sparseX i="13" alpha="23.805770785638735" sparseCutoff="1.0000000000000000"/>
      <sparseX i="14" alpha="434.28284396410106" sparseCutoff="1.0000000000000000"/>
      <sparseX i="15" alpha="-1407.0890237025133" sparseCutoff="1.0000000000000000"/>
    </gpCoordinates>
    <gpCoordinates label="GAP_2024_2_26_60_18_54_21_6223" dimensions="1" signal_variance=".83053258526219609" signal_mean=".00000000000000000E+000" sparsified="T" n_permutations="2" covariance_type="1" n_sparseX="15" sparseX_filename="gap_file.xml.sparseX.GAP_2024_2_26_60_18_54_21_6223" sparseX_md5sum="fa6adbf0b9755f21d0839166ed00fa07">
      <theta>  0.50000000000000000E+000 </theta>
      <descriptor>distance_Nb order=2 f0=0.0               cutoff=5.0 n_sparse=15 covariance_type=ard_se delta=0.8305325852621961 theta_uniform=0.5 sparse_method=uniform compact_clusters=T Z={3 3 }</descriptor>
      <permutation i="1">1  </permutation>
      <permutation i="2">1  </permutation>
      <sparseX i="1" alpha="1070.5092438974793" sparseCutoff="1.0000000000000000"/>
      <sparseX i="2" alpha="493.80952802482011" sparseCutoff="1.0000000000000000"/>
      <sparseX i="3" alpha="260.95216453465906" sparseCutoff="1.0000000000000000"/>
      <sparseX i="4" alpha="1000.8018948426752" sparseCutoff="1.0000000000000000"/>
      <sparseX i="5" alpha="-1031.4986788654987" sparseCutoff="1.0000000000000000"/>
      <sparseX i="6" alpha="-207.02824679887192" sparseCutoff="1.0000000000000000"/>
      <sparseX i="7" alpha="1451.9017247135873" sparseCutoff="1.0000000000000000"/>
      <sparseX i="8" alpha="1308.6767392386503" sparseCutoff="1.0000000000000000"/>
      <sparseX i="9" alpha="-1182.7216660115928" sparseCutoff="1.0000000000000000"/>
      <sparseX i="10" alpha="-1766.9977008477160" sparseCutoff="1.0000000000000000"/>
      <sparseX i="11" alpha="-1307.3560967958458" sparseCutoff="1.0000000000000000"/>
      <sparseX i="12" alpha="-1422.5117266051809" sparseCutoff="1.0000000000000000"/>
      <sparseX i="13" alpha="-2118.6497383347896" sparseCutoff="1.0000000000000000"/>
      <sparseX i="14" alpha="2074.1117707744806" sparseCutoff="1.0000000000000000"/>
      <sparseX i="15" alpha="1375.6113779649916" sparseCutoff="1.0000000000000000"/>
    </gpCoordinates>
    <gpCoordinates label="GAP_2024_2_26_60_18_54_21_6224" dimensions="176" signal_variance=".59534289581431659E-004" signal_mean=".00000000000000000E+000" sparsified="T" n_permutations="1" covariance_type="2" zeta="4.0000000000000000" n_sparseX="78" sparseX_filename="gap_file.xml.sparseX.GAP_2024_2_26_60_18_54_21_6224" sparseX_md5sum="7e435a767d1f2e1b91b6216b07fe0cec">
      <descriptor>soap               l_max=6 n_max=10 atom_sigma=0.5 zeta=4 cutoff=5.0 cutoff_transition_width=0.5 central_weight=1.0 n_sparse=1000 delta=5.953428958143166e-05 f0=0.0 r_mix=T z_mix=T k=5 covariance_type=dot_product sparse_method=cur_points n_species=2 Z=17 species_Z={17 3 }</descriptor>
      <permutation i="1">1  </permutation>
      <sparseX i="1" alpha=".25085372730040417" sparseCutoff="1.0000000000000000"/>
      <sparseX i="2" alpha="-.19825909065449129" sparseCutoff="1.0000000000000000"/>
      <sparseX i="3" alpha="-.19929021216885018" sparseCutoff="1.0000000000000000"/>
      <sparseX i="4" alpha="-.19876319227888317" sparseCutoff="1.0000000000000000"/>
      <sparseX i="5" alpha="-.19876319088902397" sparseCutoff="1.0000000000000000"/>
      <sparseX i="6" alpha="-.19955786995360317" sparseCutoff="1.0000000000000000"/>
      <sparseX i="7" alpha="-.19796465813975619" sparseCutoff="1.0000000000000000"/>
      <sparseX i="8" alpha="-.19955787129947089" sparseCutoff="1.0000000000000000"/>
      <sparseX i="9" alpha="-.19796465953717629" sparseCutoff="1.0000000000000000"/>
      <sparseX i="10" alpha="-.19955787265557706" sparseCutoff="1.0000000000000000"/>
      <sparseX i="11" alpha="-.19796466091459061" sparseCutoff="1.0000000000000000"/>
      <sparseX i="12" alpha="-.19876970926650070" sparseCutoff="1.0000000000000000"/>
      <sparseX i="13" alpha="-.19876971067922344" sparseCutoff="1.0000000000000000"/>
      <sparseX i="14" alpha="-.19876318944159344" sparseCutoff="1.0000000000000000"/>
      <sparseX i="15" alpha="-.17841130056204196" sparseCutoff="1.0000000000000000"/>
      <sparseX i="16" alpha="-.18785154615628188" sparseCutoff="1.0000000000000000"/>
      <sparseX i="17" alpha="-.18379811703572391" sparseCutoff="1.0000000000000000"/>
      <sparseX i="18" alpha="-.18822542931565706" sparseCutoff="1.0000000000000000"/>
      <sparseX i="19" alpha="-.18122353068588301" sparseCutoff="1.0000000000000000"/>
      <sparseX i="20" alpha="-.18553370785227083" sparseCutoff="1.0000000000000000"/>
      <sparseX i="21" alpha="-.18101301004789194" sparseCutoff="1.0000000000000000"/>
      <sparseX i="22" alpha="-.18620874590069955" sparseCutoff="1.0000000000000000"/>
      <sparseX i="23" alpha="-.18250479070002501" sparseCutoff="1.0000000000000000"/>
      <sparseX i="24" alpha="-.17817346585021926" sparseCutoff="1.0000000000000000"/>
      <sparseX i="25" alpha="-.18929300512552777" sparseCutoff="1.0000000000000000"/>
      <sparseX i="26" alpha="-.18342346889765998" sparseCutoff="1.0000000000000000"/>
      <sparseX i="27" alpha="-.18556786976097867" sparseCutoff="1.0000000000000000"/>
      <sparseX i="28" alpha="-.18068308679445588" sparseCutoff="1.0000000000000000"/>
      <sparseX i="29" alpha="-.18836924588189863" sparseCutoff="1.0000000000000000"/>
      <sparseX i="30" alpha="-.18284805051210001" sparseCutoff="1.0000000000000000"/>
      <sparseX i="31" alpha="-.19848608948771398" sparseCutoff="1.0000000000000000"/>
      <sparseX i="32" alpha="-.18478028480692923" sparseCutoff="1.0000000000000000"/>
      <sparseX i="33" alpha="-.18943550100016671" sparseCutoff="1.0000000000000000"/>
      <sparseX i="34" alpha="-.17733568409555503" sparseCutoff="1.0000000000000000"/>
      <sparseX i="35" alpha="-.19360677647545196" sparseCutoff="1.0000000000000000"/>
      <sparseX i="36" alpha="-.17657373045641103" sparseCutoff="1.0000000000000000"/>
      <sparseX i="37" alpha="-.18334940960901455" sparseCutoff="1.0000000000000000"/>
      <sparseX i="38" alpha="-.16859778295099404" sparseCutoff="1.0000000000000000"/>
      <sparseX i="39" alpha="-.17802206335399978" sparseCutoff="1.0000000000000000"/>
      <sparseX i="40" alpha="-.19066216812515457" sparseCutoff="1.0000000000000000"/>
      <sparseX i="41" alpha="-.17580357947977462" sparseCutoff="1.0000000000000000"/>
      <sparseX i="42" alpha="-.18967882730742111" sparseCutoff="1.0000000000000000"/>
      <sparseX i="43" alpha="-.18069901553905088" sparseCutoff="1.0000000000000000"/>
      <sparseX i="44" alpha="-.18979362062035623" sparseCutoff="1.0000000000000000"/>
      <sparseX i="45" alpha="-.17928477890473082" sparseCutoff="1.0000000000000000"/>
      <sparseX i="46" alpha="-.18888033036500496" sparseCutoff="1.0000000000000000"/>
      <sparseX i="47" alpha="-.18121457495604870" sparseCutoff="1.0000000000000000"/>
      <sparseX i="48" alpha="-.19329069886780434" sparseCutoff="1.0000000000000000"/>
      <sparseX i="49" alpha="-.19170912099445511" sparseCutoff="1.0000000000000000"/>
      <sparseX i="50" alpha="-.19545949432888182" sparseCutoff="1.0000000000000000"/>
      <sparseX i="51" alpha="-.17617249934298634" sparseCutoff="1.0000000000000000"/>
      <sparseX i="52" alpha="-.17685685053924841" sparseCutoff="1.0000000000000000"/>
      <sparseX i="53" alpha="-.17537314813356383" sparseCutoff="1.0000000000000000"/>
      <sparseX i="54" alpha="-.18515565724804070" sparseCutoff="1.0000000000000000"/>
      <sparseX i="55" alpha="-.18161559518037085" sparseCutoff="1.0000000000000000"/>
      <sparseX i="56" alpha="-.16906628203037566" sparseCutoff="1.0000000000000000"/>
      <sparseX i="57" alpha="-.18866473702199982" sparseCutoff="1.0000000000000000"/>
      <sparseX i="58" alpha="-.18186471159575865" sparseCutoff="1.0000000000000000"/>
      <sparseX i="59" alpha="-.18787982941976469" sparseCutoff="1.0000000000000000"/>
      <sparseX i="60" alpha="-.17735157579488148" sparseCutoff="1.0000000000000000"/>
      <sparseX i="61" alpha="-.19459007534339884" sparseCutoff="1.0000000000000000"/>
      <sparseX i="62" alpha="-.18931585195632400" sparseCutoff="1.0000000000000000"/>
      <sparseX i="63" alpha="-.20245618998443551" sparseCutoff="1.0000000000000000"/>
      <sparseX i="64" alpha="-.19066957825995046" sparseCutoff="1.0000000000000000"/>
      <sparseX i="65" alpha="-.18159614705982757" sparseCutoff="1.0000000000000000"/>
      <sparseX i="66" alpha="-.17885841175884479" sparseCutoff="1.0000000000000000"/>
      <sparseX i="67" alpha="-.19441596882019108" sparseCutoff="1.0000000000000000"/>
      <sparseX i="68" alpha="-.18306205659444641" sparseCutoff="1.0000000000000000"/>
      <sparseX i="69" alpha="-.18134069457076124" sparseCutoff="1.0000000000000000"/>
      <sparseX i="70" alpha="-.17330524700831632" sparseCutoff="1.0000000000000000"/>
      <sparseX i="71" alpha="-.17178936793842986" sparseCutoff="1.0000000000000000"/>
      <sparseX i="72" alpha="-.19057225724165675" sparseCutoff="1.0000000000000000"/>
      <sparseX i="73" alpha="-.17110216617936844" sparseCutoff="1.0000000000000000"/>
      <sparseX i="74" alpha="-.18613437670899530" sparseCutoff="1.0000000000000000"/>
      <sparseX i="75" alpha="-.18771278088285245" sparseCutoff="1.0000000000000000"/>
      <sparseX i="76" alpha="-.19866602085867788" sparseCutoff="1.0000000000000000"/>
      <sparseX i="77" alpha="-.18063621422871004" sparseCutoff="1.0000000000000000"/>
      <sparseX i="78" alpha="-.19379465787502603" sparseCutoff="1.0000000000000000"/>
    </gpCoordinates>
    <gpCoordinates label="GAP_2024_2_26_60_18_54_21_6225" dimensions="176" signal_variance=".59534289581431659E-004" signal_mean=".00000000000000000E+000" sparsified="T" n_permutations="1" covariance_type="2" zeta="4.0000000000000000" n_sparseX="76" sparseX_filename="gap_file.xml.sparseX.GAP_2024_2_26_60_18_54_21_6225" sparseX_md5sum="f477917a787b55ba97f73b39c84a267f">
      <descriptor>soap               l_max=6 n_max=10 atom_sigma=0.5 zeta=4 cutoff=5.0 cutoff_transition_width=0.5 central_weight=1.0 n_sparse=1000 delta=5.953428958143166e-05 f0=0.0 r_mix=T z_mix=T k=5 covariance_type=dot_product sparse_method=cur_points n_species=2 Z=3 species_Z={17 3 }</descriptor>
      <permutation i="1">1  </permutation>
      <sparseX i="1" alpha=".79237937700535905E-002" sparseCutoff="1.0000000000000000"/>
      <sparseX i="2" alpha="-.15476439563088185" sparseCutoff="1.0000000000000000"/>
      <sparseX i="3" alpha="-.15408495879918671" sparseCutoff="1.0000000000000000"/>
      <sparseX i="4" alpha="-.15410752401843114" sparseCutoff="1.0000000000000000"/>
      <sparseX i="5" alpha="-.15408495838114522" sparseCutoff="1.0000000000000000"/>
      <sparseX i="6" alpha="-.15410752446344203" sparseCutoff="1.0000000000000000"/>
      <sparseX i="7" alpha="-.15410752488809534" sparseCutoff="1.0000000000000000"/>
      <sparseX i="8" alpha="-.15439058460076033" sparseCutoff="1.0000000000000000"/>
      <sparseX i="9" alpha="-.15378734704382099" sparseCutoff="1.0000000000000000"/>
      <sparseX i="10" alpha="-.15408495924721222" sparseCutoff="1.0000000000000000"/>
      <sparseX i="11" alpha="-.15378734658432802" sparseCutoff="1.0000000000000000"/>
      <sparseX i="12" alpha="-.15439058504683570" sparseCutoff="1.0000000000000000"/>
      <sparseX i="13" alpha="-.15801086716137910" sparseCutoff="1.0000000000000000"/>
      <sparseX i="14" alpha="-.15297892110526787" sparseCutoff="1.0000000000000000"/>
      <sparseX i="15" alpha="-.15573434038977080" sparseCutoff="1.0000000000000000"/>
      <sparseX i="16" alpha="-.14399980741198132" sparseCutoff="1.0000000000000000"/>
      <sparseX i="17" alpha="-.15321493509294584" sparseCutoff="1.0000000000000000"/>
      <sparseX i="18" alpha="-.14902494838658964" sparseCutoff="1.0000000000000000"/>
      <sparseX i="19" alpha="-.14886509354776117" sparseCutoff="1.0000000000000000"/>
      <sparseX i="20" alpha="-.14782593596142810" sparseCutoff="1.0000000000000000"/>
      <sparseX i="21" alpha="-.14991904800545508" sparseCutoff="1.0000000000000000"/>
      <sparseX i="22" alpha="-.16250457685671790" sparseCutoff="1.0000000000000000"/>
      <sparseX i="23" alpha="-.15335865535100998" sparseCutoff="1.0000000000000000"/>
      <sparseX i="24" alpha="-.15036000596017851" sparseCutoff="1.0000000000000000"/>
      <sparseX i="25" alpha="-.14396010568079012" sparseCutoff="1.0000000000000000"/>
      <sparseX i="26" alpha="-.15303365177981676" sparseCutoff="1.0000000000000000"/>
      <sparseX i="27" alpha="-.14400520128602876" sparseCutoff="1.0000000000000000"/>
      <sparseX i="28" alpha="-.14329239062294069" sparseCutoff="1.0000000000000000"/>
      <sparseX i="29" alpha="-.14261103200455283" sparseCutoff="1.0000000000000000"/>
      <sparseX i="30" alpha="-.13768830992867134" sparseCutoff="1.0000000000000000"/>
      <sparseX i="31" alpha="-.14855994765340352" sparseCutoff="1.0000000000000000"/>
      <sparseX i="32" alpha="-.14398560629540472" sparseCutoff="1.0000000000000000"/>
      <sparseX i="33" alpha="-.16089777344758668" sparseCutoff="1.0000000000000000"/>
      <sparseX i="34" alpha="-.15526804044545439" sparseCutoff="1.0000000000000000"/>
      <sparseX i="35" alpha="-.16209916970893290" sparseCutoff="1.0000000000000000"/>
      <sparseX i="36" alpha="-.15638512118311873" sparseCutoff="1.0000000000000000"/>
      <sparseX i="37" alpha="-.14418578440348856" sparseCutoff="1.0000000000000000"/>
      <sparseX i="38" alpha="-.15596117871549839" sparseCutoff="1.0000000000000000"/>
      <sparseX i="39" alpha="-.15449307986898422" sparseCutoff="1.0000000000000000"/>
      <sparseX i="40" alpha="-.16036029336456184" sparseCutoff="1.0000000000000000"/>
      <sparseX i="41" alpha="-.15111044143487998" sparseCutoff="1.0000000000000000"/>
      <sparseX i="42" alpha="-.15177315872897904" sparseCutoff="1.0000000000000000"/>
      <sparseX i="43" alpha="-.14120180225089421" sparseCutoff="1.0000000000000000"/>
      <sparseX i="44" alpha="-.15387338611315779" sparseCutoff="1.0000000000000000"/>
      <sparseX i="45" alpha="-.17144962455944218" sparseCutoff="1.0000000000000000"/>
      <sparseX i="46" alpha="-.16170945254694771" sparseCutoff="1.0000000000000000"/>
      <sparseX i="47" alpha="-.16357146225323493" sparseCutoff="1.0000000000000000"/>
      <sparseX i="48" alpha="-.14329586238593181" sparseCutoff="1.0000000000000000"/>
      <sparseX i="49" alpha="-.17400730521676158" sparseCutoff="1.0000000000000000"/>
      <sparseX i="50" alpha="-.15283993632553464" sparseCutoff="1.0000000000000000"/>
      <sparseX i="51" alpha="-.14495004244208631" sparseCutoff="1.0000000000000000"/>
      <sparseX i="52" alpha="-.15748323204377995" sparseCutoff="1.0000000000000000"/>
      <sparseX i="53" alpha="-.18282446644518888" sparseCutoff="1.0000000000000000"/>
      <sparseX i="54" alpha="-.17375431630816804" sparseCutoff="1.0000000000000000"/>
      <sparseX i="55" alpha="-.14826649621461382" sparseCutoff="1.0000000000000000"/>
      <sparseX i="56" alpha="-.14999198885143350" sparseCutoff="1.0000000000000000"/>
      <sparseX i="57" alpha="-.15473884264784418" sparseCutoff="1.0000000000000000"/>
      <sparseX i="58" alpha="-.16576679279495457" sparseCutoff="1.0000000000000000"/>
      <sparseX i="59" alpha="-.15134546211485375" sparseCutoff="1.0000000000000000"/>
      <sparseX i="60" alpha="-.16783706232499368" sparseCutoff="1.0000000000000000"/>
      <sparseX i="61" alpha="-.14934269881960549" sparseCutoff="1.0000000000000000"/>
      <sparseX i="62" alpha="-.15190717509035326" sparseCutoff="1.0000000000000000"/>
      <sparseX i="63" alpha="-.15439362554092576" sparseCutoff="1.0000000000000000"/>
      <sparseX i="64" alpha="-.16584183657041940" sparseCutoff="1.0000000000000000"/>
      <sparseX i="65" alpha="-.16364128791159402" sparseCutoff="1.0000000000000000"/>
      <sparseX i="66" alpha="-.14650929805532970" sparseCutoff="1.0000000000000000"/>
      <sparseX i="67" alpha="-.18043503559348684" sparseCutoff="1.0000000000000000"/>
      <sparseX i="68" alpha="-.16240468904204725" sparseCutoff="1.0000000000000000"/>
      <sparseX i="69" alpha="-.15162044043264716" sparseCutoff="1.0000000000000000"/>
      <sparseX i="70" alpha="-.17593790932584474" sparseCutoff="1.0000000000000000"/>
      <sparseX i="71" alpha="-.14854142702634998" sparseCutoff="1.0000000000000000"/>
      <sparseX i="72" alpha="-.17628887340852112" sparseCutoff="1.0000000000000000"/>
      <sparseX i="73" alpha="-.15337590363799966" sparseCutoff="1.0000000000000000"/>
      <sparseX i="74" alpha="-.15750627611198698" sparseCutoff="1.0000000000000000"/>
      <sparseX i="75" alpha="-.13958567114039222" sparseCutoff="1.0000000000000000"/>
      <sparseX i="76" alpha="-.14808466812376275" sparseCutoff="1.0000000000000000"/>
    </gpCoordinates>
  </gpSparse>
  <command_line><![CDATA[ at_file=/home/certural/git/autoplex/tests/auto/job_2024-02-26-17-54-16-074250-23636/train_with_sigma.extxyz default_sigma={0.0001 0.05 0.05 0} energy_parameter_name=REF_energy force_parameter_name=REF_forces virial_parameter_name=REF_virial sparse_jitter=1e-08 do_copy_at_file=F openmp_chunk_size=10000 gp_file=gap_file.xml gap={distance_Nb order=2 f0=0.0 add_species=T cutoff=5.0 n_sparse=15 covariance_type=ard_se delta=0.8305325852621961 theta_uniform=0.5 sparse_method=uniform compact_clusters=T :soap add_species=T l_max=6 n_max=10 atom_sigma=0.5 zeta=4 cutoff=5.0 cutoff_transition_width=0.5 central_weight=1.0 n_sparse=1000 delta=5.953428958143166e-05 f0=0.0 r_mix=T z_mix=T k=5 covariance_type=dot_product sparse_method=cur_points}]]></command_line>
</GAP_params>
</GAP_2024_2_26_60_18_54_21_622>
