<GAP_2024_6_5_120_0_55_56_533>
<Potential label="GAP_2024_6_5_120_0_55_56_533" init_args="IP GAP label=GAP_2024_6_5_120_0_55_56_533"/>
<GAP_params label="GAP_2024_6_5_120_0_55_56_533" gap_version="1686220958">
  <GAP_data do_core="F">
    <e0 Z="1" value=".00000000000000000E+000"/>
    <e0 Z="2" value=".00000000000000000E+000"/>
    <e0 Z="3" value="-.28663766000000002"/>
    <e0 Z="4" value=".00000000000000000E+000"/>
    <e0 Z="5" value=".00000000000000000E+000"/>
    <e0 Z="6" value=".00000000000000000E+000"/>
    <e0 Z="7" value=".00000000000000000E+000"/>
    <e0 Z="8" value=".00000000000000000E+000"/>
    <e0 Z="9" value=".00000000000000000E+000"/>
    <e0 Z="10" value=".00000000000000000E+000"/>
    <e0 Z="11" value=".00000000000000000E+000"/>
    <e0 Z="12" value=".00000000000000000E+000"/>
    <e0 Z="13" value=".00000000000000000E+000"/>
    <e0 Z="14" value=".00000000000000000E+000"/>
    <e0 Z="15" value=".00000000000000000E+000"/>
    <e0 Z="16" value=".00000000000000000E+000"/>
    <e0 Z="17" value="-.27567309000000001"/>
    <e0 Z="18" value=".00000000000000000E+000"/>
    <e0 Z="19" value=".00000000000000000E+000"/>
    <e0 Z="20" value=".00000000000000000E+000"/>
    <e0 Z="21" value=".00000000000000000E+000"/>
    <e0 Z="22" value=".00000000000000000E+000"/>
    <e0 Z="23" value=".00000000000000000E+000"/>
    <e0 Z="24" value=".00000000000000000E+000"/>
    <e0 Z="25" value=".00000000000000000E+000"/>
    <e0 Z="26" value=".00000000000000000E+000"/>
    <e0 Z="27" value=".00000000000000000E+000"/>
    <e0 Z="28" value=".00000000000000000E+000"/>
    <e0 Z="29" value=".00000000000000000E+000"/>
    <e0 Z="30" value=".00000000000000000E+000"/>
    <e0 Z="31" value=".00000000000000000E+000"/>
    <e0 Z="32" value=".00000000000000000E+000"/>
    <e0 Z="33" value=".00000000000000000E+000"/>
    <e0 Z="34" value=".00000000000000000E+000"/>
    <e0 Z="35" value=".00000000000000000E+000"/>
    <e0 Z="36" value=".00000000000000000E+000"/>
    <e0 Z="37" value=".00000000000000000E+000"/>
    <e0 Z="38" value=".00000000000000000E+000"/>
    <e0 Z="39" value=".00000000000000000E+000"/>
    <e0 Z="40" value=".00000000000000000E+000"/>
    <e0 Z="41" value=".00000000000000000E+000"/>
    <e0 Z="42" value=".00000000000000000E+000"/>
    <e0 Z="43" value=".00000000000000000E+000"/>
    <e0 Z="44" value=".00000000000000000E+000"/>
    <e0 Z="45" value=".00000000000000000E+000"/>
    <e0 Z="46" value=".00000000000000000E+000"/>
    <e0 Z="47" value=".00000000000000000E+000"/>
    <e0 Z="48" value=".00000000000000000E+000"/>
    <e0 Z="49" value=".00000000000000000E+000"/>
    <e0 Z="50" value=".00000000000000000E+000"/>
    <e0 Z="51" value=".00000000000000000E+000"/>
    <e0 Z="52" value=".00000000000000000E+000"/>
    <e0 Z="53" value=".00000000000000000E+000"/>
    <e0 Z="54" value=".00000000000000000E+000"/>
    <e0 Z="55" value=".00000000000000000E+000"/>
    <e0 Z="56" value=".00000000000000000E+000"/>
    <e0 Z="57" value=".00000000000000000E+000"/>
    <e0 Z="58" value=".00000000000000000E+000"/>
    <e0 Z="59" value=".00000000000000000E+000"/>
    <e0 Z="60" value=".00000000000000000E+000"/>
    <e0 Z="61" value=".00000000000000000E+000"/>
    <e0 Z="62" value=".00000000000000000E+000"/>
    <e0 Z="63" value=".00000000000000000E+000"/>
    <e0 Z="64" value=".00000000000000000E+000"/>
    <e0 Z="65" value=".00000000000000000E+000"/>
    <e0 Z="66" value=".00000000000000000E+000"/>
    <e0 Z="67" value=".00000000000000000E+000"/>
    <e0 Z="68" value=".00000000000000000E+000"/>
    <e0 Z="69" value=".00000000000000000E+000"/>
    <e0 Z="70" value=".00000000000000000E+000"/>
    <e0 Z="71" value=".00000000000000000E+000"/>
    <e0 Z="72" value=".00000000000000000E+000"/>
    <e0 Z="73" value=".00000000000000000E+000"/>
    <e0 Z="74" value=".00000000000000000E+000"/>
    <e0 Z="75" value=".00000000000000000E+000"/>
    <e0 Z="76" value=".00000000000000000E+000"/>
    <e0 Z="77" value=".00000000000000000E+000"/>
    <e0 Z="78" value=".00000000000000000E+000"/>
    <e0 Z="79" value=".00000000000000000E+000"/>
    <e0 Z="80" value=".00000000000000000E+000"/>
    <e0 Z="81" value=".00000000000000000E+000"/>
    <e0 Z="82" value=".00000000000000000E+000"/>
    <e0 Z="83" value=".00000000000000000E+000"/>
    <e0 Z="84" value=".00000000000000000E+000"/>
    <e0 Z="85" value=".00000000000000000E+000"/>
    <e0 Z="86" value=".00000000000000000E+000"/>
    <e0 Z="87" value=".00000000000000000E+000"/>
    <e0 Z="88" value=".00000000000000000E+000"/>
    <e0 Z="89" value=".00000000000000000E+000"/>
    <e0 Z="90" value=".00000000000000000E+000"/>
    <e0 Z="91" value=".00000000000000000E+000"/>
    <e0 Z="92" value=".00000000000000000E+000"/>
    <e0 Z="93" value=".00000000000000000E+000"/>
    <e0 Z="94" value=".00000000000000000E+000"/>
    <e0 Z="95" value=".00000000000000000E+000"/>
    <e0 Z="96" value=".00000000000000000E+000"/>
    <e0 Z="97" value=".00000000000000000E+000"/>
    <e0 Z="98" value=".00000000000000000E+000"/>
    <e0 Z="99" value=".00000000000000000E+000"/>
    <e0 Z="100" value=".00000000000000000E+000"/>
    <e0 Z="101" value=".00000000000000000E+000"/>
    <e0 Z="102" value=".00000000000000000E+000"/>
    <e0 Z="103" value=".00000000000000000E+000"/>
    <e0 Z="104" value=".00000000000000000E+000"/>
    <e0 Z="105" value=".00000000000000000E+000"/>
    <e0 Z="106" value=".00000000000000000E+000"/>
    <e0 Z="107" value=".00000000000000000E+000"/>
    <e0 Z="108" value=".00000000000000000E+000"/>
    <e0 Z="109" value=".00000000000000000E+000"/>
    <e0 Z="110" value=".00000000000000000E+000"/>
    <e0 Z="111" value=".00000000000000000E+000"/>
    <e0 Z="112" value=".00000000000000000E+000"/>
    <e0 Z="113" value=".00000000000000000E+000"/>
    <e0 Z="114" value=".00000000000000000E+000"/>
    <e0 Z="115" value=".00000000000000000E+000"/>
    <e0 Z="116" value=".00000000000000000E+000"/>
    <e0 Z="117" value=".00000000000000000E+000"/>
    <e0 Z="118" value=".00000000000000000E+000"/>
  </GAP_data>
  <gpSparse label="GAP_2024_6_5_120_0_55_56_533" n_coordinate="5" fitted="T">
    <gpCoordinates label="GAP_2024_6_5_120_0_55_56_5331" dimensions="1" signal_variance="1.0593752024390595" signal_mean=".00000000000000000E+000" sparsified="T" n_permutations="2" covariance_type="1" n_sparseX="15" sparseX_filename="gap_file.xml.sparseX.GAP_2024_6_5_120_0_55_56_5331" sparseX_md5sum="89e165a04701796753d328719e7e6de1">
      <theta>  0.50000000000000000E+000 </theta>
      <descriptor>distance_Nb order=2 f0=0.0               cutoff=5.0 n_sparse=15 covariance_type=ard_se delta=1.0593752024390595 theta_uniform=0.5 sparse_method=uniform compact_clusters=T Z={17 17 }</descriptor>
      <permutation i="1">1  </permutation>
      <permutation i="2">1  </permutation>
      <sparseX i="1" alpha="370.14739175110321" sparseCutoff=".31881054311800328E-001"/>
      <sparseX i="2" alpha="-293.59339231043396" sparseCutoff=".25830355226742319E-001"/>
      <sparseX i="3" alpha="63.175869997755228" sparseCutoff="1.0000000000000000"/>
      <sparseX i="4" alpha="-79.889977311134629" sparseCutoff="1.0000000000000000"/>
      <sparseX i="5" alpha="63.182510473100521" sparseCutoff="1.0000000000000000"/>
      <sparseX i="6" alpha="-67.505769136032427" sparseCutoff="1.0000000000000000"/>
      <sparseX i="7" alpha="84.814267944892151" sparseCutoff="1.0000000000000000"/>
      <sparseX i="8" alpha="-329.52266943614268" sparseCutoff=".25358253738672343E-001"/>
      <sparseX i="9" alpha="-78.325594461764524" sparseCutoff="1.0000000000000000"/>
      <sparseX i="10" alpha="-84.693132969244658" sparseCutoff="1.0000000000000000"/>
      <sparseX i="11" alpha="138.96429920310288" sparseCutoff=".30134557872241730E-001"/>
      <sparseX i="12" alpha="-17.125835848144760" sparseCutoff="1.0000000000000000"/>
      <sparseX i="13" alpha="-17.952198657457505" sparseCutoff="1.0000000000000000"/>
      <sparseX i="14" alpha="152.33822158232084" sparseCutoff="1.0000000000000000"/>
      <sparseX i="15" alpha="-18.247099232862389" sparseCutoff="1.0000000000000000"/>
    </gpCoordinates>
    <gpCoordinates label="GAP_2024_6_5_120_0_55_56_5332" dimensions="1" signal_variance="1.0593752024390595" signal_mean=".00000000000000000E+000" sparsified="T" n_permutations="1" covariance_type="1" n_sparseX="15" sparseX_filename="gap_file.xml.sparseX.GAP_2024_6_5_120_0_55_56_5332" sparseX_md5sum="7938863dbd4fa2e06c38625dcde87f60">
      <theta>  0.50000000000000000E+000 </theta>
      <descriptor>distance_Nb order=2 f0=0.0               cutoff=5.0 n_sparse=15 covariance_type=ard_se delta=1.0593752024390595 theta_uniform=0.5 sparse_method=uniform compact_clusters=T Z={3 17 }</descriptor>
      <permutation i="1">1  </permutation>
      <sparseX i="1" alpha="425.42871531727747" sparseCutoff="1.0000000000000000"/>
      <sparseX i="2" alpha="51.243045835330634" sparseCutoff="1.0000000000000000"/>
      <sparseX i="3" alpha="-198.87705348535766" sparseCutoff="1.0000000000000000"/>
      <sparseX i="4" alpha="-100.44285398231536" sparseCutoff="1.0000000000000000"/>
      <sparseX i="5" alpha="-257.61681685688723" sparseCutoff="1.0000000000000000"/>
      <sparseX i="6" alpha="-29.425369570950799" sparseCutoff="1.0000000000000000"/>
      <sparseX i="7" alpha="-38.894287976059879" sparseCutoff="1.0000000000000000"/>
      <sparseX i="8" alpha="116.16149229081545" sparseCutoff="1.0000000000000000"/>
      <sparseX i="9" alpha="83.896623827550812" sparseCutoff=".99565182586891576"/>
      <sparseX i="10" alpha="113.65427361684073" sparseCutoff="1.0000000000000000"/>
      <sparseX i="11" alpha="137.05234951004670" sparseCutoff=".99541822641240751"/>
      <sparseX i="12" alpha="-378.71620471867135" sparseCutoff=".99817897450276460"/>
      <sparseX i="13" alpha="1.0401632390603590" sparseCutoff="1.0000000000000000"/>
      <sparseX i="14" alpha="49.138867921501017" sparseCutoff=".99580817193116722"/>
      <sparseX i="15" alpha="26.511354831925065" sparseCutoff="1.0000000000000000"/>
    </gpCoordinates>
    <gpCoordinates label="GAP_2024_6_5_120_0_55_56_5333" dimensions="1" signal_variance="1.0593752024390595" signal_mean=".00000000000000000E+000" sparsified="T" n_permutations="2" covariance_type="1" n_sparseX="15" sparseX_filename="gap_file.xml.sparseX.GAP_2024_6_5_120_0_55_56_5333" sparseX_md5sum="f26deacea78fe360480dd35bde8b6d6e">
      <theta>  0.50000000000000000E+000 </theta>
      <descriptor>distance_Nb order=2 f0=0.0               cutoff=5.0 n_sparse=15 covariance_type=ard_se delta=1.0593752024390595 theta_uniform=0.5 sparse_method=uniform compact_clusters=T Z={3 3 }</descriptor>
      <permutation i="1">1  </permutation>
      <permutation i="2">1  </permutation>
      <sparseX i="1" alpha="132.79887827643768" sparseCutoff=".66922198847080949E-001"/>
      <sparseX i="2" alpha="22.835807577024614" sparseCutoff=".57491213082239145E-004"/>
      <sparseX i="3" alpha="-55.495827310343934" sparseCutoff="1.0000000000000000"/>
      <sparseX i="4" alpha="127.66570529213119" sparseCutoff="1.0000000000000000"/>
      <sparseX i="5" alpha="-250.74094128509950" sparseCutoff=".23484842981078335E-001"/>
      <sparseX i="6" alpha="252.19615621827822" sparseCutoff=".18068491072584236E-001"/>
      <sparseX i="7" alpha="-601.19499181616891" sparseCutoff=".27283895978582273E-001"/>
      <sparseX i="8" alpha="722.52098669568466" sparseCutoff=".11772365744342872E-001"/>
      <sparseX i="9" alpha="110.38665524274732" sparseCutoff="1.0000000000000000"/>
      <sparseX i="10" alpha="-179.98024842113975" sparseCutoff="1.0000000000000000"/>
      <sparseX i="11" alpha="91.407712343587235" sparseCutoff="1.0000000000000000"/>
      <sparseX i="12" alpha="358.02357190269589" sparseCutoff=".12848567428563329E-002"/>
      <sparseX i="13" alpha="212.86145074322542" sparseCutoff="1.0000000000000000"/>
      <sparseX i="14" alpha="-137.38814391284706" sparseCutoff="1.0000000000000000"/>
      <sparseX i="15" alpha="-169.73347578059341" sparseCutoff="1.0000000000000000"/>
    </gpCoordinates>
    <gpCoordinates label="GAP_2024_6_5_120_0_55_56_5334" dimensions="3301" signal_variance=".43959018028216806E-006" signal_mean=".00000000000000000E+000" sparsified="T" n_permutations="1" covariance_type="2" zeta="4.0000000000000000" n_sparseX="70" sparseX_filename="gap_file.xml.sparseX.GAP_2024_6_5_120_0_55_56_5334" sparseX_md5sum="e9a61fc125bc9a53eb62da3c7a5a0f4d">
      <descriptor>soap               l_max=10 n_max=12 atom_sigma=0.5 zeta=4 cutoff=5.0 cutoff_transition_width=0.5 central_weight=1.0 n_sparse=4000 delta=4.3959018028216806e-07 f0=0.0 covariance_type=dot_product sparse_method=cur_points n_species=2 Z=17 species_Z={17 3 }</descriptor>
      <permutation i="1">1  </permutation>
      <sparseX i="1" alpha="-.26593673208393262E-006" sparseCutoff="1.0000000000000000"/>
      <sparseX i="2" alpha="-.40437693000216563E-003" sparseCutoff="1.0000000000000000"/>
      <sparseX i="3" alpha="-.40887672827108907E-003" sparseCutoff="1.0000000000000000"/>
      <sparseX i="4" alpha="-.40295149317353085E-003" sparseCutoff="1.0000000000000000"/>
      <sparseX i="5" alpha="-.40805310213584179E-003" sparseCutoff="1.0000000000000000"/>
      <sparseX i="6" alpha="-.40954586970355200E-003" sparseCutoff="1.0000000000000000"/>
      <sparseX i="7" alpha="-.40849649665081504E-003" sparseCutoff="1.0000000000000000"/>
      <sparseX i="8" alpha="-.40693878482315696E-003" sparseCutoff="1.0000000000000000"/>
      <sparseX i="9" alpha="-.40747644547182798E-003" sparseCutoff="1.0000000000000000"/>
      <sparseX i="10" alpha="-.40711994665762377E-003" sparseCutoff="1.0000000000000000"/>
      <sparseX i="11" alpha="-.40852563254027333E-003" sparseCutoff="1.0000000000000000"/>
      <sparseX i="12" alpha="-.40324326630345592E-003" sparseCutoff="1.0000000000000000"/>
      <sparseX i="13" alpha="-.40737419892579018E-003" sparseCutoff="1.0000000000000000"/>
      <sparseX i="14" alpha="-.40628825129159429E-003" sparseCutoff="1.0000000000000000"/>
      <sparseX i="15" alpha="-.40796960955014186E-003" sparseCutoff="1.0000000000000000"/>
      <sparseX i="16" alpha="-.40734687153503338E-003" sparseCutoff="1.0000000000000000"/>
      <sparseX i="17" alpha="-.40827012319054226E-003" sparseCutoff="1.0000000000000000"/>
      <sparseX i="18" alpha="-.40815390161781488E-003" sparseCutoff="1.0000000000000000"/>
      <sparseX i="19" alpha="-.40685519824378534E-003" sparseCutoff="1.0000000000000000"/>
      <sparseX i="20" alpha="-.40826718527038218E-003" sparseCutoff="1.0000000000000000"/>
      <sparseX i="21" alpha="-.40200300012928841E-003" sparseCutoff="1.0000000000000000"/>
      <sparseX i="22" alpha="-.40721727188898016E-003" sparseCutoff="1.0000000000000000"/>
      <sparseX i="23" alpha="-.40915171570718190E-003" sparseCutoff="1.0000000000000000"/>
      <sparseX i="24" alpha="-.40928965100807716E-003" sparseCutoff="1.0000000000000000"/>
      <sparseX i="25" alpha="-.40544468368012697E-003" sparseCutoff="1.0000000000000000"/>
      <sparseX i="26" alpha="-.40727213800509891E-003" sparseCutoff="1.0000000000000000"/>
      <sparseX i="27" alpha="-.40609717885166401E-003" sparseCutoff="1.0000000000000000"/>
      <sparseX i="28" alpha="-.40514673672362915E-003" sparseCutoff="1.0000000000000000"/>
      <sparseX i="29" alpha="-.40548871031653998E-003" sparseCutoff="1.0000000000000000"/>
      <sparseX i="30" alpha="-.40943817214760567E-003" sparseCutoff="1.0000000000000000"/>
      <sparseX i="31" alpha="-.40580806440676840E-003" sparseCutoff="1.0000000000000000"/>
      <sparseX i="32" alpha="-.41110071691200699E-003" sparseCutoff="1.0000000000000000"/>
      <sparseX i="33" alpha="-.40575033285040286E-003" sparseCutoff="1.0000000000000000"/>
      <sparseX i="34" alpha="-.43236549145849173E-003" sparseCutoff="1.0000000000000000"/>
      <sparseX i="35" alpha="-.43305765234532607E-003" sparseCutoff="1.0000000000000000"/>
      <sparseX i="36" alpha="-.43465803483088106E-003" sparseCutoff="1.0000000000000000"/>
      <sparseX i="37" alpha="-.43180784548314653E-003" sparseCutoff="1.0000000000000000"/>
      <sparseX i="38" alpha="-.43338232349451547E-003" sparseCutoff="1.0000000000000000"/>
      <sparseX i="39" alpha="-.43511896161781106E-003" sparseCutoff="1.0000000000000000"/>
      <sparseX i="40" alpha="-.43522641278550525E-003" sparseCutoff="1.0000000000000000"/>
      <sparseX i="41" alpha="-.43447409524196483E-003" sparseCutoff="1.0000000000000000"/>
      <sparseX i="42" alpha="-.43388060991348006E-003" sparseCutoff="1.0000000000000000"/>
      <sparseX i="43" alpha="-.43280784107103948E-003" sparseCutoff="1.0000000000000000"/>
      <sparseX i="44" alpha="-.43436904239916197E-003" sparseCutoff="1.0000000000000000"/>
      <sparseX i="45" alpha="-.43370868804331811E-003" sparseCutoff="1.0000000000000000"/>
      <sparseX i="46" alpha="-.43289927151719213E-003" sparseCutoff="1.0000000000000000"/>
      <sparseX i="47" alpha="-.43327406981534782E-003" sparseCutoff="1.0000000000000000"/>
      <sparseX i="48" alpha="-.43490749381793788E-003" sparseCutoff="1.0000000000000000"/>
      <sparseX i="49" alpha="-.43478050388138400E-003" sparseCutoff="1.0000000000000000"/>
      <sparseX i="50" alpha="-.43385141427880621E-003" sparseCutoff="1.0000000000000000"/>
      <sparseX i="51" alpha="-.43146396320648087E-003" sparseCutoff="1.0000000000000000"/>
      <sparseX i="52" alpha="-.43436021723118606E-003" sparseCutoff="1.0000000000000000"/>
      <sparseX i="53" alpha="-.43384515433471545E-003" sparseCutoff="1.0000000000000000"/>
      <sparseX i="54" alpha="-.43402244937578089E-003" sparseCutoff="1.0000000000000000"/>
      <sparseX i="55" alpha="-.43372593850188481E-003" sparseCutoff="1.0000000000000000"/>
      <sparseX i="56" alpha="-.43311478979504470E-003" sparseCutoff="1.0000000000000000"/>
      <sparseX i="57" alpha="-.43557729657227101E-003" sparseCutoff="1.0000000000000000"/>
      <sparseX i="58" alpha="-.43225875389483386E-003" sparseCutoff="1.0000000000000000"/>
      <sparseX i="59" alpha="-.43161800849548658E-003" sparseCutoff="1.0000000000000000"/>
      <sparseX i="60" alpha="-.43387728755961473E-003" sparseCutoff="1.0000000000000000"/>
      <sparseX i="61" alpha="-.43326842209989876E-003" sparseCutoff="1.0000000000000000"/>
      <sparseX i="62" alpha="-.43448732429830951E-003" sparseCutoff="1.0000000000000000"/>
      <sparseX i="63" alpha="-.43335062976548026E-003" sparseCutoff="1.0000000000000000"/>
      <sparseX i="64" alpha="-.43500209787748447E-003" sparseCutoff="1.0000000000000000"/>
      <sparseX i="65" alpha="-.43619532980173568E-003" sparseCutoff="1.0000000000000000"/>
      <sparseX i="66" alpha="-.45447019804194499E-003" sparseCutoff="1.0000000000000000"/>
      <sparseX i="67" alpha="-.45444369692676495E-003" sparseCutoff="1.0000000000000000"/>
      <sparseX i="68" alpha="-.45433410225359966E-003" sparseCutoff="1.0000000000000000"/>
      <sparseX i="69" alpha="-.45444256166092046E-003" sparseCutoff="1.0000000000000000"/>
      <sparseX i="70" alpha="-.45455044192186685E-003" sparseCutoff="1.0000000000000000"/>
    </gpCoordinates>
    <gpCoordinates label="GAP_2024_6_5_120_0_55_56_5335" dimensions="3301" signal_variance=".43959018028216806E-006" signal_mean=".00000000000000000E+000" sparsified="T" n_permutations="1" covariance_type="2" zeta="4.0000000000000000" n_sparseX="71" sparseX_filename="gap_file.xml.sparseX.GAP_2024_6_5_120_0_55_56_5335" sparseX_md5sum="029ebd8d6bc5de0a45e60c0b06e0c649">
      <descriptor>soap               l_max=10 n_max=12 atom_sigma=0.5 zeta=4 cutoff=5.0 cutoff_transition_width=0.5 central_weight=1.0 n_sparse=4000 delta=4.3959018028216806e-07 f0=0.0 covariance_type=dot_product sparse_method=cur_points n_species=2 Z=3 species_Z={17 3 }</descriptor>
      <permutation i="1">1  </permutation>
      <sparseX i="1" alpha="-.27238092450088682E-006" sparseCutoff="1.0000000000000000"/>
      <sparseX i="2" alpha="-.39412542564001444E-003" sparseCutoff="1.0000000000000000"/>
      <sparseX i="3" alpha="-.39449606237149549E-003" sparseCutoff="1.0000000000000000"/>
      <sparseX i="4" alpha="-.39346471839233618E-003" sparseCutoff="1.0000000000000000"/>
      <sparseX i="5" alpha="-.39044441873578161E-003" sparseCutoff="1.0000000000000000"/>
      <sparseX i="6" alpha="-.39802063644168572E-003" sparseCutoff="1.0000000000000000"/>
      <sparseX i="7" alpha="-.39508003897631601E-003" sparseCutoff="1.0000000000000000"/>
      <sparseX i="8" alpha="-.39502338426187925E-003" sparseCutoff="1.0000000000000000"/>
      <sparseX i="9" alpha="-.39014998067793882E-003" sparseCutoff="1.0000000000000000"/>
      <sparseX i="10" alpha="-.39767692675949029E-003" sparseCutoff="1.0000000000000000"/>
      <sparseX i="11" alpha="-.39294241765781607E-003" sparseCutoff="1.0000000000000000"/>
      <sparseX i="12" alpha="-.39410668366010815E-003" sparseCutoff="1.0000000000000000"/>
      <sparseX i="13" alpha="-.39060857733180267E-003" sparseCutoff="1.0000000000000000"/>
      <sparseX i="14" alpha="-.39587575462677612E-003" sparseCutoff="1.0000000000000000"/>
      <sparseX i="15" alpha="-.39254646401998565E-003" sparseCutoff="1.0000000000000000"/>
      <sparseX i="16" alpha="-.39355422848622777E-003" sparseCutoff="1.0000000000000000"/>
      <sparseX i="17" alpha="-.39367620091688765E-003" sparseCutoff="1.0000000000000000"/>
      <sparseX i="18" alpha="-.39335348928414829E-003" sparseCutoff="1.0000000000000000"/>
      <sparseX i="19" alpha="-.39688687452700116E-003" sparseCutoff="1.0000000000000000"/>
      <sparseX i="20" alpha="-.39011575127497492E-003" sparseCutoff="1.0000000000000000"/>
      <sparseX i="21" alpha="-.39388015650118451E-003" sparseCutoff="1.0000000000000000"/>
      <sparseX i="22" alpha="-.39369207446196308E-003" sparseCutoff="1.0000000000000000"/>
      <sparseX i="23" alpha="-.39580734155641783E-003" sparseCutoff="1.0000000000000000"/>
      <sparseX i="24" alpha="-.39398381316333976E-003" sparseCutoff="1.0000000000000000"/>
      <sparseX i="25" alpha="-.39295102006395218E-003" sparseCutoff="1.0000000000000000"/>
      <sparseX i="26" alpha="-.39196713078154679E-003" sparseCutoff="1.0000000000000000"/>
      <sparseX i="27" alpha="-.39505794182007997E-003" sparseCutoff="1.0000000000000000"/>
      <sparseX i="28" alpha="-.39087928823480122E-003" sparseCutoff="1.0000000000000000"/>
      <sparseX i="29" alpha="-.39513876873449594E-003" sparseCutoff="1.0000000000000000"/>
      <sparseX i="30" alpha="-.39577919400534729E-003" sparseCutoff="1.0000000000000000"/>
      <sparseX i="31" alpha="-.39550557896269386E-003" sparseCutoff="1.0000000000000000"/>
      <sparseX i="32" alpha="-.39216637111393282E-003" sparseCutoff="1.0000000000000000"/>
      <sparseX i="33" alpha="-.39449214631937657E-003" sparseCutoff="1.0000000000000000"/>
      <sparseX i="34" alpha="-.42578940716205601E-003" sparseCutoff="1.0000000000000000"/>
      <sparseX i="35" alpha="-.42672478697337895E-003" sparseCutoff="1.0000000000000000"/>
      <sparseX i="36" alpha="-.42669845048444634E-003" sparseCutoff="1.0000000000000000"/>
      <sparseX i="37" alpha="-.42627164353599087E-003" sparseCutoff="1.0000000000000000"/>
      <sparseX i="38" alpha="-.42826868756172651E-003" sparseCutoff="1.0000000000000000"/>
      <sparseX i="39" alpha="-.42668312643291142E-003" sparseCutoff="1.0000000000000000"/>
      <sparseX i="40" alpha="-.42821645348426900E-003" sparseCutoff="1.0000000000000000"/>
      <sparseX i="41" alpha="-.42792237128003988E-003" sparseCutoff="1.0000000000000000"/>
      <sparseX i="42" alpha="-.42669439194236239E-003" sparseCutoff="1.0000000000000000"/>
      <sparseX i="43" alpha="-.42514129300018534E-003" sparseCutoff="1.0000000000000000"/>
      <sparseX i="44" alpha="-.42673254086665949E-003" sparseCutoff="1.0000000000000000"/>
      <sparseX i="45" alpha="-.42627918751055098E-003" sparseCutoff="1.0000000000000000"/>
      <sparseX i="46" alpha="-.42702893849976621E-003" sparseCutoff="1.0000000000000000"/>
      <sparseX i="47" alpha="-.42714806593617083E-003" sparseCutoff="1.0000000000000000"/>
      <sparseX i="48" alpha="-.42837548964182312E-003" sparseCutoff="1.0000000000000000"/>
      <sparseX i="49" alpha="-.42847148248356735E-003" sparseCutoff="1.0000000000000000"/>
      <sparseX i="50" alpha="-.42530406343156338E-003" sparseCutoff="1.0000000000000000"/>
      <sparseX i="51" alpha="-.42761301299258208E-003" sparseCutoff="1.0000000000000000"/>
      <sparseX i="52" alpha="-.42798486374577051E-003" sparseCutoff="1.0000000000000000"/>
      <sparseX i="53" alpha="-.42631563746683000E-003" sparseCutoff="1.0000000000000000"/>
      <sparseX i="54" alpha="-.42657480975872626E-003" sparseCutoff="1.0000000000000000"/>
      <sparseX i="55" alpha="-.42745217503304967E-003" sparseCutoff="1.0000000000000000"/>
      <sparseX i="56" alpha="-.42841751151245864E-003" sparseCutoff="1.0000000000000000"/>
      <sparseX i="57" alpha="-.42620787835558435E-003" sparseCutoff="1.0000000000000000"/>
      <sparseX i="58" alpha="-.42665370047011695E-003" sparseCutoff="1.0000000000000000"/>
      <sparseX i="59" alpha="-.42724383288040359E-003" sparseCutoff="1.0000000000000000"/>
      <sparseX i="60" alpha="-.42760512375145674E-003" sparseCutoff="1.0000000000000000"/>
      <sparseX i="61" alpha="-.42627235103176962E-003" sparseCutoff="1.0000000000000000"/>
      <sparseX i="62" alpha="-.42736254311659166E-003" sparseCutoff="1.0000000000000000"/>
      <sparseX i="63" alpha="-.42762756309876659E-003" sparseCutoff="1.0000000000000000"/>
      <sparseX i="64" alpha="-.42773590397925771E-003" sparseCutoff="1.0000000000000000"/>
      <sparseX i="65" alpha="-.42544150552244474E-003" sparseCutoff="1.0000000000000000"/>
      <sparseX i="66" alpha="-.43979851368514513E-003" sparseCutoff="1.0000000000000000"/>
      <sparseX i="67" alpha="-.43959755623919507E-003" sparseCutoff="1.0000000000000000"/>
      <sparseX i="68" alpha="-.43964785535725485E-003" sparseCutoff="1.0000000000000000"/>
      <sparseX i="69" alpha="-.43975748212902354E-003" sparseCutoff="1.0000000000000000"/>
      <sparseX i="70" alpha="-.43970274891965658E-003" sparseCutoff="1.0000000000000000"/>
      <sparseX i="71" alpha="-.43970245298476757E-003" sparseCutoff="1.0000000000000000"/>
    </gpCoordinates>
  </gpSparse>
  <command_line><![CDATA[ at_file=/home/certural/git/autoplex/tests/auto/job_2024-06-04-22-54-12-342944-72190/train.extxyz default_sigma={0.0001 0.05 0.05 0} energy_parameter_name=REF_energy force_parameter_name=REF_forces virial_parameter_name=REF_virial sparse_jitter=1e-08 do_copy_at_file=F openmp_chunk_size=10000 gp_file=gap_file.xml gap={distance_Nb order=2 f0=0.0 add_species=T cutoff=5.0 n_sparse=15 covariance_type=ard_se delta=1.0593752024390595 theta_uniform=0.5 sparse_method=uniform compact_clusters=T :soap add_species=T l_max=10 n_max=12 atom_sigma=0.5 zeta=4 cutoff=5.0 cutoff_transition_width=0.5 central_weight=1.0 n_sparse=4000 delta=4.3959018028216806e-07 f0=0.0 covariance_type=dot_product sparse_method=cur_points}]]></command_line>
</GAP_params>
</GAP_2024_6_5_120_0_55_56_533>
