<GAP_2024_6_5_120_0_54_56_565>
<Potential label="GAP_2024_6_5_120_0_54_56_565" init_args="IP GAP label=GAP_2024_6_5_120_0_54_56_565"/>
<GAP_params label="GAP_2024_6_5_120_0_54_56_565" gap_version="1686220958">
  <GAP_data do_core="F">
    <e0 Z="1" value=".00000000000000000E+000"/>
    <e0 Z="2" value=".00000000000000000E+000"/>
    <e0 Z="3" value="-.28663766000000002"/>
    <e0 Z="4" value=".00000000000000000E+000"/>
    <e0 Z="5" value=".00000000000000000E+000"/>
    <e0 Z="6" value=".00000000000000000E+000"/>
    <e0 Z="7" value=".00000000000000000E+000"/>
    <e0 Z="8" value=".00000000000000000E+000"/>
    <e0 Z="9" value=".00000000000000000E+000"/>
    <e0 Z="10" value=".00000000000000000E+000"/>
    <e0 Z="11" value=".00000000000000000E+000"/>
    <e0 Z="12" value=".00000000000000000E+000"/>
    <e0 Z="13" value=".00000000000000000E+000"/>
    <e0 Z="14" value=".00000000000000000E+000"/>
    <e0 Z="15" value=".00000000000000000E+000"/>
    <e0 Z="16" value=".00000000000000000E+000"/>
    <e0 Z="17" value="-.27567309000000001"/>
    <e0 Z="18" value=".00000000000000000E+000"/>
    <e0 Z="19" value=".00000000000000000E+000"/>
    <e0 Z="20" value=".00000000000000000E+000"/>
    <e0 Z="21" value=".00000000000000000E+000"/>
    <e0 Z="22" value=".00000000000000000E+000"/>
    <e0 Z="23" value=".00000000000000000E+000"/>
    <e0 Z="24" value=".00000000000000000E+000"/>
    <e0 Z="25" value=".00000000000000000E+000"/>
    <e0 Z="26" value=".00000000000000000E+000"/>
    <e0 Z="27" value=".00000000000000000E+000"/>
    <e0 Z="28" value=".00000000000000000E+000"/>
    <e0 Z="29" value=".00000000000000000E+000"/>
    <e0 Z="30" value=".00000000000000000E+000"/>
    <e0 Z="31" value=".00000000000000000E+000"/>
    <e0 Z="32" value=".00000000000000000E+000"/>
    <e0 Z="33" value=".00000000000000000E+000"/>
    <e0 Z="34" value=".00000000000000000E+000"/>
    <e0 Z="35" value=".00000000000000000E+000"/>
    <e0 Z="36" value=".00000000000000000E+000"/>
    <e0 Z="37" value=".00000000000000000E+000"/>
    <e0 Z="38" value=".00000000000000000E+000"/>
    <e0 Z="39" value=".00000000000000000E+000"/>
    <e0 Z="40" value=".00000000000000000E+000"/>
    <e0 Z="41" value=".00000000000000000E+000"/>
    <e0 Z="42" value=".00000000000000000E+000"/>
    <e0 Z="43" value=".00000000000000000E+000"/>
    <e0 Z="44" value=".00000000000000000E+000"/>
    <e0 Z="45" value=".00000000000000000E+000"/>
    <e0 Z="46" value=".00000000000000000E+000"/>
    <e0 Z="47" value=".00000000000000000E+000"/>
    <e0 Z="48" value=".00000000000000000E+000"/>
    <e0 Z="49" value=".00000000000000000E+000"/>
    <e0 Z="50" value=".00000000000000000E+000"/>
    <e0 Z="51" value=".00000000000000000E+000"/>
    <e0 Z="52" value=".00000000000000000E+000"/>
    <e0 Z="53" value=".00000000000000000E+000"/>
    <e0 Z="54" value=".00000000000000000E+000"/>
    <e0 Z="55" value=".00000000000000000E+000"/>
    <e0 Z="56" value=".00000000000000000E+000"/>
    <e0 Z="57" value=".00000000000000000E+000"/>
    <e0 Z="58" value=".00000000000000000E+000"/>
    <e0 Z="59" value=".00000000000000000E+000"/>
    <e0 Z="60" value=".00000000000000000E+000"/>
    <e0 Z="61" value=".00000000000000000E+000"/>
    <e0 Z="62" value=".00000000000000000E+000"/>
    <e0 Z="63" value=".00000000000000000E+000"/>
    <e0 Z="64" value=".00000000000000000E+000"/>
    <e0 Z="65" value=".00000000000000000E+000"/>
    <e0 Z="66" value=".00000000000000000E+000"/>
    <e0 Z="67" value=".00000000000000000E+000"/>
    <e0 Z="68" value=".00000000000000000E+000"/>
    <e0 Z="69" value=".00000000000000000E+000"/>
    <e0 Z="70" value=".00000000000000000E+000"/>
    <e0 Z="71" value=".00000000000000000E+000"/>
    <e0 Z="72" value=".00000000000000000E+000"/>
    <e0 Z="73" value=".00000000000000000E+000"/>
    <e0 Z="74" value=".00000000000000000E+000"/>
    <e0 Z="75" value=".00000000000000000E+000"/>
    <e0 Z="76" value=".00000000000000000E+000"/>
    <e0 Z="77" value=".00000000000000000E+000"/>
    <e0 Z="78" value=".00000000000000000E+000"/>
    <e0 Z="79" value=".00000000000000000E+000"/>
    <e0 Z="80" value=".00000000000000000E+000"/>
    <e0 Z="81" value=".00000000000000000E+000"/>
    <e0 Z="82" value=".00000000000000000E+000"/>
    <e0 Z="83" value=".00000000000000000E+000"/>
    <e0 Z="84" value=".00000000000000000E+000"/>
    <e0 Z="85" value=".00000000000000000E+000"/>
    <e0 Z="86" value=".00000000000000000E+000"/>
    <e0 Z="87" value=".00000000000000000E+000"/>
    <e0 Z="88" value=".00000000000000000E+000"/>
    <e0 Z="89" value=".00000000000000000E+000"/>
    <e0 Z="90" value=".00000000000000000E+000"/>
    <e0 Z="91" value=".00000000000000000E+000"/>
    <e0 Z="92" value=".00000000000000000E+000"/>
    <e0 Z="93" value=".00000000000000000E+000"/>
    <e0 Z="94" value=".00000000000000000E+000"/>
    <e0 Z="95" value=".00000000000000000E+000"/>
    <e0 Z="96" value=".00000000000000000E+000"/>
    <e0 Z="97" value=".00000000000000000E+000"/>
    <e0 Z="98" value=".00000000000000000E+000"/>
    <e0 Z="99" value=".00000000000000000E+000"/>
    <e0 Z="100" value=".00000000000000000E+000"/>
    <e0 Z="101" value=".00000000000000000E+000"/>
    <e0 Z="102" value=".00000000000000000E+000"/>
    <e0 Z="103" value=".00000000000000000E+000"/>
    <e0 Z="104" value=".00000000000000000E+000"/>
    <e0 Z="105" value=".00000000000000000E+000"/>
    <e0 Z="106" value=".00000000000000000E+000"/>
    <e0 Z="107" value=".00000000000000000E+000"/>
    <e0 Z="108" value=".00000000000000000E+000"/>
    <e0 Z="109" value=".00000000000000000E+000"/>
    <e0 Z="110" value=".00000000000000000E+000"/>
    <e0 Z="111" value=".00000000000000000E+000"/>
    <e0 Z="112" value=".00000000000000000E+000"/>
    <e0 Z="113" value=".00000000000000000E+000"/>
    <e0 Z="114" value=".00000000000000000E+000"/>
    <e0 Z="115" value=".00000000000000000E+000"/>
    <e0 Z="116" value=".00000000000000000E+000"/>
    <e0 Z="117" value=".00000000000000000E+000"/>
    <e0 Z="118" value=".00000000000000000E+000"/>
  </GAP_data>
  <gpSparse label="GAP_2024_6_5_120_0_54_56_565" n_coordinate="5" fitted="T">
    <gpCoordinates label="GAP_2024_6_5_120_0_54_56_5651" dimensions="1" signal_variance="1.0593752024390595" signal_mean=".00000000000000000E+000" sparsified="T" n_permutations="2" covariance_type="1" n_sparseX="15" sparseX_filename="gap_file.xml.sparseX.GAP_2024_6_5_120_0_54_56_5651" sparseX_md5sum="ad33965b3033ed51fc1eb1315504c16f">
      <theta>  0.50000000000000000E+000 </theta>
      <descriptor>distance_Nb order=2 f0=0.0               cutoff=5.0 n_sparse=15 covariance_type=ard_se delta=1.0593752024390595 theta_uniform=0.5 sparse_method=uniform compact_clusters=T Z={17 17 }</descriptor>
      <permutation i="1">1  </permutation>
      <permutation i="2">1  </permutation>
      <sparseX i="1" alpha="298.08426550821554" sparseCutoff=".31881054311800328E-001"/>
      <sparseX i="2" alpha="-107.93280312529490" sparseCutoff=".25830355226742319E-001"/>
      <sparseX i="3" alpha="74.723367683548474" sparseCutoff="1.0000000000000000"/>
      <sparseX i="4" alpha="-215.06359650501122" sparseCutoff=".18939155285120579E-001"/>
      <sparseX i="5" alpha="-20.543691575283589" sparseCutoff="1.0000000000000000"/>
      <sparseX i="6" alpha="17.592878252482052" sparseCutoff="1.0000000000000000"/>
      <sparseX i="7" alpha="19.230039906592275" sparseCutoff="1.0000000000000000"/>
      <sparseX i="8" alpha="-191.66973330384513" sparseCutoff=".17081228900447387E-001"/>
      <sparseX i="9" alpha="-22.557599357011185" sparseCutoff="1.0000000000000000"/>
      <sparseX i="10" alpha="-41.096465378665350" sparseCutoff="1.0000000000000000"/>
      <sparseX i="11" alpha="83.942101539726764" sparseCutoff=".82603370370283868E-002"/>
      <sparseX i="12" alpha="-88.195133299992008" sparseCutoff="1.0000000000000000"/>
      <sparseX i="13" alpha="14.245212389508325" sparseCutoff="1.0000000000000000"/>
      <sparseX i="14" alpha="131.15034861167962" sparseCutoff="1.0000000000000000"/>
      <sparseX i="15" alpha="-84.831165175798844" sparseCutoff="1.0000000000000000"/>
    </gpCoordinates>
    <gpCoordinates label="GAP_2024_6_5_120_0_54_56_5652" dimensions="1" signal_variance="1.0593752024390595" signal_mean=".00000000000000000E+000" sparsified="T" n_permutations="1" covariance_type="1" n_sparseX="15" sparseX_filename="gap_file.xml.sparseX.GAP_2024_6_5_120_0_54_56_5652" sparseX_md5sum="9d4460a419312f63249ebcce2e3caee8">
      <theta>  0.50000000000000000E+000 </theta>
      <descriptor>distance_Nb order=2 f0=0.0               cutoff=5.0 n_sparse=15 covariance_type=ard_se delta=1.0593752024390595 theta_uniform=0.5 sparse_method=uniform compact_clusters=T Z={3 17 }</descriptor>
      <permutation i="1">1  </permutation>
      <sparseX i="1" alpha="-150.24697806914415" sparseCutoff="1.0000000000000000"/>
      <sparseX i="2" alpha="115.62754935085333" sparseCutoff="1.0000000000000000"/>
      <sparseX i="3" alpha="41.523824008906885" sparseCutoff="1.0000000000000000"/>
      <sparseX i="4" alpha="-13.165674668508835" sparseCutoff="1.0000000000000000"/>
      <sparseX i="5" alpha="101.14116677775435" sparseCutoff="1.0000000000000000"/>
      <sparseX i="6" alpha="-182.98539344309393" sparseCutoff="1.0000000000000000"/>
      <sparseX i="7" alpha="90.700512130335198" sparseCutoff="1.0000000000000000"/>
      <sparseX i="8" alpha="172.35657146318312" sparseCutoff="1.0000000000000000"/>
      <sparseX i="9" alpha="-92.453968085590816" sparseCutoff="1.0000000000000000"/>
      <sparseX i="10" alpha="-560.79400658272095" sparseCutoff=".99565182586891576"/>
      <sparseX i="11" alpha="351.03169738280815" sparseCutoff=".98321135064395038"/>
      <sparseX i="12" alpha=".29861495596290555" sparseCutoff="1.0000000000000000"/>
      <sparseX i="13" alpha="441.90555433807475" sparseCutoff=".99983964351638355"/>
      <sparseX i="14" alpha="-191.97163142895380" sparseCutoff=".98688596960120190"/>
      <sparseX i="15" alpha="-122.31607671288869" sparseCutoff="1.0000000000000000"/>
    </gpCoordinates>
    <gpCoordinates label="GAP_2024_6_5_120_0_54_56_5653" dimensions="1" signal_variance="1.0593752024390595" signal_mean=".00000000000000000E+000" sparsified="T" n_permutations="2" covariance_type="1" n_sparseX="15" sparseX_filename="gap_file.xml.sparseX.GAP_2024_6_5_120_0_54_56_5653" sparseX_md5sum="c6c2d19d9cd6ef530e951081c8928c1c">
      <theta>  0.50000000000000000E+000 </theta>
      <descriptor>distance_Nb order=2 f0=0.0               cutoff=5.0 n_sparse=15 covariance_type=ard_se delta=1.0593752024390595 theta_uniform=0.5 sparse_method=uniform compact_clusters=T Z={3 3 }</descriptor>
      <permutation i="1">1  </permutation>
      <permutation i="2">1  </permutation>
      <sparseX i="1" alpha="94.347011983911287" sparseCutoff=".66922198847080949E-001"/>
      <sparseX i="2" alpha="20.147634348195488" sparseCutoff=".57491213082239145E-004"/>
      <sparseX i="3" alpha="-607.68200684693818" sparseCutoff=".25321385086227777E-001"/>
      <sparseX i="4" alpha="-373.92819880572915" sparseCutoff="1.0000000000000000"/>
      <sparseX i="5" alpha="77.830182207056794" sparseCutoff="1.0000000000000000"/>
      <sparseX i="6" alpha="84.222445099169775" sparseCutoff=".17627698898015520E-001"/>
      <sparseX i="7" alpha="-277.55722496309090" sparseCutoff="1.0000000000000000"/>
      <sparseX i="8" alpha="118.82443893575589" sparseCutoff="1.0000000000000000"/>
      <sparseX i="9" alpha="632.93548889354770" sparseCutoff=".96011869216792722E-002"/>
      <sparseX i="10" alpha="91.478888364506886" sparseCutoff=".17543890944680340E-001"/>
      <sparseX i="11" alpha="139.60815321881776" sparseCutoff="1.0000000000000000"/>
      <sparseX i="12" alpha="131.15535912661755" sparseCutoff="1.0000000000000000"/>
      <sparseX i="13" alpha="129.67918901235234" sparseCutoff="1.0000000000000000"/>
      <sparseX i="14" alpha="-314.73657171191923" sparseCutoff="1.0000000000000000"/>
      <sparseX i="15" alpha="368.91419627148264" sparseCutoff="1.0000000000000000"/>
    </gpCoordinates>
    <gpCoordinates label="GAP_2024_6_5_120_0_54_56_5654" dimensions="3301" signal_variance=".44000639434043919E-006" signal_mean=".00000000000000000E+000" sparsified="T" n_permutations="1" covariance_type="2" zeta="4.0000000000000000" n_sparseX="70" sparseX_filename="gap_file.xml.sparseX.GAP_2024_6_5_120_0_54_56_5654" sparseX_md5sum="e9a61fc125bc9a53eb62da3c7a5a0f4d">
      <descriptor>soap               l_max=10 n_max=12 atom_sigma=0.5 zeta=4 cutoff=5.0 cutoff_transition_width=0.5 central_weight=1.0 n_sparse=6000 delta=4.400063943404392e-07 f0=0.0 covariance_type=dot_product sparse_method=cur_points n_species=2 Z=17 species_Z={17 3 }</descriptor>
      <permutation i="1">1  </permutation>
      <sparseX i="1" alpha="-.34842180413657625E-006" sparseCutoff="1.0000000000000000"/>
      <sparseX i="2" alpha="-.40595665491768162E-003" sparseCutoff="1.0000000000000000"/>
      <sparseX i="3" alpha="-.41044422681766615E-003" sparseCutoff="1.0000000000000000"/>
      <sparseX i="4" alpha="-.40453403170299268E-003" sparseCutoff="1.0000000000000000"/>
      <sparseX i="5" alpha="-.40962629156418145E-003" sparseCutoff="1.0000000000000000"/>
      <sparseX i="6" alpha="-.41111371884765252E-003" sparseCutoff="1.0000000000000000"/>
      <sparseX i="7" alpha="-.41006475276092984E-003" sparseCutoff="1.0000000000000000"/>
      <sparseX i="8" alpha="-.40851549037304873E-003" sparseCutoff="1.0000000000000000"/>
      <sparseX i="9" alpha="-.40905113076184971E-003" sparseCutoff="1.0000000000000000"/>
      <sparseX i="10" alpha="-.40869221620526408E-003" sparseCutoff="1.0000000000000000"/>
      <sparseX i="11" alpha="-.41009452396218978E-003" sparseCutoff="1.0000000000000000"/>
      <sparseX i="12" alpha="-.40482793942130390E-003" sparseCutoff="1.0000000000000000"/>
      <sparseX i="13" alpha="-.40894599647780692E-003" sparseCutoff="1.0000000000000000"/>
      <sparseX i="14" alpha="-.40786364905063914E-003" sparseCutoff="1.0000000000000000"/>
      <sparseX i="15" alpha="-.40954105040955124E-003" sparseCutoff="1.0000000000000000"/>
      <sparseX i="16" alpha="-.40892086905832022E-003" sparseCutoff="1.0000000000000000"/>
      <sparseX i="17" alpha="-.40984295422411514E-003" sparseCutoff="1.0000000000000000"/>
      <sparseX i="18" alpha="-.40972158429749915E-003" sparseCutoff="1.0000000000000000"/>
      <sparseX i="19" alpha="-.40842905016684250E-003" sparseCutoff="1.0000000000000000"/>
      <sparseX i="20" alpha="-.40983909138489190E-003" sparseCutoff="1.0000000000000000"/>
      <sparseX i="21" alpha="-.40358862853187073E-003" sparseCutoff="1.0000000000000000"/>
      <sparseX i="22" alpha="-.40878989257179193E-003" sparseCutoff="1.0000000000000000"/>
      <sparseX i="23" alpha="-.41072149531614331E-003" sparseCutoff="1.0000000000000000"/>
      <sparseX i="24" alpha="-.41085982153567328E-003" sparseCutoff="1.0000000000000000"/>
      <sparseX i="25" alpha="-.40702396283265395E-003" sparseCutoff="1.0000000000000000"/>
      <sparseX i="26" alpha="-.40884298073593558E-003" sparseCutoff="1.0000000000000000"/>
      <sparseX i="27" alpha="-.40767518858233202E-003" sparseCutoff="1.0000000000000000"/>
      <sparseX i="28" alpha="-.40672564983611356E-003" sparseCutoff="1.0000000000000000"/>
      <sparseX i="29" alpha="-.40706498015217346E-003" sparseCutoff="1.0000000000000000"/>
      <sparseX i="30" alpha="-.41100397903568120E-003" sparseCutoff="1.0000000000000000"/>
      <sparseX i="31" alpha="-.40738349212855930E-003" sparseCutoff="1.0000000000000000"/>
      <sparseX i="32" alpha="-.41266652477478738E-003" sparseCutoff="1.0000000000000000"/>
      <sparseX i="33" alpha="-.40732981342171784E-003" sparseCutoff="1.0000000000000000"/>
      <sparseX i="34" alpha="-.43289380834843355E-003" sparseCutoff="1.0000000000000000"/>
      <sparseX i="35" alpha="-.43360151654807063E-003" sparseCutoff="1.0000000000000000"/>
      <sparseX i="36" alpha="-.43521188166306224E-003" sparseCutoff="1.0000000000000000"/>
      <sparseX i="37" alpha="-.43233257265313873E-003" sparseCutoff="1.0000000000000000"/>
      <sparseX i="38" alpha="-.43391966070199366E-003" sparseCutoff="1.0000000000000000"/>
      <sparseX i="39" alpha="-.43566773884505701E-003" sparseCutoff="1.0000000000000000"/>
      <sparseX i="40" alpha="-.43577993624961529E-003" sparseCutoff="1.0000000000000000"/>
      <sparseX i="41" alpha="-.43501404078490459E-003" sparseCutoff="1.0000000000000000"/>
      <sparseX i="42" alpha="-.43442307194332464E-003" sparseCutoff="1.0000000000000000"/>
      <sparseX i="43" alpha="-.43334543219502257E-003" sparseCutoff="1.0000000000000000"/>
      <sparseX i="44" alpha="-.43491024036911339E-003" sparseCutoff="1.0000000000000000"/>
      <sparseX i="45" alpha="-.43424270729692404E-003" sparseCutoff="1.0000000000000000"/>
      <sparseX i="46" alpha="-.43343853647540448E-003" sparseCutoff="1.0000000000000000"/>
      <sparseX i="47" alpha="-.43381704020216714E-003" sparseCutoff="1.0000000000000000"/>
      <sparseX i="48" alpha="-.43545927733470172E-003" sparseCutoff="1.0000000000000000"/>
      <sparseX i="49" alpha="-.43532419376585260E-003" sparseCutoff="1.0000000000000000"/>
      <sparseX i="50" alpha="-.43438769717363284E-003" sparseCutoff="1.0000000000000000"/>
      <sparseX i="51" alpha="-.43198252346450056E-003" sparseCutoff="1.0000000000000000"/>
      <sparseX i="52" alpha="-.43490576904721694E-003" sparseCutoff="1.0000000000000000"/>
      <sparseX i="53" alpha="-.43438091809456570E-003" sparseCutoff="1.0000000000000000"/>
      <sparseX i="54" alpha="-.43457014136918010E-003" sparseCutoff="1.0000000000000000"/>
      <sparseX i="55" alpha="-.43427017121949079E-003" sparseCutoff="1.0000000000000000"/>
      <sparseX i="56" alpha="-.43365655498235232E-003" sparseCutoff="1.0000000000000000"/>
      <sparseX i="57" alpha="-.43613724818785651E-003" sparseCutoff="1.0000000000000000"/>
      <sparseX i="58" alpha="-.43278772828397665E-003" sparseCutoff="1.0000000000000000"/>
      <sparseX i="59" alpha="-.43214598267921132E-003" sparseCutoff="1.0000000000000000"/>
      <sparseX i="60" alpha="-.43442025975759638E-003" sparseCutoff="1.0000000000000000"/>
      <sparseX i="61" alpha="-.43380211805825317E-003" sparseCutoff="1.0000000000000000"/>
      <sparseX i="62" alpha="-.43504248030754147E-003" sparseCutoff="1.0000000000000000"/>
      <sparseX i="63" alpha="-.43388516740412660E-003" sparseCutoff="1.0000000000000000"/>
      <sparseX i="64" alpha="-.43555170929069882E-003" sparseCutoff="1.0000000000000000"/>
      <sparseX i="65" alpha="-.43675363819285708E-003" sparseCutoff="1.0000000000000000"/>
      <sparseX i="66" alpha="-.45575340368017906E-003" sparseCutoff="1.0000000000000000"/>
      <sparseX i="67" alpha="-.45572686963392216E-003" sparseCutoff="1.0000000000000000"/>
      <sparseX i="68" alpha="-.45561910492731422E-003" sparseCutoff="1.0000000000000000"/>
      <sparseX i="69" alpha="-.45572573309531598E-003" sparseCutoff="1.0000000000000000"/>
      <sparseX i="70" alpha="-.45583177708731964E-003" sparseCutoff="1.0000000000000000"/>
    </gpCoordinates>
    <gpCoordinates label="GAP_2024_6_5_120_0_54_56_5655" dimensions="3301" signal_variance=".44000639434043919E-006" signal_mean=".00000000000000000E+000" sparsified="T" n_permutations="1" covariance_type="2" zeta="4.0000000000000000" n_sparseX="71" sparseX_filename="gap_file.xml.sparseX.GAP_2024_6_5_120_0_54_56_5655" sparseX_md5sum="029ebd8d6bc5de0a45e60c0b06e0c649">
      <descriptor>soap               l_max=10 n_max=12 atom_sigma=0.5 zeta=4 cutoff=5.0 cutoff_transition_width=0.5 central_weight=1.0 n_sparse=6000 delta=4.400063943404392e-07 f0=0.0 covariance_type=dot_product sparse_method=cur_points n_species=2 Z=3 species_Z={17 3 }</descriptor>
      <permutation i="1">1  </permutation>
      <sparseX i="1" alpha="-.24212828118271324E-006" sparseCutoff="1.0000000000000000"/>
      <sparseX i="2" alpha="-.39553071072980108E-003" sparseCutoff="1.0000000000000000"/>
      <sparseX i="3" alpha="-.39589975544874139E-003" sparseCutoff="1.0000000000000000"/>
      <sparseX i="4" alpha="-.39487106587975861E-003" sparseCutoff="1.0000000000000000"/>
      <sparseX i="5" alpha="-.39185973891497493E-003" sparseCutoff="1.0000000000000000"/>
      <sparseX i="6" alpha="-.39941355000857031E-003" sparseCutoff="1.0000000000000000"/>
      <sparseX i="7" alpha="-.39648273562293076E-003" sparseCutoff="1.0000000000000000"/>
      <sparseX i="8" alpha="-.39642501127293669E-003" sparseCutoff="1.0000000000000000"/>
      <sparseX i="9" alpha="-.39156681916493861E-003" sparseCutoff="1.0000000000000000"/>
      <sparseX i="10" alpha="-.39907035319371393E-003" sparseCutoff="1.0000000000000000"/>
      <sparseX i="11" alpha="-.39435081076595444E-003" sparseCutoff="1.0000000000000000"/>
      <sparseX i="12" alpha="-.39551185725066566E-003" sparseCutoff="1.0000000000000000"/>
      <sparseX i="13" alpha="-.39202395492861207E-003" sparseCutoff="1.0000000000000000"/>
      <sparseX i="14" alpha="-.39727613509557032E-003" sparseCutoff="1.0000000000000000"/>
      <sparseX i="15" alpha="-.39395622227966851E-003" sparseCutoff="1.0000000000000000"/>
      <sparseX i="16" alpha="-.39496097632242978E-003" sparseCutoff="1.0000000000000000"/>
      <sparseX i="17" alpha="-.39508178377042571E-003" sparseCutoff="1.0000000000000000"/>
      <sparseX i="18" alpha="-.39476039806530188E-003" sparseCutoff="1.0000000000000000"/>
      <sparseX i="19" alpha="-.39828193201655937E-003" sparseCutoff="1.0000000000000000"/>
      <sparseX i="20" alpha="-.39153299492098213E-003" sparseCutoff="1.0000000000000000"/>
      <sparseX i="21" alpha="-.39528587651211673E-003" sparseCutoff="1.0000000000000000"/>
      <sparseX i="22" alpha="-.39509840204102561E-003" sparseCutoff="1.0000000000000000"/>
      <sparseX i="23" alpha="-.39720731590315618E-003" sparseCutoff="1.0000000000000000"/>
      <sparseX i="24" alpha="-.39538995197330179E-003" sparseCutoff="1.0000000000000000"/>
      <sparseX i="25" alpha="-.39435998449890167E-003" sparseCutoff="1.0000000000000000"/>
      <sparseX i="26" alpha="-.39337842485729540E-003" sparseCutoff="1.0000000000000000"/>
      <sparseX i="27" alpha="-.39645956789572230E-003" sparseCutoff="1.0000000000000000"/>
      <sparseX i="28" alpha="-.39229449863693801E-003" sparseCutoff="1.0000000000000000"/>
      <sparseX i="29" alpha="-.39654139409203487E-003" sparseCutoff="1.0000000000000000"/>
      <sparseX i="30" alpha="-.39717831984887437E-003" sparseCutoff="1.0000000000000000"/>
      <sparseX i="31" alpha="-.39690664120249560E-003" sparseCutoff="1.0000000000000000"/>
      <sparseX i="32" alpha="-.39357655506442755E-003" sparseCutoff="1.0000000000000000"/>
      <sparseX i="33" alpha="-.39589615478502341E-003" sparseCutoff="1.0000000000000000"/>
      <sparseX i="34" alpha="-.42614444605618558E-003" sparseCutoff="1.0000000000000000"/>
      <sparseX i="35" alpha="-.42709276406343943E-003" sparseCutoff="1.0000000000000000"/>
      <sparseX i="36" alpha="-.42706586261303657E-003" sparseCutoff="1.0000000000000000"/>
      <sparseX i="37" alpha="-.42663314260127871E-003" sparseCutoff="1.0000000000000000"/>
      <sparseX i="38" alpha="-.42864982444161987E-003" sparseCutoff="1.0000000000000000"/>
      <sparseX i="39" alpha="-.42704469810835927E-003" sparseCutoff="1.0000000000000000"/>
      <sparseX i="40" alpha="-.42859771988061461E-003" sparseCutoff="1.0000000000000000"/>
      <sparseX i="41" alpha="-.42829416681115182E-003" sparseCutoff="1.0000000000000000"/>
      <sparseX i="42" alpha="-.42706308989265022E-003" sparseCutoff="1.0000000000000000"/>
      <sparseX i="43" alpha="-.42549004107607494E-003" sparseCutoff="1.0000000000000000"/>
      <sparseX i="44" alpha="-.42709427998951740E-003" sparseCutoff="1.0000000000000000"/>
      <sparseX i="45" alpha="-.42663499620131784E-003" sparseCutoff="1.0000000000000000"/>
      <sparseX i="46" alpha="-.42740197318784622E-003" sparseCutoff="1.0000000000000000"/>
      <sparseX i="47" alpha="-.42751996912963750E-003" sparseCutoff="1.0000000000000000"/>
      <sparseX i="48" alpha="-.42875709934436389E-003" sparseCutoff="1.0000000000000000"/>
      <sparseX i="49" alpha="-.42885475915313944E-003" sparseCutoff="1.0000000000000000"/>
      <sparseX i="50" alpha="-.42564827085621630E-003" sparseCutoff="1.0000000000000000"/>
      <sparseX i="51" alpha="-.42798736581402985E-003" sparseCutoff="1.0000000000000000"/>
      <sparseX i="52" alpha="-.42836328613658596E-003" sparseCutoff="1.0000000000000000"/>
      <sparseX i="53" alpha="-.42667282460354063E-003" sparseCutoff="1.0000000000000000"/>
      <sparseX i="54" alpha="-.42694005950182659E-003" sparseCutoff="1.0000000000000000"/>
      <sparseX i="55" alpha="-.42782913944225734E-003" sparseCutoff="1.0000000000000000"/>
      <sparseX i="56" alpha="-.42880794054327007E-003" sparseCutoff="1.0000000000000000"/>
      <sparseX i="57" alpha="-.42656555879493530E-003" sparseCutoff="1.0000000000000000"/>
      <sparseX i="58" alpha="-.42701659022567395E-003" sparseCutoff="1.0000000000000000"/>
      <sparseX i="59" alpha="-.42761940580674743E-003" sparseCutoff="1.0000000000000000"/>
      <sparseX i="60" alpha="-.42797854176686144E-003" sparseCutoff="1.0000000000000000"/>
      <sparseX i="61" alpha="-.42663240046253285E-003" sparseCutoff="1.0000000000000000"/>
      <sparseX i="62" alpha="-.42773589361618544E-003" sparseCutoff="1.0000000000000000"/>
      <sparseX i="63" alpha="-.42800370934262781E-003" sparseCutoff="1.0000000000000000"/>
      <sparseX i="64" alpha="-.42811274166379117E-003" sparseCutoff="1.0000000000000000"/>
      <sparseX i="65" alpha="-.42578890945028686E-003" sparseCutoff="1.0000000000000000"/>
      <sparseX i="66" alpha="-.44089850791203985E-003" sparseCutoff="1.0000000000000000"/>
      <sparseX i="67" alpha="-.44070160032723518E-003" sparseCutoff="1.0000000000000000"/>
      <sparseX i="68" alpha="-.44075086797893157E-003" sparseCutoff="1.0000000000000000"/>
      <sparseX i="69" alpha="-.44085849536755706E-003" sparseCutoff="1.0000000000000000"/>
      <sparseX i="70" alpha="-.44080476130326429E-003" sparseCutoff="1.0000000000000000"/>
      <sparseX i="71" alpha="-.44080446915314959E-003" sparseCutoff="1.0000000000000000"/>
    </gpCoordinates>
  </gpSparse>
  <command_line><![CDATA[ at_file=/home/certural/git/autoplex/tests/auto/job_2024-06-04-22-53-54-470901-55115/train.extxyz default_sigma={0.0001 0.05 0.05 0} energy_parameter_name=REF_energy force_parameter_name=REF_forces virial_parameter_name=REF_virial sparse_jitter=1e-08 do_copy_at_file=F openmp_chunk_size=10000 gp_file=gap_file.xml gap={distance_Nb order=2 f0=0.0 add_species=T cutoff=5.0 n_sparse=15 covariance_type=ard_se delta=1.0593752024390595 theta_uniform=0.5 sparse_method=uniform compact_clusters=T :soap add_species=T l_max=10 n_max=12 atom_sigma=0.5 zeta=4 cutoff=5.0 cutoff_transition_width=0.5 central_weight=1.0 n_sparse=6000 delta=4.400063943404392e-07 f0=0.0 covariance_type=dot_product sparse_method=cur_points}]]></command_line>
</GAP_params>
</GAP_2024_6_5_120_0_54_56_565>
