<GAP_2024_1_8_60_13_10_54_847>
<Potential label="GAP_2024_1_8_60_13_10_54_847" init_args="IP GAP label=GAP_2024_1_8_60_13_10_54_847"/>
<GAP_params label="GAP_2024_1_8_60_13_10_54_847" gap_version="1686220958">
  <GAP_data do_core="F">
    <e0 Z="1" value=".00000000000000000E+000"/>
    <e0 Z="2" value=".00000000000000000E+000"/>
    <e0 Z="3" value="-.28663766000000002"/>
    <e0 Z="4" value=".00000000000000000E+000"/>
    <e0 Z="5" value=".00000000000000000E+000"/>
    <e0 Z="6" value=".00000000000000000E+000"/>
    <e0 Z="7" value=".00000000000000000E+000"/>
    <e0 Z="8" value=".00000000000000000E+000"/>
    <e0 Z="9" value=".00000000000000000E+000"/>
    <e0 Z="10" value=".00000000000000000E+000"/>
    <e0 Z="11" value=".00000000000000000E+000"/>
    <e0 Z="12" value=".00000000000000000E+000"/>
    <e0 Z="13" value=".00000000000000000E+000"/>
    <e0 Z="14" value=".00000000000000000E+000"/>
    <e0 Z="15" value=".00000000000000000E+000"/>
    <e0 Z="16" value=".00000000000000000E+000"/>
    <e0 Z="17" value="-.25639030000000002"/>
    <e0 Z="18" value=".00000000000000000E+000"/>
    <e0 Z="19" value=".00000000000000000E+000"/>
    <e0 Z="20" value=".00000000000000000E+000"/>
    <e0 Z="21" value=".00000000000000000E+000"/>
    <e0 Z="22" value=".00000000000000000E+000"/>
    <e0 Z="23" value=".00000000000000000E+000"/>
    <e0 Z="24" value=".00000000000000000E+000"/>
    <e0 Z="25" value=".00000000000000000E+000"/>
    <e0 Z="26" value=".00000000000000000E+000"/>
    <e0 Z="27" value=".00000000000000000E+000"/>
    <e0 Z="28" value=".00000000000000000E+000"/>
    <e0 Z="29" value=".00000000000000000E+000"/>
    <e0 Z="30" value=".00000000000000000E+000"/>
    <e0 Z="31" value=".00000000000000000E+000"/>
    <e0 Z="32" value=".00000000000000000E+000"/>
    <e0 Z="33" value=".00000000000000000E+000"/>
    <e0 Z="34" value=".00000000000000000E+000"/>
    <e0 Z="35" value=".00000000000000000E+000"/>
    <e0 Z="36" value=".00000000000000000E+000"/>
    <e0 Z="37" value=".00000000000000000E+000"/>
    <e0 Z="38" value=".00000000000000000E+000"/>
    <e0 Z="39" value=".00000000000000000E+000"/>
    <e0 Z="40" value=".00000000000000000E+000"/>
    <e0 Z="41" value=".00000000000000000E+000"/>
    <e0 Z="42" value=".00000000000000000E+000"/>
    <e0 Z="43" value=".00000000000000000E+000"/>
    <e0 Z="44" value=".00000000000000000E+000"/>
    <e0 Z="45" value=".00000000000000000E+000"/>
    <e0 Z="46" value=".00000000000000000E+000"/>
    <e0 Z="47" value=".00000000000000000E+000"/>
    <e0 Z="48" value=".00000000000000000E+000"/>
    <e0 Z="49" value=".00000000000000000E+000"/>
    <e0 Z="50" value=".00000000000000000E+000"/>
    <e0 Z="51" value=".00000000000000000E+000"/>
    <e0 Z="52" value=".00000000000000000E+000"/>
    <e0 Z="53" value=".00000000000000000E+000"/>
    <e0 Z="54" value=".00000000000000000E+000"/>
    <e0 Z="55" value=".00000000000000000E+000"/>
    <e0 Z="56" value=".00000000000000000E+000"/>
    <e0 Z="57" value=".00000000000000000E+000"/>
    <e0 Z="58" value=".00000000000000000E+000"/>
    <e0 Z="59" value=".00000000000000000E+000"/>
    <e0 Z="60" value=".00000000000000000E+000"/>
    <e0 Z="61" value=".00000000000000000E+000"/>
    <e0 Z="62" value=".00000000000000000E+000"/>
    <e0 Z="63" value=".00000000000000000E+000"/>
    <e0 Z="64" value=".00000000000000000E+000"/>
    <e0 Z="65" value=".00000000000000000E+000"/>
    <e0 Z="66" value=".00000000000000000E+000"/>
    <e0 Z="67" value=".00000000000000000E+000"/>
    <e0 Z="68" value=".00000000000000000E+000"/>
    <e0 Z="69" value=".00000000000000000E+000"/>
    <e0 Z="70" value=".00000000000000000E+000"/>
    <e0 Z="71" value=".00000000000000000E+000"/>
    <e0 Z="72" value=".00000000000000000E+000"/>
    <e0 Z="73" value=".00000000000000000E+000"/>
    <e0 Z="74" value=".00000000000000000E+000"/>
    <e0 Z="75" value=".00000000000000000E+000"/>
    <e0 Z="76" value=".00000000000000000E+000"/>
    <e0 Z="77" value=".00000000000000000E+000"/>
    <e0 Z="78" value=".00000000000000000E+000"/>
    <e0 Z="79" value=".00000000000000000E+000"/>
    <e0 Z="80" value=".00000000000000000E+000"/>
    <e0 Z="81" value=".00000000000000000E+000"/>
    <e0 Z="82" value=".00000000000000000E+000"/>
    <e0 Z="83" value=".00000000000000000E+000"/>
    <e0 Z="84" value=".00000000000000000E+000"/>
    <e0 Z="85" value=".00000000000000000E+000"/>
    <e0 Z="86" value=".00000000000000000E+000"/>
    <e0 Z="87" value=".00000000000000000E+000"/>
    <e0 Z="88" value=".00000000000000000E+000"/>
    <e0 Z="89" value=".00000000000000000E+000"/>
    <e0 Z="90" value=".00000000000000000E+000"/>
    <e0 Z="91" value=".00000000000000000E+000"/>
    <e0 Z="92" value=".00000000000000000E+000"/>
    <e0 Z="93" value=".00000000000000000E+000"/>
    <e0 Z="94" value=".00000000000000000E+000"/>
    <e0 Z="95" value=".00000000000000000E+000"/>
    <e0 Z="96" value=".00000000000000000E+000"/>
    <e0 Z="97" value=".00000000000000000E+000"/>
    <e0 Z="98" value=".00000000000000000E+000"/>
    <e0 Z="99" value=".00000000000000000E+000"/>
    <e0 Z="100" value=".00000000000000000E+000"/>
    <e0 Z="101" value=".00000000000000000E+000"/>
    <e0 Z="102" value=".00000000000000000E+000"/>
    <e0 Z="103" value=".00000000000000000E+000"/>
    <e0 Z="104" value=".00000000000000000E+000"/>
    <e0 Z="105" value=".00000000000000000E+000"/>
    <e0 Z="106" value=".00000000000000000E+000"/>
    <e0 Z="107" value=".00000000000000000E+000"/>
    <e0 Z="108" value=".00000000000000000E+000"/>
    <e0 Z="109" value=".00000000000000000E+000"/>
    <e0 Z="110" value=".00000000000000000E+000"/>
    <e0 Z="111" value=".00000000000000000E+000"/>
    <e0 Z="112" value=".00000000000000000E+000"/>
    <e0 Z="113" value=".00000000000000000E+000"/>
    <e0 Z="114" value=".00000000000000000E+000"/>
    <e0 Z="115" value=".00000000000000000E+000"/>
    <e0 Z="116" value=".00000000000000000E+000"/>
    <e0 Z="117" value=".00000000000000000E+000"/>
    <e0 Z="118" value=".00000000000000000E+000"/>
  </GAP_data>
  <gpSparse label="GAP_2024_1_8_60_13_10_54_847" n_coordinate="5" fitted="T">
    <gpCoordinates label="GAP_2024_1_8_60_13_10_54_8471" dimensions="1" signal_variance="2.0000000000000000" signal_mean=".00000000000000000E+000" sparsified="T" n_permutations="2" covariance_type="1" n_sparseX="15" sparseX_filename="gap.xml.sparseX.GAP_2024_1_8_60_13_10_54_8471" sparseX_md5sum="65a1195a5274386af5172ae4896812f5">
      <theta>  0.20000000000000000E+001 </theta>
      <descriptor>distance_Nb order=2 f0=0.0 cutoff=6.5 cutoff_transition_width=0.5 n_sparse=15 covariance_type=ard_se delta=2.0 theta_uniform=2.0 sparse_method=uniform compact_clusters=T Z={3 3 }</descriptor>
      <permutation i="1">1  </permutation>
      <permutation i="2">1  </permutation>
      <sparseX i="1" alpha="46.694903489321867" sparseCutoff="1.0000000000000000"/>
      <sparseX i="2" alpha="25.904842871578310" sparseCutoff="1.0000000000000000"/>
      <sparseX i="3" alpha="-58.064287007067826" sparseCutoff=".56769992495988042"/>
      <sparseX i="4" alpha="32.228407923814480" sparseCutoff=".62847997047797255"/>
      <sparseX i="5" alpha="-13.955302955571169" sparseCutoff="1.0000000000000000"/>
      <sparseX i="6" alpha="-11.727077480960638" sparseCutoff=".60049487117353095"/>
      <sparseX i="7" alpha="-33.603180910090671" sparseCutoff=".58549313758614907"/>
      <sparseX i="8" alpha="-10.854832013320518" sparseCutoff="1.0000000000000000"/>
      <sparseX i="9" alpha="-21.800120067876957" sparseCutoff="1.0000000000000000"/>
      <sparseX i="10" alpha="-82.714085418560813" sparseCutoff="1.0000000000000000"/>
      <sparseX i="11" alpha="22.421130332138553" sparseCutoff="1.0000000000000000"/>
      <sparseX i="12" alpha="40.465211380321769" sparseCutoff="1.0000000000000000"/>
      <sparseX i="13" alpha="5.8858615728696506" sparseCutoff="1.0000000000000000"/>
      <sparseX i="14" alpha="-14.650443724702917" sparseCutoff="1.0000000000000000"/>
      <sparseX i="15" alpha="65.021928021652300" sparseCutoff=".64781290453142770"/>
    </gpCoordinates>
    <gpCoordinates label="GAP_2024_1_8_60_13_10_54_8472" dimensions="1" signal_variance="2.0000000000000000" signal_mean=".00000000000000000E+000" sparsified="T" n_permutations="1" covariance_type="1" n_sparseX="15" sparseX_filename="gap.xml.sparseX.GAP_2024_1_8_60_13_10_54_8472" sparseX_md5sum="710b7f1b43375af74e01e20e9b2900e3">
      <theta>  0.20000000000000000E+001 </theta>
      <descriptor>distance_Nb order=2 f0=0.0 cutoff=6.5 cutoff_transition_width=0.5 n_sparse=15 covariance_type=ard_se delta=2.0 theta_uniform=2.0 sparse_method=uniform compact_clusters=T Z={3 17 }</descriptor>
      <permutation i="1">1  </permutation>
      <sparseX i="1" alpha="-110.76594635130837" sparseCutoff="1.0000000000000000"/>
      <sparseX i="2" alpha="-49.548591625678831" sparseCutoff="1.0000000000000000"/>
      <sparseX i="3" alpha="-263.27921367543615" sparseCutoff="1.0000000000000000"/>
      <sparseX i="4" alpha="15.959070038313271" sparseCutoff="1.0000000000000000"/>
      <sparseX i="5" alpha="261.43588095509489" sparseCutoff="1.0000000000000000"/>
      <sparseX i="6" alpha="-93.870067151436913" sparseCutoff="1.0000000000000000"/>
      <sparseX i="7" alpha="273.80741469279457" sparseCutoff="1.0000000000000000"/>
      <sparseX i="8" alpha="3.9309440626131091" sparseCutoff="1.0000000000000000"/>
      <sparseX i="9" alpha="29.857424149174779" sparseCutoff="1.0000000000000000"/>
      <sparseX i="10" alpha="4.7846388318930444" sparseCutoff="1.0000000000000000"/>
      <sparseX i="11" alpha="30.466063443993381" sparseCutoff="1.0000000000000000"/>
      <sparseX i="12" alpha="-29.830934466782335" sparseCutoff="1.0000000000000000"/>
      <sparseX i="13" alpha="-342.42178935969361" sparseCutoff="1.0000000000000000"/>
      <sparseX i="14" alpha="268.92306242654519" sparseCutoff="1.0000000000000000"/>
      <sparseX i="15" alpha=".45717316668287572" sparseCutoff="1.0000000000000000"/>
    </gpCoordinates>
    <gpCoordinates label="GAP_2024_1_8_60_13_10_54_8473" dimensions="1" signal_variance="2.0000000000000000" signal_mean=".00000000000000000E+000" sparsified="T" n_permutations="2" covariance_type="1" n_sparseX="15" sparseX_filename="gap.xml.sparseX.GAP_2024_1_8_60_13_10_54_8473" sparseX_md5sum="a91594cd0938e080720ab61b8ac53c89">
      <theta>  0.20000000000000000E+001 </theta>
      <descriptor>distance_Nb order=2 f0=0.0 cutoff=6.5 cutoff_transition_width=0.5 n_sparse=15 covariance_type=ard_se delta=2.0 theta_uniform=2.0 sparse_method=uniform compact_clusters=T Z={17 17 }</descriptor>
      <permutation i="1">1  </permutation>
      <permutation i="2">1  </permutation>
      <sparseX i="1" alpha="-22.295575039551359" sparseCutoff="1.0000000000000000"/>
      <sparseX i="2" alpha="5.3917762341336610" sparseCutoff="1.0000000000000000"/>
      <sparseX i="3" alpha="-36.009613719595961" sparseCutoff=".52534263034101680"/>
      <sparseX i="4" alpha="26.196360180667114" sparseCutoff=".64334726586844104"/>
      <sparseX i="5" alpha="-19.832839739536617" sparseCutoff="1.0000000000000000"/>
      <sparseX i="6" alpha="77.442321770018054" sparseCutoff="1.0000000000000000"/>
      <sparseX i="7" alpha="9.7546295302253565" sparseCutoff=".62127681835206316"/>
      <sparseX i="8" alpha="-87.115310862121390" sparseCutoff="1.0000000000000000"/>
      <sparseX i="9" alpha="-29.236269136720004" sparseCutoff=".54640799551941444"/>
      <sparseX i="10" alpha="30.103451867031865" sparseCutoff=".64816411586163214"/>
      <sparseX i="11" alpha="-3.6413888896289990" sparseCutoff=".60036125944300966"/>
      <sparseX i="12" alpha="-14.278600862109057" sparseCutoff="1.0000000000000000"/>
      <sparseX i="13" alpha="-3.6565369626027699" sparseCutoff=".60033825351627723"/>
      <sparseX i="14" alpha="-11.414318902169045" sparseCutoff="1.0000000000000000"/>
      <sparseX i="15" alpha="69.039750380819953" sparseCutoff="1.0000000000000000"/>
    </gpCoordinates>
    <gpCoordinates label="GAP_2024_1_8_60_13_10_54_8474" dimensions="2101" signal_variance=".50000000000000000" signal_mean=".00000000000000000E+000" sparsified="T" n_permutations="1" covariance_type="2" zeta="4.0000000000000000" n_sparseX="132" sparseX_filename="gap.xml.sparseX.GAP_2024_1_8_60_13_10_54_8474" sparseX_md5sum="d982f89e8157a9146a2d8bd1e546eb76">
      <descriptor>soap l_max=6 n_max=12 atom_sigma=0.5 zeta=4 cutoff=6.5 cutoff_transition_width=0.5 central_weight=1.0 n_sparse=7000 delta=0.5 f0=0.0 covariance_type=dot_product sparse_method=cur_points n_species=2 Z=3 species_Z={3 17 }</descriptor>
      <permutation i="1">1  </permutation>
      <sparseX i="1" alpha="-13.001716979110597" sparseCutoff="1.0000000000000000"/>
      <sparseX i="2" alpha="-3.0674620613079950" sparseCutoff="1.0000000000000000"/>
      <sparseX i="3" alpha="-20.590525721859439" sparseCutoff="1.0000000000000000"/>
      <sparseX i="4" alpha="-32.687089416064254" sparseCutoff="1.0000000000000000"/>
      <sparseX i="5" alpha="30.853043972027052" sparseCutoff="1.0000000000000000"/>
      <sparseX i="6" alpha="-57.628063591243510" sparseCutoff="1.0000000000000000"/>
      <sparseX i="7" alpha="1.2323553427788936" sparseCutoff="1.0000000000000000"/>
      <sparseX i="8" alpha="-29.204246196433537" sparseCutoff="1.0000000000000000"/>
      <sparseX i="9" alpha="10.311324350610359" sparseCutoff="1.0000000000000000"/>
      <sparseX i="10" alpha="65.767366329227258" sparseCutoff="1.0000000000000000"/>
      <sparseX i="11" alpha="-42.810103479217986" sparseCutoff="1.0000000000000000"/>
      <sparseX i="12" alpha="-34.660282862893176" sparseCutoff="1.0000000000000000"/>
      <sparseX i="13" alpha="-98.969657894305243" sparseCutoff="1.0000000000000000"/>
      <sparseX i="14" alpha="-28.212728467191202" sparseCutoff="1.0000000000000000"/>
      <sparseX i="15" alpha="-26.933538219898654" sparseCutoff="1.0000000000000000"/>
      <sparseX i="16" alpha="-23.811964296916393" sparseCutoff="1.0000000000000000"/>
      <sparseX i="17" alpha="30.467624012272875" sparseCutoff="1.0000000000000000"/>
      <sparseX i="18" alpha="22.868902078998527" sparseCutoff="1.0000000000000000"/>
      <sparseX i="19" alpha="36.472526501966506" sparseCutoff="1.0000000000000000"/>
      <sparseX i="20" alpha="-18.661069276033043" sparseCutoff="1.0000000000000000"/>
      <sparseX i="21" alpha="-24.542919042664796" sparseCutoff="1.0000000000000000"/>
      <sparseX i="22" alpha="-47.147366956187021" sparseCutoff="1.0000000000000000"/>
      <sparseX i="23" alpha="-33.006157792475719" sparseCutoff="1.0000000000000000"/>
      <sparseX i="24" alpha="-18.006223530159719" sparseCutoff="1.0000000000000000"/>
      <sparseX i="25" alpha="98.658008739174363" sparseCutoff="1.0000000000000000"/>
      <sparseX i="26" alpha="33.608510033932554" sparseCutoff="1.0000000000000000"/>
      <sparseX i="27" alpha="50.690327201516148" sparseCutoff="1.0000000000000000"/>
      <sparseX i="28" alpha="-3.1015708594285627" sparseCutoff="1.0000000000000000"/>
      <sparseX i="29" alpha="29.284074146534909" sparseCutoff="1.0000000000000000"/>
      <sparseX i="30" alpha="-7.6953825025192986" sparseCutoff="1.0000000000000000"/>
      <sparseX i="31" alpha="-21.290374519427008" sparseCutoff="1.0000000000000000"/>
      <sparseX i="32" alpha="-16.894728054272861" sparseCutoff="1.0000000000000000"/>
      <sparseX i="33" alpha="13.864628018575477" sparseCutoff="1.0000000000000000"/>
      <sparseX i="34" alpha="-42.511626847955064" sparseCutoff="1.0000000000000000"/>
      <sparseX i="35" alpha="-13.895761287610867" sparseCutoff="1.0000000000000000"/>
      <sparseX i="36" alpha="-33.463711335068496" sparseCutoff="1.0000000000000000"/>
      <sparseX i="37" alpha="38.380834417151178" sparseCutoff="1.0000000000000000"/>
      <sparseX i="38" alpha="-23.597517482242047" sparseCutoff="1.0000000000000000"/>
      <sparseX i="39" alpha="-113.01652660231294" sparseCutoff="1.0000000000000000"/>
      <sparseX i="40" alpha="41.369485362408660" sparseCutoff="1.0000000000000000"/>
      <sparseX i="41" alpha="35.092649967240519" sparseCutoff="1.0000000000000000"/>
      <sparseX i="42" alpha="32.068334427023963" sparseCutoff="1.0000000000000000"/>
      <sparseX i="43" alpha="-20.261358251883486" sparseCutoff="1.0000000000000000"/>
      <sparseX i="44" alpha="-3.0100474350291471" sparseCutoff="1.0000000000000000"/>
      <sparseX i="45" alpha="152.52538405664896" sparseCutoff="1.0000000000000000"/>
      <sparseX i="46" alpha="-40.352334810726809" sparseCutoff="1.0000000000000000"/>
      <sparseX i="47" alpha="12.910214048910635" sparseCutoff="1.0000000000000000"/>
      <sparseX i="48" alpha="24.230494728694222" sparseCutoff="1.0000000000000000"/>
      <sparseX i="49" alpha="60.786317006886549" sparseCutoff="1.0000000000000000"/>
      <sparseX i="50" alpha="25.681507456766159" sparseCutoff="1.0000000000000000"/>
      <sparseX i="51" alpha="-17.505740107207849" sparseCutoff="1.0000000000000000"/>
      <sparseX i="52" alpha="-10.792212827273117" sparseCutoff="1.0000000000000000"/>
      <sparseX i="53" alpha="-76.003439936944048" sparseCutoff="1.0000000000000000"/>
      <sparseX i="54" alpha="-61.016823734203918" sparseCutoff="1.0000000000000000"/>
      <sparseX i="55" alpha="-37.529036695613904" sparseCutoff="1.0000000000000000"/>
      <sparseX i="56" alpha="107.70810058675329" sparseCutoff="1.0000000000000000"/>
      <sparseX i="57" alpha="6.9567633938988447" sparseCutoff="1.0000000000000000"/>
      <sparseX i="58" alpha="-14.781572792123171" sparseCutoff="1.0000000000000000"/>
      <sparseX i="59" alpha="38.718391719550119" sparseCutoff="1.0000000000000000"/>
      <sparseX i="60" alpha="-62.961196581421198" sparseCutoff="1.0000000000000000"/>
      <sparseX i="61" alpha="9.6424096727926418" sparseCutoff="1.0000000000000000"/>
      <sparseX i="62" alpha="2.9471027871719313" sparseCutoff="1.0000000000000000"/>
      <sparseX i="63" alpha="75.666420222950492" sparseCutoff="1.0000000000000000"/>
      <sparseX i="64" alpha="-50.485371914484382" sparseCutoff="1.0000000000000000"/>
      <sparseX i="65" alpha="79.768204517730879" sparseCutoff="1.0000000000000000"/>
      <sparseX i="66" alpha="12.516574526934939" sparseCutoff="1.0000000000000000"/>
      <sparseX i="67" alpha="-11.482823533060438" sparseCutoff="1.0000000000000000"/>
      <sparseX i="68" alpha="4.9310127721565964" sparseCutoff="1.0000000000000000"/>
      <sparseX i="69" alpha="-15.375452489335894" sparseCutoff="1.0000000000000000"/>
      <sparseX i="70" alpha="-32.053036457082428" sparseCutoff="1.0000000000000000"/>
      <sparseX i="71" alpha="-49.336590883978246" sparseCutoff="1.0000000000000000"/>
      <sparseX i="72" alpha="-9.8038702509957236" sparseCutoff="1.0000000000000000"/>
      <sparseX i="73" alpha="-61.285556470710858" sparseCutoff="1.0000000000000000"/>
      <sparseX i="74" alpha="40.665619665363302" sparseCutoff="1.0000000000000000"/>
      <sparseX i="75" alpha="71.089132924698063" sparseCutoff="1.0000000000000000"/>
      <sparseX i="76" alpha="42.182250366201252" sparseCutoff="1.0000000000000000"/>
      <sparseX i="77" alpha="-59.135801484245356" sparseCutoff="1.0000000000000000"/>
      <sparseX i="78" alpha="-17.679860997413762" sparseCutoff="1.0000000000000000"/>
      <sparseX i="79" alpha="-28.738673890363327" sparseCutoff="1.0000000000000000"/>
      <sparseX i="80" alpha="-48.988179081456309" sparseCutoff="1.0000000000000000"/>
      <sparseX i="81" alpha="26.583801173290198" sparseCutoff="1.0000000000000000"/>
      <sparseX i="82" alpha="-2.6358995843994175" sparseCutoff="1.0000000000000000"/>
      <sparseX i="83" alpha="-33.347788427747453" sparseCutoff="1.0000000000000000"/>
      <sparseX i="84" alpha="20.442150204668657" sparseCutoff="1.0000000000000000"/>
      <sparseX i="85" alpha="46.449427729576108" sparseCutoff="1.0000000000000000"/>
      <sparseX i="86" alpha="9.7245113754315611" sparseCutoff="1.0000000000000000"/>
      <sparseX i="87" alpha="96.925053291815018" sparseCutoff="1.0000000000000000"/>
      <sparseX i="88" alpha="-4.6923433629857447" sparseCutoff="1.0000000000000000"/>
      <sparseX i="89" alpha="13.668616619432727" sparseCutoff="1.0000000000000000"/>
      <sparseX i="90" alpha="93.903802237189936" sparseCutoff="1.0000000000000000"/>
      <sparseX i="91" alpha="9.2073881382674401" sparseCutoff="1.0000000000000000"/>
      <sparseX i="92" alpha="21.823449398227496" sparseCutoff="1.0000000000000000"/>
      <sparseX i="93" alpha="-8.4539372672423116" sparseCutoff="1.0000000000000000"/>
      <sparseX i="94" alpha="3.4048154125169057" sparseCutoff="1.0000000000000000"/>
      <sparseX i="95" alpha="-42.114659138557776" sparseCutoff="1.0000000000000000"/>
      <sparseX i="96" alpha="-34.643364109525010" sparseCutoff="1.0000000000000000"/>
      <sparseX i="97" alpha="31.918054376057651" sparseCutoff="1.0000000000000000"/>
      <sparseX i="98" alpha="-1.2632785502316746" sparseCutoff="1.0000000000000000"/>
      <sparseX i="99" alpha="-1.1777599454587790" sparseCutoff="1.0000000000000000"/>
      <sparseX i="100" alpha="-1.3337845203965168" sparseCutoff="1.0000000000000000"/>
      <sparseX i="101" alpha="-1.1644173638675317" sparseCutoff="1.0000000000000000"/>
      <sparseX i="102" alpha="-1.2912117933869873" sparseCutoff="1.0000000000000000"/>
      <sparseX i="103" alpha=".28596912512283279" sparseCutoff="1.0000000000000000"/>
      <sparseX i="104" alpha="-1.4605824384029049" sparseCutoff="1.0000000000000000"/>
      <sparseX i="105" alpha=".11665499654154358" sparseCutoff="1.0000000000000000"/>
      <sparseX i="106" alpha="-1.6298922722235083" sparseCutoff="1.0000000000000000"/>
      <sparseX i="107" alpha="-.52556016831605969E-001" sparseCutoff="1.0000000000000000"/>
      <sparseX i="108" alpha="50.282636143616529" sparseCutoff="1.0000000000000000"/>
      <sparseX i="109" alpha="-52.432018435286679" sparseCutoff="1.0000000000000000"/>
      <sparseX i="110" alpha="50.113680775109877" sparseCutoff="1.0000000000000000"/>
      <sparseX i="111" alpha="104.02664225686122" sparseCutoff="1.0000000000000000"/>
      <sparseX i="112" alpha="-52.262329911467745" sparseCutoff="1.0000000000000000"/>
      <sparseX i="113" alpha="-105.02615481574894" sparseCutoff="1.0000000000000000"/>
      <sparseX i="114" alpha="104.19527548821421" sparseCutoff="1.0000000000000000"/>
      <sparseX i="115" alpha="-105.19611445167503" sparseCutoff="1.0000000000000000"/>
      <sparseX i="116" alpha="28.492565339093900" sparseCutoff="1.0000000000000000"/>
      <sparseX i="117" alpha="-26.551148781613243" sparseCutoff="1.0000000000000000"/>
      <sparseX i="118" alpha="61.162732838200071" sparseCutoff="1.0000000000000000"/>
      <sparseX i="119" alpha="-62.694528368474174" sparseCutoff="1.0000000000000000"/>
      <sparseX i="120" alpha="52.434784791941695" sparseCutoff="1.0000000000000000"/>
      <sparseX i="121" alpha="-54.239127525131508" sparseCutoff="1.0000000000000000"/>
      <sparseX i="122" alpha="52.265692658523690" sparseCutoff="1.0000000000000000"/>
      <sparseX i="123" alpha="-54.408708092381907" sparseCutoff="1.0000000000000000"/>
      <sparseX i="124" alpha="52.096618599936590" sparseCutoff="1.0000000000000000"/>
      <sparseX i="125" alpha="-54.578209411111914" sparseCutoff="1.0000000000000000"/>
      <sparseX i="126" alpha="-.42596857532444565" sparseCutoff="1.0000000000000000"/>
      <sparseX i="127" alpha="-.59528866335037312" sparseCutoff="1.0000000000000000"/>
      <sparseX i="128" alpha="-2.5498469109164525" sparseCutoff="1.0000000000000000"/>
      <sparseX i="129" alpha="-1.5030615531301288" sparseCutoff="1.0000000000000000"/>
      <sparseX i="130" alpha="-2.3805310377154623" sparseCutoff="1.0000000000000000"/>
      <sparseX i="131" alpha="-1.1111221260251816" sparseCutoff="1.0000000000000000"/>
      <sparseX i="132" alpha="-1.2804518776939064" sparseCutoff="1.0000000000000000"/>
    </gpCoordinates>
    <gpCoordinates label="GAP_2024_1_8_60_13_10_54_8475" dimensions="2101" signal_variance=".50000000000000000" signal_mean=".00000000000000000E+000" sparsified="T" n_permutations="1" covariance_type="2" zeta="4.0000000000000000" n_sparseX="132" sparseX_filename="gap.xml.sparseX.GAP_2024_1_8_60_13_10_54_8475" sparseX_md5sum="9ad9f4fdf3708355689def9fa5dcd485">
      <descriptor>soap l_max=6 n_max=12 atom_sigma=0.5 zeta=4 cutoff=6.5 cutoff_transition_width=0.5 central_weight=1.0 n_sparse=7000 delta=0.5 f0=0.0 covariance_type=dot_product sparse_method=cur_points n_species=2 Z=17 species_Z={3 17 }</descriptor>
      <permutation i="1">1  </permutation>
      <sparseX i="1" alpha="52.828430326058786" sparseCutoff="1.0000000000000000"/>
      <sparseX i="2" alpha="22.345770483628637" sparseCutoff="1.0000000000000000"/>
      <sparseX i="3" alpha="-37.232586575623579" sparseCutoff="1.0000000000000000"/>
      <sparseX i="4" alpha="-32.721024486632871" sparseCutoff="1.0000000000000000"/>
      <sparseX i="5" alpha="16.507827258411996" sparseCutoff="1.0000000000000000"/>
      <sparseX i="6" alpha="30.692438236495430" sparseCutoff="1.0000000000000000"/>
      <sparseX i="7" alpha="-51.916923782553980" sparseCutoff="1.0000000000000000"/>
      <sparseX i="8" alpha="-.58782933236302393" sparseCutoff="1.0000000000000000"/>
      <sparseX i="9" alpha="15.132952140663589" sparseCutoff="1.0000000000000000"/>
      <sparseX i="10" alpha="2.8322299415838437" sparseCutoff="1.0000000000000000"/>
      <sparseX i="11" alpha="33.015688886785810" sparseCutoff="1.0000000000000000"/>
      <sparseX i="12" alpha="6.7197082004625441" sparseCutoff="1.0000000000000000"/>
      <sparseX i="13" alpha="-68.114928641877384" sparseCutoff="1.0000000000000000"/>
      <sparseX i="14" alpha="-80.552633742852919" sparseCutoff="1.0000000000000000"/>
      <sparseX i="15" alpha="-155.34612400833612" sparseCutoff="1.0000000000000000"/>
      <sparseX i="16" alpha="-65.309865916218570" sparseCutoff="1.0000000000000000"/>
      <sparseX i="17" alpha="67.174050536214324" sparseCutoff="1.0000000000000000"/>
      <sparseX i="18" alpha="-4.4452580914811399" sparseCutoff="1.0000000000000000"/>
      <sparseX i="19" alpha="31.078856389126056" sparseCutoff="1.0000000000000000"/>
      <sparseX i="20" alpha="-69.886679163631044" sparseCutoff="1.0000000000000000"/>
      <sparseX i="21" alpha="-56.820427101449475" sparseCutoff="1.0000000000000000"/>
      <sparseX i="22" alpha="-23.986428979703302" sparseCutoff="1.0000000000000000"/>
      <sparseX i="23" alpha="-60.360814854645376" sparseCutoff="1.0000000000000000"/>
      <sparseX i="24" alpha="6.0621547969113792" sparseCutoff="1.0000000000000000"/>
      <sparseX i="25" alpha="30.581828606685356" sparseCutoff="1.0000000000000000"/>
      <sparseX i="26" alpha="36.048812808605916" sparseCutoff="1.0000000000000000"/>
      <sparseX i="27" alpha="45.694488904753150" sparseCutoff="1.0000000000000000"/>
      <sparseX i="28" alpha="-70.115438547254257" sparseCutoff="1.0000000000000000"/>
      <sparseX i="29" alpha="19.971185266807947" sparseCutoff="1.0000000000000000"/>
      <sparseX i="30" alpha="20.549734950651018" sparseCutoff="1.0000000000000000"/>
      <sparseX i="31" alpha="-7.5971767481727852" sparseCutoff="1.0000000000000000"/>
      <sparseX i="32" alpha="-30.748940610385169" sparseCutoff="1.0000000000000000"/>
      <sparseX i="33" alpha="-8.8059533248858735" sparseCutoff="1.0000000000000000"/>
      <sparseX i="34" alpha=".59919274941351974" sparseCutoff="1.0000000000000000"/>
      <sparseX i="35" alpha="-80.930751657644038" sparseCutoff="1.0000000000000000"/>
      <sparseX i="36" alpha="98.813292544208807" sparseCutoff="1.0000000000000000"/>
      <sparseX i="37" alpha="26.610972693418869" sparseCutoff="1.0000000000000000"/>
      <sparseX i="38" alpha="-61.820266387398881" sparseCutoff="1.0000000000000000"/>
      <sparseX i="39" alpha="-4.0961371980253594" sparseCutoff="1.0000000000000000"/>
      <sparseX i="40" alpha="23.312440564465703" sparseCutoff="1.0000000000000000"/>
      <sparseX i="41" alpha="14.800282182162803" sparseCutoff="1.0000000000000000"/>
      <sparseX i="42" alpha="-24.219284473376437" sparseCutoff="1.0000000000000000"/>
      <sparseX i="43" alpha="109.29624121137523" sparseCutoff="1.0000000000000000"/>
      <sparseX i="44" alpha="-6.4119000433276190" sparseCutoff="1.0000000000000000"/>
      <sparseX i="45" alpha="25.337269289738092" sparseCutoff="1.0000000000000000"/>
      <sparseX i="46" alpha="-7.7638877223534717" sparseCutoff="1.0000000000000000"/>
      <sparseX i="47" alpha="-111.69518745612075" sparseCutoff="1.0000000000000000"/>
      <sparseX i="48" alpha="15.814488682280246" sparseCutoff="1.0000000000000000"/>
      <sparseX i="49" alpha="-2.1075751233422997" sparseCutoff="1.0000000000000000"/>
      <sparseX i="50" alpha="4.6946603114265537" sparseCutoff="1.0000000000000000"/>
      <sparseX i="51" alpha="47.651789607728212" sparseCutoff="1.0000000000000000"/>
      <sparseX i="52" alpha="-28.406927956986188" sparseCutoff="1.0000000000000000"/>
      <sparseX i="53" alpha="138.85054341705549" sparseCutoff="1.0000000000000000"/>
      <sparseX i="54" alpha="-39.417007777155177" sparseCutoff="1.0000000000000000"/>
      <sparseX i="55" alpha="108.89052479467503" sparseCutoff="1.0000000000000000"/>
      <sparseX i="56" alpha="1.0467640917452745" sparseCutoff="1.0000000000000000"/>
      <sparseX i="57" alpha="-4.0330292241231804" sparseCutoff="1.0000000000000000"/>
      <sparseX i="58" alpha="-12.972410273698243" sparseCutoff="1.0000000000000000"/>
      <sparseX i="59" alpha="33.603026551347902" sparseCutoff="1.0000000000000000"/>
      <sparseX i="60" alpha="-58.147277448281940" sparseCutoff="1.0000000000000000"/>
      <sparseX i="61" alpha="10.998644152454474" sparseCutoff="1.0000000000000000"/>
      <sparseX i="62" alpha="46.120452968718396" sparseCutoff="1.0000000000000000"/>
      <sparseX i="63" alpha="-124.43948365007735" sparseCutoff="1.0000000000000000"/>
      <sparseX i="64" alpha="105.21839820415801" sparseCutoff="1.0000000000000000"/>
      <sparseX i="65" alpha="-52.792545630475352" sparseCutoff="1.0000000000000000"/>
      <sparseX i="66" alpha="17.691052492524317" sparseCutoff="1.0000000000000000"/>
      <sparseX i="67" alpha="79.357695319744067" sparseCutoff="1.0000000000000000"/>
      <sparseX i="68" alpha=".66599249567955998" sparseCutoff="1.0000000000000000"/>
      <sparseX i="69" alpha="55.345138122411946" sparseCutoff="1.0000000000000000"/>
      <sparseX i="70" alpha="51.419922810523040" sparseCutoff="1.0000000000000000"/>
      <sparseX i="71" alpha="-26.614371840113574" sparseCutoff="1.0000000000000000"/>
      <sparseX i="72" alpha="-8.6711683504175543" sparseCutoff="1.0000000000000000"/>
      <sparseX i="73" alpha="-115.96062831047968" sparseCutoff="1.0000000000000000"/>
      <sparseX i="74" alpha="48.643254753925206" sparseCutoff="1.0000000000000000"/>
      <sparseX i="75" alpha="15.645577349139801" sparseCutoff="1.0000000000000000"/>
      <sparseX i="76" alpha="-57.903397690183134" sparseCutoff="1.0000000000000000"/>
      <sparseX i="77" alpha="5.9700400900724215" sparseCutoff="1.0000000000000000"/>
      <sparseX i="78" alpha="25.897483342674693" sparseCutoff="1.0000000000000000"/>
      <sparseX i="79" alpha="47.736694608893565" sparseCutoff="1.0000000000000000"/>
      <sparseX i="80" alpha="12.233104200694456" sparseCutoff="1.0000000000000000"/>
      <sparseX i="81" alpha="20.339837421014387" sparseCutoff="1.0000000000000000"/>
      <sparseX i="82" alpha="-63.738056442092777" sparseCutoff="1.0000000000000000"/>
      <sparseX i="83" alpha="29.283208418851125" sparseCutoff="1.0000000000000000"/>
      <sparseX i="84" alpha="76.465155926532020" sparseCutoff="1.0000000000000000"/>
      <sparseX i="85" alpha="11.727156918636005" sparseCutoff="1.0000000000000000"/>
      <sparseX i="86" alpha="-45.121771836739264" sparseCutoff="1.0000000000000000"/>
      <sparseX i="87" alpha="31.564477808993679" sparseCutoff="1.0000000000000000"/>
      <sparseX i="88" alpha="-28.223005867419996" sparseCutoff="1.0000000000000000"/>
      <sparseX i="89" alpha="44.199728039197744" sparseCutoff="1.0000000000000000"/>
      <sparseX i="90" alpha="26.346555918980599" sparseCutoff="1.0000000000000000"/>
      <sparseX i="91" alpha="31.534313777971452" sparseCutoff="1.0000000000000000"/>
      <sparseX i="92" alpha="-28.418944290813595" sparseCutoff="1.0000000000000000"/>
      <sparseX i="93" alpha="33.366939083989863" sparseCutoff="1.0000000000000000"/>
      <sparseX i="94" alpha="-87.119602349792473" sparseCutoff="1.0000000000000000"/>
      <sparseX i="95" alpha="-57.213358413963370" sparseCutoff="1.0000000000000000"/>
      <sparseX i="96" alpha="47.467032460856075" sparseCutoff="1.0000000000000000"/>
      <sparseX i="97" alpha="-58.493520272584512" sparseCutoff="1.0000000000000000"/>
      <sparseX i="98" alpha="66.145117786159162" sparseCutoff="1.0000000000000000"/>
      <sparseX i="99" alpha="-60.575903514849692" sparseCutoff="1.0000000000000000"/>
      <sparseX i="100" alpha="57.961101621836754" sparseCutoff="1.0000000000000000"/>
      <sparseX i="101" alpha="-.48791630832821747" sparseCutoff="1.0000000000000000"/>
      <sparseX i="102" alpha="-45.291473399272633" sparseCutoff="1.0000000000000000"/>
      <sparseX i="103" alpha="45.752371157582338" sparseCutoff="1.0000000000000000"/>
      <sparseX i="104" alpha="-45.412101365938831" sparseCutoff="1.0000000000000000"/>
      <sparseX i="105" alpha="45.632366940037528" sparseCutoff="1.0000000000000000"/>
      <sparseX i="106" alpha="-45.532585368290576" sparseCutoff="1.0000000000000000"/>
      <sparseX i="107" alpha="45.512347329671030" sparseCutoff="1.0000000000000000"/>
      <sparseX i="108" alpha="1.3511556883605453" sparseCutoff="1.0000000000000000"/>
      <sparseX i="109" alpha="-.29582418948145439" sparseCutoff="1.0000000000000000"/>
      <sparseX i="110" alpha="-.60814932634857521" sparseCutoff="1.0000000000000000"/>
      <sparseX i="111" alpha="1.4714973245272613" sparseCutoff="1.0000000000000000"/>
      <sparseX i="112" alpha="-3.8660026456928991" sparseCutoff="1.0000000000000000"/>
      <sparseX i="113" alpha="-3.9862774782250154" sparseCutoff="1.0000000000000000"/>
      <sparseX i="114" alpha="-.17547117170337295" sparseCutoff="1.0000000000000000"/>
      <sparseX i="115" alpha="13.628940071641047" sparseCutoff="1.0000000000000000"/>
      <sparseX i="116" alpha="-2.3543703972525676" sparseCutoff="1.0000000000000000"/>
      <sparseX i="117" alpha="-.72840511290824883" sparseCutoff="1.0000000000000000"/>
      <sparseX i="118" alpha="-2.6417191966316151" sparseCutoff="1.0000000000000000"/>
      <sparseX i="119" alpha="-1.2902680494702530" sparseCutoff="1.0000000000000000"/>
      <sparseX i="120" alpha=".16866997655041233" sparseCutoff="1.0000000000000000"/>
      <sparseX i="121" alpha="-1.4104766178227071" sparseCutoff="1.0000000000000000"/>
      <sparseX i="122" alpha=".48368765660557637E-001" sparseCutoff="1.0000000000000000"/>
      <sparseX i="123" alpha="-1.5307240565901601" sparseCutoff="1.0000000000000000"/>
      <sparseX i="124" alpha="-.71826727774125076E-001" sparseCutoff="1.0000000000000000"/>
      <sparseX i="125" alpha="-16.837140144553917" sparseCutoff="1.0000000000000000"/>
      <sparseX i="126" alpha="-16.716469560123635" sparseCutoff="1.0000000000000000"/>
      <sparseX i="127" alpha="16.686978545164820" sparseCutoff="1.0000000000000000"/>
      <sparseX i="128" alpha="16.567241232991421" sparseCutoff="1.0000000000000000"/>
      <sparseX i="129" alpha="101.05741080829530" sparseCutoff="1.0000000000000000"/>
      <sparseX i="130" alpha="-101.76989613607999" sparseCutoff="1.0000000000000000"/>
      <sparseX i="131" alpha="100.93756299345623" sparseCutoff="1.0000000000000000"/>
      <sparseX i="132" alpha="-101.89051008451600" sparseCutoff="1.0000000000000000"/>
    </gpCoordinates>
  </gpSparse>
  <command_line><![CDATA[ at_file=trainGAP.xyz e0=Cl:-0.2563903:Li:-0.28663766 default_sigma={0.01 0.2 0.2 0.0} energy_parameter_name=energy force_parameter_name=forces virial_parameter_name=virial sparse_jitter=1e-08 do_copy_at_file=F openmp_chunk_size=10000 gp_file=gap.xml gap={distance_Nb order=2 f0=0.0 cutoff=6.5 cutoff_transition_width=0.5 n_sparse=15 covariance_type=ard_se delta=2.0 theta_uniform=2.0 sparse_method=uniform compact_clusters=T :soap l_max=6 n_max=12 atom_sigma=0.5 zeta=4 cutoff=6.5 cutoff_transition_width=0.5 central_weight=1.0 n_sparse=7000 delta=0.5 f0=0.0 covariance_type=dot_product sparse_method=cur_points}]]></command_line>
</GAP_params>
</GAP_2024_1_8_60_13_10_54_847>
