nep4_zbl 2 Cl Li 
zbl 1 2
cutoff 6 5 56 32
n_max 4 4
basis_size 8 8
l_max 4 2 1
ANN 80 0
  5.4822885e-02
 -3.2480669e-01
  2.1963175e-01
  4.7135314e-01
  1.1467832e-01
 -3.1357977e-01
 -3.0258518e-01
 -4.4096953e-01
 -2.0332439e-02
 -3.9381634e-02
 -7.7169627e-02
  2.5303301e-01
  2.3971157e-01
 -2.1173176e-01
 -5.9360612e-02
  6.1175185e-03
 -6.9242847e-01
 -4.3555433e-01
 -7.1610916e-01
  7.8002095e-01
  5.7120568e-01
  3.2931590e-01
 -5.4021007e-01
  5.1697373e-01
 -3.5009325e-01
  1.4170517e-01
  3.6087856e-01
  6.8425024e-01
  8.2808286e-01
 -1.7819969e-01
  1.2748317e-01
  4.6335849e-01
 -1.3108616e-01
  7.2231376e-01
 -1.7506959e-01
 -6.1072284e-01
 -1.6365722e-01
 -2.4821773e-01
  8.5270125e-03
 -1.1542691e-01
  2.4506910e-01
 -2.0964545e-01
  8.5936683e-01
 -9.9395335e-02
 -3.7638679e-01
  2.9672715e-01
 -3.6678484e-01
  1.0204314e-01
 -2.8339654e-01
  4.3520963e-01
 -4.1053596e-01
 -2.0589262e-01
  3.8465124e-01
  7.7489838e-02
 -1.9779134e-01
  1.5192313e-01
  7.4193019e-01
 -4.4778678e-01
  2.7729449e-01
 -6.0383622e-02
  5.1438183e-01
 -3.9424133e-01
 -7.4520576e-01
 -1.4331141e-01
  1.0266380e+00
  3.4052673e-01
  8.3548941e-02
 -4.0450862e-01
  2.4772877e-01
 -1.2043501e-01
 -6.9694504e-02
 -4.6737446e-03
  2.3514691e-01
 -9.0789831e-01
  2.7616596e-01
 -2.2328094e-01
 -2.0842905e-01
 -6.4301983e-02
 -2.8813016e-01
  6.2643397e-01
  4.0008476e-01
 -5.0341737e-01
  3.2054552e-01
 -1.0961051e-01
  8.2251161e-01
  1.0670799e+00
 -5.0779421e-02
 -2.7161896e-01
 -2.3961470e-01
  7.1812876e-02
  1.2187102e-01
  1.3218968e-01
 -2.1573892e-01
 -6.6658207e-03
  6.1990276e-02
 -8.7359570e-02
 -6.0556126e-01
  6.3029027e-01
  3.3625114e-01
 -1.4167416e-01
  5.0252175e-01
 -6.7228043e-01
  5.1927060e-01
 -1.3986821e-01
 -2.9123461e-01
  7.2836518e-01
 -3.2384568e-01
 -7.5411069e-01
  7.1099304e-02
 -7.3089816e-02
  9.6700136e-03
 -5.2533016e-02
 -2.7355948e-01
 -8.5251462e-01
  8.2451838e-01
  6.9604076e-02
 -6.2192481e-02
  3.3013150e-01
  7.4336126e-02
  8.4145166e-02
  2.4628314e-01
  9.4008379e-02
 -9.2762303e-01
  6.8925388e-02
 -5.4005051e-01
 -5.2345449e-01
  5.1128840e-01
 -9.0199006e-01
  4.7148672e-01
 -4.9725750e-01
 -4.2216188e-01
 -4.5852286e-01
  3.1502253e-01
 -7.1167314e-01
 -3.0314362e-01
 -2.8531161e-01
  1.5601479e-01
 -2.0460266e-01
  2.6945993e-01
  5.4509331e-02
 -6.5142930e-01
 -5.6282192e-01
  2.0831445e-01
 -4.3373409e-01
  6.8902738e-02
  8.2155466e-02
  2.2071528e-01
  3.1400153e-01
  1.2519317e+00
  5.1921910e-01
 -5.0837576e-01
 -3.3010340e-01
 -4.3071955e-01
 -6.4909726e-01
 -4.1407844e-01
  1.8158758e-01
 -6.4002818e-01
  3.9692524e-01
  7.7246296e-01
 -1.0429366e-01
 -1.4588295e-01
  2.9462573e-01
 -5.2067619e-03
  1.6133945e-01
  3.3253905e-01
  2.9234385e-01
  8.1463456e-01
 -5.7778960e-01
  5.5262912e-03
 -5.2057926e-02
  6.3673034e-02
 -2.0726612e-01
  5.2145220e-02
  2.1481866e-01
  9.7087055e-01
 -2.8302991e-01
  2.9239738e-01
 -4.3819091e-01
  4.1362840e-01
 -2.9061532e-01
  1.1464637e-01
  3.4607890e-01
  2.9451671e-01
 -5.6976998e-01
  8.0573815e-01
 -4.9122241e-01
 -3.2266793e-01
 -4.6745306e-01
  5.8400202e-01
 -5.4844607e-02
 -1.2448727e-01
  3.3731669e-01
  3.1369114e-01
 -3.3174753e-01
  6.0105449e-01
 -3.3244464e-01
 -3.8025951e-01
  3.8161618e-01
  8.4387183e-01
  2.9799271e-01
 -1.8323769e-01
 -3.9724475e-01
 -2.0701350e-01
 -1.9500133e-02
  4.2540908e-01
 -5.1249558e-01
 -3.8788250e-01
  2.4415825e-01
  9.8966050e-01
  2.0349383e-02
 -2.2720636e-01
  9.2940557e-01
  2.8516516e-01
 -4.5087889e-01
  2.7022046e-01
  1.3864659e+00
 -1.5445319e-01
 -2.2228405e-01
  3.5887384e-01
 -3.0498755e-01
  6.8961602e-01
  2.5699395e-01
  6.9176912e-02
  6.0108863e-02
  6.9798470e-02
  1.9874805e-01
 -6.0459363e-01
  4.4791663e-01
  2.5912660e-01
  1.0407399e-01
 -2.9384071e-01
 -2.2287475e-01
 -1.7733574e-02
  3.6783546e-01
 -5.4832840e-01
  3.7354767e-01
 -1.1956738e+00
 -2.1119617e-01
  2.0569244e-01
  4.9321598e-01
  9.6377306e-02
  6.3794684e-01
 -1.9863981e-01
  4.8328429e-01
  2.6150841e-01
  2.1199499e-01
 -9.6152909e-02
 -6.1169147e-01
  7.3971367e-01
  1.2821677e-02
  1.0347495e+00
 -3.8533035e-01
 -8.1265628e-01
  4.2110142e-01
 -2.8963661e-01
  8.9995903e-01
 -2.9564878e-01
  1.8092863e-01
  1.9796409e-02
  1.2047093e-03
 -1.2741563e-01
 -5.7927507e-01
 -2.4300255e-02
  4.3795720e-01
 -1.2122980e-01
  1.1884637e-01
  8.5432842e-02
  1.8785691e-01
  5.0164813e-01
 -1.1732772e-01
  1.3816723e-01
 -5.6114048e-01
  5.2094835e-01
 -3.1640384e-01
 -1.5690385e-01
  4.5983222e-01
 -1.4098804e-01
  5.3758806e-01
 -2.7997950e-01
  2.9075152e-01
 -4.9551556e-01
 -1.3310592e-01
  5.2161688e-01
 -3.6460023e-02
 -1.8639334e-01
  1.1199224e+00
 -1.1261367e+00
  5.8367348e-01
 -1.9276217e-01
 -2.5120851e-01
 -1.5479706e-01
 -5.3027183e-01
 -1.6277339e-03
  2.4255209e-01
 -1.0674652e-01
 -1.1968189e-01
  8.0158710e-01
 -2.6903057e-01
  1.3602637e-01
  6.9525018e-02
  1.4357586e-01
 -9.2878468e-02
  3.9369229e-02
  5.0304700e-02
 -3.3541813e-02
  2.5606126e-01
  3.2116756e-01
 -8.9977130e-02
 -1.1190359e-01
 -3.4689894e-01
  4.1503790e-01
  6.5907222e-01
 -7.9607540e-01
  6.1438042e-01
  3.9647487e-01
  2.9510820e-01
 -1.2220109e-01
  3.5462782e-01
 -3.3696979e-01
 -2.3757201e-01
  8.4207636e-01
  2.1808311e-01
  2.3574898e-01
  3.3458230e-01
  6.0971558e-01
 -9.9556409e-02
  3.0762592e-01
  8.1905290e-02
 -5.3118259e-02
 -3.4166887e-01
 -2.6825425e-01
  4.3945402e-01
 -4.1683462e-01
 -4.3706897e-01
 -4.8258889e-01
  2.0065469e-01
 -3.6694196e-01
  1.2643822e-01
  1.6832729e-01
  3.9229396e-01
  3.4281683e-01
 -3.3911937e-01
 -5.8552748e-01
  2.7413601e-01
 -4.8230469e-01
  3.1032550e-01
 -4.4468817e-01
  1.6332455e-01
  5.4766923e-01
 -4.5681277e-01
 -1.8617667e-01
 -4.0857531e-03
  6.0809249e-01
  1.7130835e-01
  4.1171223e-01
 -7.2648543e-01
  6.2319058e-01
  2.9837641e-01
 -2.0479333e-01
 -6.2923394e-02
 -1.0146389e+00
 -6.6945219e-01
 -7.9430841e-02
 -6.6148967e-01
  4.4610515e-01
  8.7787889e-02
 -3.1565434e-01
  2.7639487e-01
  1.8059923e-01
  7.2685368e-02
 -5.2494991e-01
  4.8401755e-01
  1.4703827e-01
 -4.0473565e-02
 -9.2998606e-01
 -4.0814671e-01
 -5.2824390e-01
 -4.9845743e-01
 -3.4288603e-01
  1.8374501e-01
 -4.7707993e-01
  1.3586515e-01
 -3.3135268e-01
  5.0624257e-01
 -3.5301145e-02
  6.1809707e-01
  1.6841352e-01
  1.1286318e-01
  5.3212857e-01
  1.1258736e-01
  8.3648717e-01
  9.8076165e-02
 -2.2471124e-01
  4.0098098e-01
  2.1509601e-01
  6.8318352e-02
  9.3380049e-02
  5.3653874e-02
  2.3075850e-01
 -4.4893539e-01
 -3.9201939e-01
  2.5094810e-01
  4.0185934e-01
  3.3677667e-02
 -8.0015606e-01
 -8.5320599e-02
 -1.6893330e-01
 -3.0352280e-02
  1.9733991e-02
  2.3358276e-02
  2.4407220e-01
 -2.7184457e-01
 -3.2485804e-01
  9.0546392e-02
  9.1802239e-01
 -1.6852844e-01
 -1.0522559e-01
 -3.4830454e-01
  3.2199326e-01
  4.4784185e-01
 -5.8978740e-03
 -6.8577752e-02
  7.1858162e-01
  7.1022546e-01
  3.6748722e-01
  7.3667115e-01
  3.3486301e-01
  5.0399470e-01
 -1.4154455e-01
 -6.7985904e-01
 -2.9103953e-01
 -2.3165530e-01
 -3.5630381e-01
  1.6725941e+00
 -3.8657766e-02
 -1.8928933e-01
 -9.8908074e-02
 -4.6568286e-01
 -1.3897875e-01
 -1.4730729e-01
 -2.2625002e-01
  5.5589139e-01
  1.8279009e-01
  9.1871567e-02
 -6.6122907e-01
 -2.7623418e-01
  7.4902400e-02
 -2.8992480e-01
  1.9608831e-03
 -4.6613893e-01
  6.0074449e-01
  2.1563484e-01
  1.2235066e+00
 -2.7703425e-01
 -6.4287782e-02
  1.8391898e-01
  1.0026981e+00
 -9.9978097e-02
  6.8312608e-02
  3.2569256e-02
 -2.5914055e-01
 -7.6539628e-02
  2.4469103e-01
 -2.6815584e-01
 -2.2892295e-01
  3.2029605e-01
 -3.9915469e-01
 -2.3335265e-01
 -3.1094071e-01
 -1.2354913e-01
 -3.5587251e-01
  7.4628663e-01
  1.7687012e-01
 -2.7840111e-01
  1.7997675e-01
  7.5564975e-01
 -4.7032237e-02
  4.5196170e-01
  4.3585375e-02
  1.6786814e-02
 -2.3393074e-02
  1.6214815e-01
  2.7786627e-02
  8.3331114e-01
 -4.7180539e-01
  1.1408301e-01
 -3.6457676e-01
  9.0634137e-02
  4.7248670e-01
  1.3982351e-01
 -8.6139232e-01
  2.4635918e-01
  1.3700663e-01
  7.3313171e-01
 -4.7972348e-01
  6.4567262e-01
 -1.0854083e-01
  2.0053242e-01
 -8.6466163e-01
  5.2040726e-01
  6.2811412e-02
  3.9188266e-01
  4.1482825e-02
 -3.5013437e-01
 -1.4472482e-01
 -2.6435077e-01
 -7.2522312e-01
  1.8838567e-01
 -2.9928070e-01
  8.4355004e-02
  5.2719295e-02
  3.9205378e-01
  1.6031051e-01
  1.5682082e-01
 -7.4156278e-01
  3.2201776e-01
  6.0938492e-02
  8.7335473e-01
 -3.1803295e-02
 -4.5798677e-01
 -1.6363588e-01
  4.1418833e-01
 -3.9060137e-01
 -3.7118014e-02
 -3.4409317e-01
  5.3425759e-02
 -4.1222182e-01
 -2.4581228e-01
 -3.1395984e-01
 -6.0742640e-01
 -6.4682740e-01
  5.1150376e-01
 -2.3499553e-01
  4.5610692e-02
  9.4755337e-02
 -1.0678889e+00
  1.5793990e-01
  1.1348964e-01
 -6.6791832e-01
  5.1608944e-01
  3.8279200e-01
 -2.7261302e-01
 -1.0472534e-01
  2.0252000e-01
 -1.2268272e-01
  5.2686429e-01
  1.9284390e-01
  8.8885880e-01
  4.6535105e-01
  4.0762743e-01
  9.6138902e-02
 -2.0000516e-02
 -9.6367054e-02
 -6.8498492e-01
 -7.2890091e-01
 -7.6388043e-01
  7.4185960e-02
  1.9025192e-01
 -2.4664950e-01
 -5.0209790e-01
 -4.2870438e-01
  4.5172426e-01
 -2.7839744e-01
  4.5737666e-01
  4.8359475e-01
  1.9794796e-01
 -9.5263368e-01
 -6.0192645e-01
 -4.3552488e-01
 -1.9991402e-01
  3.7902030e-01
  1.3074037e-01
 -5.3369987e-01
  4.0614179e-01
  6.7379184e-02
  4.7652784e-01
  3.5469070e-02
  9.6074039e-01
 -7.6687026e-01
  8.4113735e-01
 -5.7018399e-01
 -1.7719789e-01
  7.3883124e-02
  7.0482135e-02
  2.1462086e-01
 -6.0138792e-01
 -9.4083977e-01
  3.1272653e-01
 -6.2181616e-01
  4.2426983e-01
 -1.6671850e-01
  2.6196072e-01
  1.1490901e-01
  3.1081650e-01
 -1.4442948e-01
  5.0200188e-01
 -4.5166574e-02
 -7.5944299e-01
 -4.7946447e-01
  4.6453124e-01
 -1.3506763e-01
  2.6593298e-01
 -2.6624996e-02
  1.9878784e-02
  2.3776190e-01
 -4.5970708e-01
 -4.4279781e-01
  2.1197128e-01
 -1.3199517e-01
 -3.0209786e-01
 -3.5212603e-01
 -8.4499800e-01
 -1.1711100e-01
  5.5032498e-01
 -1.9094433e-01
 -2.3104601e-01
 -3.2150367e-01
  1.3413659e-01
 -7.3146826e-01
  3.0211183e-01
 -5.1467949e-01
 -7.2223520e-01
  4.1232601e-01
 -5.4688430e-01
  6.3655019e-02
  1.9628373e-01
 -3.5227098e-02
 -6.8227381e-02
  5.9455407e-01
 -3.1306142e-01
 -4.6465534e-01
  3.7779668e-01
 -5.7525313e-01
  3.4172657e-01
  4.0993518e-01
 -2.7170396e-01
 -6.9434240e-02
  1.0530231e+00
  6.4886534e-01
  5.4911268e-01
  4.4065335e-01
  3.1034029e-01
  3.1075832e-01
 -7.4567211e-01
  3.6662546e-01
  3.2564566e-01
  3.8045546e-01
  1.9622353e-01
  8.9716738e-01
  2.0002210e-01
 -2.1772386e-01
 -1.8483172e-01
 -9.0347938e-02
 -1.0230383e-01
  3.6298174e-01
  4.4083446e-01
  2.7189445e-01
 -3.7907574e-01
 -9.2085731e-01
 -7.5453833e-02
 -4.0236454e-02
 -5.8310437e-01
  3.6022812e-01
  3.1368065e-01
  3.3633847e-02
  8.4616089e-01
 -8.4899552e-02
  1.0815759e-01
 -4.7359616e-01
  4.9918342e-01
 -3.9977911e-01
  2.9641563e-01
  3.1454709e-01
 -5.7649553e-01
  4.0468934e-01
  1.5415209e-02
  6.4853370e-01
 -9.6451163e-02
 -3.9145163e-01
 -5.3693092e-01
 -3.6976516e-01
  4.4682884e-01
 -9.8972589e-02
 -2.2633050e-01
 -4.3042758e-01
  2.8694037e-01
  4.1478902e-02
  6.3557550e-02
  4.7864035e-01
 -9.6666366e-01
  3.5104945e-01
  6.1855388e-01
 -9.9008024e-01
  1.5074974e-01
  1.6874742e-02
 -1.8539156e-01
 -4.1891584e-01
  8.0710930e-01
 -1.1442825e-01
 -4.7774479e-01
 -2.9384556e-01
  3.7647441e-02
  8.7065354e-02
  7.0584521e-02
 -4.4075608e-01
  4.5596477e-02
 -1.8249644e-01
 -2.8457192e-01
 -3.2815814e-01
 -4.7866696e-01
  1.0115721e-01
  5.7171810e-01
  2.5222635e-01
 -8.7268524e-02
 -3.0595025e-01
  2.7131376e-01
 -4.6386614e-02
 -3.2401124e-01
 -5.6395221e-01
 -1.2878394e-01
 -1.7998867e-01
 -1.6722460e-01
 -1.9669855e-01
  8.9399688e-02
 -3.7495723e-01
 -1.9444184e-02
  1.1804339e-02
  4.3539006e-01
  4.5516017e-01
  3.1623206e-01
 -3.1855416e-01
  3.8494432e-01
  1.6898438e+00
  6.9259703e-02
  5.3513974e-01
 -5.0700021e-01
  9.5072281e-01
 -2.3591307e-01
 -7.8881913e-01
  2.1469375e-01
  8.5298038e-01
 -3.8358489e-01
 -5.8267087e-01
  6.6759127e-01
 -5.9877616e-01
  6.9482470e-01
  1.4320646e-01
 -2.4556042e-01
 -2.5888583e-01
  4.3168113e-01
 -2.2442660e-01
 -6.0571048e-02
 -2.6384595e-01
  2.2598894e-01
 -5.2680159e-01
 -8.7926632e-01
 -4.1967091e-01
 -1.6698109e-01
 -3.8684547e-01
 -1.3722418e-01
 -5.0807589e-01
 -4.5422992e-01
 -3.2900351e-01
 -6.9590366e-01
 -7.5866157e-01
  4.9845040e-01
 -6.4235203e-02
  4.6127135e-01
 -3.0500564e-01
 -5.0701404e-01
 -5.2680659e-01
 -3.7048167e-01
 -8.1736708e-01
 -2.7151456e-01
 -1.5653184e-01
 -5.3513825e-01
 -4.0949203e-02
 -4.7820717e-01
  2.9154736e-01
  2.8548270e-01
  5.8722699e-01
 -7.9574727e-02
 -8.8591538e-02
 -7.1999258e-01
  3.1499100e-01
  2.0388384e-01
  4.5742887e-01
 -3.3473108e-02
 -4.5285887e-01
  3.4941256e-01
 -2.2442111e-01
 -5.3144395e-01
  7.0984967e-02
 -3.8544434e-01
 -3.5747603e-02
  1.2712897e-01
  9.1907310e-01
 -4.5814690e-01
  7.3175348e-02
 -3.3796766e-01
 -1.3239397e+00
  5.1423848e-01
 -7.0946801e-01
  4.0212896e-01
  3.3130631e-01
  2.1594831e-01
 -2.5070740e-02
 -1.1947205e-01
 -3.2127005e-01
  1.3851009e-01
 -7.9113775e-01
  1.5700741e-01
  2.7478382e-01
  4.9296859e-01
 -2.0747128e-01
 -2.0792179e-01
 -4.8227334e-01
 -1.1178884e-01
 -3.4960613e-01
 -7.2294909e-01
  1.0011182e-01
  2.1739235e-02
 -6.7618924e-01
 -6.0868198e-01
  1.4928724e-01
 -4.8881609e-02
 -3.3395258e-01
  6.1607432e-01
 -9.1164410e-01
  1.0111992e-01
  6.4598083e-01
  9.3406320e-02
  4.1049120e-01
  2.3620114e-02
  3.9067647e-01
  3.0155447e-01
 -8.2841538e-02
 -9.3774581e-01
  4.1320446e-01
  1.0875313e+00
 -1.1047877e-01
  2.7583575e-01
  2.2252458e-01
 -8.8760996e-01
  4.6923301e-01
  8.6033028e-01
  4.6639457e-01
 -2.8280795e-01
 -5.4892904e-01
 -2.6239532e-01
  3.0449563e-01
  1.6623937e-02
  7.5484021e-03
 -5.3060901e-01
  8.6622380e-02
 -4.2676109e-01
 -1.0332379e-01
  8.6032254e-01
  3.8582128e-01
  3.5248023e-02
 -3.3016267e-01
 -2.1114963e-01
 -1.6897473e-01
  4.2690662e-01
  1.3237734e-01
  1.9187094e-01
  7.9807627e-01
  5.7620305e-01
 -4.7539309e-01
  1.6993809e-01
 -1.8280533e-01
 -4.8891500e-01
 -3.8518733e-01
  1.4258389e-02
  6.2898487e-01
 -3.5403311e-01
 -2.8178391e-01
  9.3634143e-02
  5.7705218e-01
  9.7386509e-01
  5.3400766e-02
 -1.0406790e+00
  7.9114026e-01
  3.9951357e-01
 -7.5587571e-02
  1.3665989e-01
 -1.4788449e-01
  2.4571780e-02
 -6.5240942e-02
  2.5823191e-01
 -8.6050653e-01
 -3.9755660e-01
  2.1219705e-01
 -2.7843926e-02
  4.6051034e-01
 -7.7581453e-01
 -2.4408306e-01
 -1.6437167e-01
  2.3040496e-01
 -3.0018517e-01
  4.4693828e-02
 -1.4547299e-01
 -5.2888311e-02
 -2.4143468e-01
 -3.3764061e-01
 -3.7220430e-01
 -8.3077246e-01
 -4.0500757e-01
 -1.2228119e-01
  4.7112491e-02
  3.6254364e-01
 -7.1250759e-02
 -5.8479404e-01
  2.2404782e-02
  2.6343375e-01
 -3.2523024e-01
  7.2685993e-01
 -4.9883318e-01
  2.3876213e-01
  1.9107987e-01
  3.8151279e-01
 -1.2604341e-02
 -6.9321775e-01
 -2.5463861e-01
 -9.4124746e-01
 -7.1624160e-01
  1.3452640e-01
  4.8779348e-01
  2.2772877e-01
 -1.6383305e-01
  4.6995056e-01
 -2.3221886e-02
  1.1744719e-01
 -2.5972337e-01
  8.5828465e-01
 -6.4321148e-01
 -2.6278988e-01
 -6.0584228e-02
 -1.3139156e-01
  2.0562862e-01
  1.8939279e-01
 -8.3878219e-02
  9.7428985e-02
 -9.7010240e-02
 -5.3403604e-01
 -3.4138840e-01
 -8.9484417e-01
 -3.4414333e-01
  1.1877022e-01
  2.8246092e-02
  6.0972082e-03
 -2.1177977e-01
 -2.3424110e-01
  5.9882385e-01
 -4.9715567e-01
  8.1139970e-01
 -4.5877185e-01
  6.9215380e-02
 -2.5841406e-01
 -6.8083328e-01
 -5.4745144e-01
 -3.9324367e-01
 -7.3294425e-01
 -5.3757876e-01
  8.8289165e-01
  4.0979525e-01
 -8.9879537e-01
 -5.5471581e-01
 -5.5863339e-01
  5.9285390e-01
 -1.1469944e-01
 -1.8845932e-01
  1.4830433e-01
 -1.5491800e-01
 -2.8418672e-01
 -2.5341019e-01
  2.6827094e-01
 -2.4023165e-01
 -3.0101530e-02
 -8.2822323e-01
 -3.4696367e-01
  1.8901235e-01
 -8.4978685e-02
  2.0583723e-01
  3.5149357e-01
  3.9960182e-01
 -2.1866763e-02
  8.1323093e-01
  1.1528571e-01
 -2.0837976e-01
 -1.7496715e-01
  1.8000351e-02
 -1.8692011e-01
 -7.9572335e-02
 -2.0509987e-01
  3.9953131e-02
  3.1059238e-01
  5.3882575e-01
  2.4327157e-01
  1.7884859e-01
 -5.2284741e-01
  9.8417497e-01
  6.0019009e-02
  5.1352344e-03
 -6.0755932e-01
  4.2776406e-01
  7.4650121e-01
 -3.7099499e-01
 -1.0826026e+00
 -8.8980067e-01
  4.7122944e-02
 -5.5092502e-01
  4.2067903e-01
  9.4891801e-02
 -1.3436730e-01
  2.6374468e-01
  2.3658445e-02
 -5.8423930e-01
 -1.5339048e-01
 -3.4485027e-01
 -3.9661640e-01
 -4.5611003e-01
  5.5708792e-02
  2.6018521e-01
 -1.4696948e-01
 -1.0579294e+00
 -2.6028863e-01
 -2.5251046e-01
 -5.6363277e-02
  4.0024903e-02
  6.5399289e-01
 -5.0780445e-01
  2.1588095e-01
 -1.8660632e-01
  1.7318454e-01
 -1.5236698e-01
 -2.4043126e-01
  1.6401549e-01
 -4.1763026e-01
  2.2949149e-01
  1.4450395e-01
  1.0467489e+00
 -4.1293094e-01
 -2.6551944e-01
 -6.6198862e-01
  3.7169197e-01
  3.2919928e-01
  4.2082596e-01
  1.0773641e-01
 -8.0687422e-01
 -7.7509016e-02
  1.9509669e-01
 -7.1991563e-01
 -2.3586386e-01
  3.7698394e-01
 -1.1178049e+00
 -3.4193000e-01
  2.1763697e-01
 -8.6696096e-02
  3.4594649e-01
 -3.3096495e-01
  7.6728684e-01
 -4.4064951e-01
  3.0848974e-01
  1.5940364e-01
  4.6724725e-01
  1.8517004e-01
 -3.7907663e-01
  5.5659866e-01
 -2.8937596e-01
 -9.6992469e-01
 -5.7392561e-01
 -5.7203609e-01
  6.1019486e-01
 -2.9955032e-01
  8.0462418e-02
  2.9911324e-03
  9.7528122e-02
 -5.1907545e-01
  2.4859051e-01
 -7.6166362e-02
 -1.7576443e-01
 -6.7871696e-01
 -5.7248032e-01
 -3.6885384e-02
 -1.5082516e-01
  4.8658654e-01
 -1.7915142e-01
  7.7277458e-01
 -8.9343983e-01
 -2.0153530e-01
 -4.5252305e-01
 -4.3748826e-01
 -9.4482088e-01
  4.2925933e-01
 -5.6251377e-01
  4.4601080e-01
  8.0385894e-02
 -1.0809311e-01
  4.2309543e-01
  1.8061401e-01
 -2.9969487e-01
 -4.4435567e-01
  5.3238362e-01
 -1.0639183e-01
  1.4093394e-02
 -3.3596030e-01
  2.3484157e-01
  3.1460788e-02
 -2.5148073e-01
  1.1714700e-01
 -3.9012051e-01
  3.4921741e-01
  1.2620074e-01
 -6.4227504e-01
  4.7440058e-01
 -3.5844058e-02
  4.0082064e-01
 -7.1352422e-01
 -4.6052614e-01
  8.7140000e-01
 -1.1783443e-01
 -3.8787925e-01
  2.4725464e-01
  3.3902679e-02
  1.4350263e+00
 -9.7965413e-01
  6.4984095e-01
 -6.4303648e-01
  1.1300106e-01
  1.5009926e-02
 -7.4408799e-01
  6.2642649e-02
 -4.1670498e-01
  4.5870781e-01
 -6.9328785e-01
 -3.3026338e-01
 -2.4761172e-01
  4.8051485e-01
 -2.3572175e-01
 -5.8219773e-01
  4.6160123e-01
  1.3685983e-02
  1.8632415e-01
 -2.8641799e-01
 -5.6176174e-01
  3.1852210e-01
 -4.0532210e-01
  2.9047573e-01
 -3.2843411e-02
 -1.1104480e-01
 -3.6617219e-01
 -4.5771113e-01
  4.7601175e-02
 -3.5519311e-01
  6.6200173e-01
  2.5278306e-01
  5.9904820e-01
 -1.7391391e-01
 -1.3245387e-01
 -5.4505765e-01
 -2.6448226e-01
 -1.0738933e+00
 -2.4735321e-01
  4.4740611e-01
 -4.4980341e-01
  7.9346824e-01
  1.4695306e-01
  5.5285335e-01
 -6.2718564e-01
 -2.6966706e-01
 -2.0522875e-01
  1.0978046e-01
 -7.4376270e-02
  2.0632923e-01
  3.7005311e-01
 -4.7688732e-01
  2.9402551e-01
 -4.7559467e-01
  3.9619040e-03
 -4.9461776e-01
 -7.2506845e-01
 -4.3200666e-01
  3.3215451e-01
 -1.2814984e-01
 -6.7678291e-01
  4.1860250e-01
 -1.6328195e-01
 -3.3879790e-01
 -3.8548648e-01
  2.7595612e-01
  5.5787939e-01
  5.7841861e-01
 -3.5822771e-02
 -1.0659768e-01
 -4.3450984e-01
  1.5065663e-01
  4.0268484e-01
  3.4628680e-01
 -1.1736900e-01
 -2.1065150e-01
 -6.2967014e-01
  2.0517872e-01
 -2.0989625e-01
  8.7371802e-01
  3.1840903e-01
 -4.1917328e-02
 -2.4417926e-02
 -4.4065285e-01
  4.2136718e-02
  7.2241390e-01
  2.1738084e-03
 -1.6968767e-01
  7.1514368e-02
 -6.5825820e-01
  5.5696819e-02
  1.5723024e-01
 -2.4241211e-02
  7.6765209e-03
  1.2984836e-01
  1.9821642e-01
 -1.2984174e-01
 -3.1046173e-01
  2.5153685e-01
  1.1015694e-01
 -3.5756710e-01
  2.1856564e-01
 -2.7001721e-01
  1.0338460e-02
  1.7143045e-01
  7.2003543e-01
  4.9880967e-01
 -1.6521046e-01
  6.3051492e-01
 -2.9657203e-01
 -8.1962067e-01
 -7.0000100e-01
  1.4078569e-01
  4.3242532e-01
 -3.8234898e-01
 -6.5068698e-01
 -3.4824499e-01
  1.5758839e-01
 -1.0069952e+00
 -3.8840497e-01
  1.6815265e-01
 -5.8196798e-02
 -3.3353713e-01
  4.7857428e-01
 -1.8642209e-01
  5.2081704e-01
 -1.7847584e-01
  2.4861731e-01
  1.1003318e-01
 -1.0674150e-01
 -2.0627572e-01
 -3.8901631e-02
  8.8351977e-01
 -7.6890779e-01
  6.1413682e-01
  5.6187296e-01
  2.9269472e-01
  3.4318838e-01
 -5.0414819e-01
  1.4806877e-01
  1.0602472e-01
 -2.3178417e-02
 -6.5929753e-01
 -8.1715721e-01
 -6.3620545e-02
  3.6486897e-01
 -2.2578295e-01
 -3.7246805e-01
  1.3611982e+00
 -7.6797479e-01
 -6.0446203e-01
 -4.3988037e-01
  3.6289945e-01
 -9.4004458e-01
  2.7661085e-01
  1.3091032e-01
  6.1677665e-01
 -5.3719974e-01
  9.9615596e-02
  3.2702681e-01
 -9.2168516e-01
  2.0772263e-02
 -1.8541602e-02
 -3.8838881e-01
 -6.7229152e-01
  8.2185704e-01
  3.0249599e-01
 -4.2097020e-01
  3.9052990e-01
  6.0000491e-01
  5.1705427e-02
 -3.6396372e-01
  2.7015245e-01
  2.4597009e-01
 -2.3822686e-01
  3.0560061e-01
 -2.0184296e-01
  5.7745671e-01
  4.6218500e-01
  1.0556668e+00
 -9.9870153e-03
 -2.7213523e-01
  8.3766234e-01
  2.0469582e-01
  6.5530056e-01
  2.7554971e-01
 -2.0212218e-01
  1.1089790e-01
 -7.3942803e-02
 -2.4178195e-01
 -5.5431399e-02
  3.9892071e-01
  9.4149739e-02
  3.1576911e-01
  1.3202196e-02
 -5.5374525e-02
  1.5854478e-01
 -6.9229513e-01
 -4.7687295e-01
  5.8416694e-01
 -3.4096152e-01
  7.4458875e-02
  7.2106399e-02
 -7.5523607e-02
 -3.5037179e-02
 -1.6556987e-01
  8.6066663e-01
 -7.7428753e-03
  8.4076971e-01
 -1.7783619e-02
 -5.8972043e-01
  5.7069194e-01
  1.1108419e-01
  6.9238698e-01
  7.0732683e-02
 -3.2432500e-01
 -7.7034974e-01
 -1.0760906e+00
 -1.9848338e-01
 -3.1180641e-01
 -8.8150918e-01
  2.4894872e-01
  2.3339795e-02
  1.1223000e+00
 -6.1446160e-01
  5.8632326e-01
  3.9245021e-01
 -1.6098909e-01
  2.8956029e-01
 -7.5193740e-02
 -3.1001720e-01
 -3.1398994e-01
 -1.9138177e-01
  4.1745946e-01
 -1.0937174e-01
 -2.8973138e-01
 -6.5275216e-01
 -2.7470690e-01
 -3.9832103e-01
 -5.4401141e-01
 -3.0024746e-01
 -1.2665371e+00
 -8.9131486e-01
  5.9729648e-01
  5.0167543e-01
  3.5197835e-02
  7.3618144e-01
  5.7821310e-01
  1.5003525e-01
  1.2960608e-01
 -7.9077311e-02
  1.4630775e-01
  7.3478049e-01
 -3.4993404e-01
  4.5360684e-01
  8.4907901e-01
 -3.7246162e-01
  3.1970765e-02
 -3.7901750e-01
  2.4032244e-02
  4.7107935e-01
  2.5507566e-01
 -3.5335910e-01
 -8.5994922e-02
  3.1779039e-01
 -6.2688732e-01
 -5.9032834e-01
 -6.1393803e-01
  1.0979296e-01
 -3.7079564e-01
  2.5204989e-01
  1.5234719e-01
  2.9282960e-01
  6.3003135e-01
 -2.8643674e-01
 -8.5704155e-02
 -7.3781770e-01
 -3.0268946e-01
  1.3927598e-01
  2.0250522e-01
  5.9059435e-01
  3.7383443e-01
  1.2000123e+00
 -1.7245753e-01
  1.5797813e-01
  8.8258588e-01
 -5.2877672e-02
  2.7414283e-01
 -1.8632808e-01
 -1.2631476e-01
  4.0869349e-01
 -7.7246022e-01
 -1.1024866e+00
 -8.2779419e-01
 -6.2610161e-01
  1.4074163e-01
  6.0254121e-01
 -3.9082187e-01
 -5.0590736e-01
  1.2012061e-01
  1.6320249e-01
  1.2668016e+00
  4.7702733e-01
 -3.6987117e-01
 -9.9850118e-01
  1.6183130e-01
 -4.4778591e-01
 -4.8572353e-01
 -6.1992300e-01
 -1.7750813e-01
  1.6489035e-01
 -2.2555093e-01
 -3.5937801e-01
 -5.7119393e-01
  3.5230783e-01
  1.6355494e-01
  3.4263915e-01
 -3.0252948e-01
 -2.4294625e-01
  1.8991989e-01
  2.1480737e-02
  7.7264327e-01
  4.9136257e-01
  3.3642879e-01
  6.8401003e-01
  2.3085512e-01
  4.1498533e-01
  9.0299034e-01
  4.4863096e-01
 -3.2896593e-01
  8.4316134e-02
  8.2207181e-02
 -6.5231717e-01
 -6.6712695e-01
 -3.2834142e-01
  3.1233236e-01
 -3.8247326e-01
 -1.2572200e+00
  1.1493125e-01
 -3.6523765e-01
  2.2354981e-01
 -9.1563165e-01
  3.9304125e-01
 -5.8249527e-01
 -1.1463413e-01
 -1.9174062e-01
 -3.3235952e-01
  4.7173962e-01
  7.1845007e-01
  2.7327421e-01
 -5.5223882e-02
 -4.1257415e-02
 -1.4249698e-03
 -2.4796051e-01
  1.0300720e-01
 -2.2082348e-01
  1.1569533e-01
 -9.0410596e-01
 -5.6451362e-01
  4.7319168e-01
 -5.6814504e-01
 -1.0640641e-01
 -4.6519719e-02
  8.7189829e-01
 -2.6595652e-01
 -2.3802751e-01
 -3.4219962e-02
 -2.3742276e-01
 -1.5260310e-01
 -6.6793913e-01
  4.8747104e-01
 -1.6182052e-01
 -2.1916375e-02
  2.0718817e-01
  2.1892025e-01
  7.5163826e-02
  7.5578794e-02
  8.8013911e-01
  4.4872737e-01
 -4.6993622e-01
 -4.4312713e-01
 -1.0223130e+00
 -5.6875074e-01
  1.5064223e-01
  3.6992392e-01
  2.2658658e-01
  3.5992807e-01
  7.3617101e-01
 -8.2955056e-01
 -8.5386612e-02
  8.1270075e-01
 -4.7778168e-01
  2.2179402e-01
 -3.2663915e-01
 -2.8487103e-02
  8.1021130e-02
 -4.7499123e-01
  8.4589556e-02
 -3.5039845e-01
  2.7349937e-01
 -4.5145655e-01
 -1.1869907e-01
  8.6424433e-02
 -4.5163885e-01
  2.9090905e-01
  4.7541983e-02
  1.1226208e-01
  5.0854963e-01
  1.0953459e-01
 -2.5790682e-01
  1.2892126e-01
 -7.6516941e-02
  7.0273823e-01
 -5.6902194e-01
  1.9974221e-01
 -3.5825163e-02
  3.5526448e-01
 -4.2201927e-01
 -3.9890566e-01
 -8.2469948e-02
 -8.0716127e-01
 -1.7276961e-01
  3.3268899e-01
 -6.5994494e-02
 -8.4739441e-01
 -9.5365465e-02
 -2.6344222e-01
 -3.5860729e-01
  1.3377061e-01
 -6.7617610e-02
  4.8873782e-01
 -2.7808139e-01
 -3.8764039e-01
  3.2081291e-01
  1.3766864e-01
 -1.1750281e+00
 -4.7441670e-01
  5.1362509e-01
  5.1428944e-01
 -2.0315307e-01
 -3.3301559e-01
 -1.4182109e-01
  3.9740750e-01
 -5.1367417e-02
 -3.7417319e-01
 -7.4953157e-01
  1.9723147e-01
 -3.2980919e-01
  3.7164530e-01
 -8.6984262e-03
 -6.2676662e-01
 -2.7581447e-01
  5.7705271e-01
  3.0825800e-01
 -5.3485352e-01
  5.9204284e-02
 -2.7403608e-02
 -6.3815504e-02
  5.1647848e-01
  7.7884007e-01
  9.1619730e-01
  4.9637997e-01
 -3.3209212e-02
 -4.7297704e-01
 -3.9167526e-01
  3.9735910e-02
  2.7990571e-01
 -4.7442672e-01
  4.5478877e-01
  5.8409756e-01
  6.5030003e-01
  3.1318778e-01
 -1.1920860e-01
  6.8483129e-02
  2.1522385e-01
 -4.8614386e-01
  1.6962852e-01
 -1.1254486e+00
 -2.8337342e-01
  2.7657932e-01
  3.0109320e-02
  1.3702204e+00
  3.2281074e-01
  8.5831660e-01
  2.0421948e-01
  4.6364272e-01
  4.0812936e-01
  1.4773604e-01
 -9.8644298e-01
 -3.9027396e-01
 -1.7139196e-01
 -2.5997916e-02
 -3.7107798e-01
  1.1917459e-01
  6.0045570e-01
 -2.1490544e-01
  3.6011714e-01
  3.4630832e-01
  1.9379900e-01
  2.8896976e-01
 -9.2868544e-02
 -9.4516391e-01
 -3.0754486e-01
  6.2116575e-01
 -1.3623461e-01
  3.0537191e-01
  5.5051804e-01
  4.5341659e-02
 -3.1446937e-01
  1.7300591e-01
 -1.5601172e-01
  1.7094325e-01
  9.7989827e-01
 -1.1693180e-01
 -6.4992166e-01
 -8.7621994e-02
  3.3528160e-02
  1.2506621e-01
 -2.3673074e-02
  8.1637108e-01
  4.8477542e-01
  3.8066119e-02
  4.0565440e-01
 -4.5616060e-01
 -1.8710935e-01
 -2.9177663e-01
 -1.6042426e-01
 -1.1753119e+00
 -9.2400867e-01
 -2.6755103e-01
 -1.2568897e-01
 -3.7369636e-01
  3.9374593e-01
  2.0541467e-02
  4.0514487e-01
  8.3197469e-01
 -1.1551850e-01
 -8.2297784e-01
  1.1356471e+00
 -4.9676698e-02
  1.6399623e-01
 -1.9544427e-01
 -5.0803715e-01
  6.0072398e-01
  1.5410677e-01
  6.6847168e-02
 -5.3622878e-01
 -6.3534796e-02
 -2.0134258e-01
 -1.8262010e-02
  8.9151859e-02
 -1.3437010e-01
 -1.8707740e-01
  8.7066674e-01
  4.9379036e-01
 -9.7376978e-01
  5.4330587e-01
 -2.5711763e-01
  1.6812135e-01
  1.1189881e-02
 -1.4366317e-01
  4.9556580e-01
  4.9425170e-01
 -1.2603199e-01
 -1.2440531e+00
  3.7326840e-01
 -3.3509865e-01
  4.1417480e-01
 -8.3023705e-02
 -3.9764397e-02
 -9.6002504e-02
  1.2859367e-01
 -4.2734206e-01
 -1.0509881e+00
 -6.5949149e-02
 -2.0382652e-01
 -1.8772109e-01
 -1.0429251e+00
 -1.9440703e-01
  4.4474149e-01
  5.6667268e-01
  7.6147765e-01
  2.1236244e-01
 -2.5810349e-01
 -4.1614924e-02
  5.4068804e-01
 -3.2786903e-01
 -4.8489138e-02
 -1.1056093e-01
 -3.1449553e-01
  1.0155952e+00
 -8.0473864e-01
  2.1807033e-01
 -3.6523893e-01
 -2.1298395e-01
 -9.7409159e-01
  4.8871559e-01
 -1.5915576e-01
 -2.9358673e-01
  5.7857901e-01
 -1.1283665e-01
  5.2631915e-01
  7.5215685e-01
 -3.0326399e-01
 -6.6774273e-01
  3.2889348e-01
 -9.3088371e-01
  6.3311571e-01
  3.9977705e-01
 -4.4577259e-01
 -5.9920330e-02
  2.8518626e-01
  7.6241052e-01
  6.5476429e-01
 -3.9438549e-01
 -1.7311145e-01
  1.7458533e-01
  2.5094047e-01
  1.4076863e-01
  5.4475129e-01
 -7.0841682e-01
 -1.9287473e-01
 -4.4234315e-01
  1.4566675e-01
  7.2452939e-01
 -2.6960996e-01
  2.0395213e-01
  8.8116688e-01
  1.3656187e-01
  3.8553306e-01
  8.8775223e-01
  4.6504894e-01
 -1.3557394e-01
  5.9027988e-01
 -8.6646847e-02
 -3.5902554e-01
  4.2793732e-02
 -3.8647473e-01
  3.5722011e-01
 -4.0339586e-01
  4.5421150e-01
 -3.3898933e-03
 -1.1377121e-01
  1.0997931e-02
  5.1888782e-01
 -2.5085974e-01
  4.3791083e-01
  3.7005243e-01
  3.9651480e-01
 -1.4550678e-01
 -1.8118887e-01
 -2.4166778e-02
  2.6286444e-01
 -3.3179531e-01
  6.7241096e-01
  4.3648243e-02
 -5.6592017e-01
 -3.3320706e-02
  2.4032862e-01
  4.9272117e-01
  8.2510513e-01
 -1.4043015e-01
 -2.6686347e-01
 -5.0936267e-02
 -1.8264356e-01
 -2.0251061e-01
  1.2579599e-02
 -3.0999145e-01
 -1.7473988e-01
  4.2518127e-01
 -2.3187847e-01
 -1.0864223e+00
 -2.0176764e-01
 -3.0136880e-01
 -4.2178825e-01
 -1.4112096e-01
 -7.6872879e-01
 -4.7506037e-01
  5.7176650e-01
 -1.5102226e-01
 -1.8852706e-01
 -1.0900471e-01
  9.8597825e-02
  1.8241024e-01
 -1.1094883e-01
 -4.2594334e-01
  8.0654043e-01
  4.4486114e-01
 -4.7415409e-02
 -5.6749237e-01
 -3.7836859e-01
 -1.9581403e-01
  8.1803697e-01
 -5.5786788e-01
  1.9774094e-01
 -3.2786965e-01
  2.7288374e-01
 -2.4727686e-01
  5.2115411e-02
  4.8710942e-02
 -4.4221807e-01
  1.0008639e+00
  3.0381474e-01
  3.0166832e-01
  8.5087979e-01
  9.8698205e-01
 -2.0357756e-01
  7.8907025e-01
 -2.8443870e-01
 -1.6916968e-01
  1.8167958e-01
  6.9189829e-01
 -7.1266782e-01
  2.3207878e-01
  1.0962962e-01
 -2.1528227e-02
 -7.7193938e-02
 -8.5255247e-01
  4.6049356e-01
  2.5858876e-01
  2.5706941e-01
  2.5008650e-02
 -5.7112396e-01
  1.3610508e-01
  4.2129856e-02
  8.7421812e-02
  6.4084545e-02
  3.0989265e-01
  2.1321560e-01
  3.4026071e-01
 -3.6501718e-01
  1.4461013e-02
  5.9277046e-01
  2.4309923e-01
  5.9187675e-01
  1.4448106e-01
  5.5503763e-02
 -2.8986689e-01
  2.7029815e-01
  3.3159822e-02
  3.6427304e-01
  4.3627971e-01
 -5.4830170e-01
  9.0205485e-01
 -3.0740336e-02
  5.2349199e-02
 -4.7288876e-02
  1.0427060e+00
  1.4821482e-01
 -9.2147984e-02
 -2.5619004e-02
  6.5370846e-01
 -5.7397944e-01
 -1.6399091e-01
 -3.9195472e-01
 -3.2655799e-01
 -1.0456536e+00
 -8.6458325e-02
  1.2388131e-01
  2.6142341e-01
 -5.6485897e-01
  2.2562827e-01
  1.9612849e-01
 -2.4051031e-01
  6.4884983e-02
  2.4981478e-01
  1.5899500e-01
  3.4513512e-01
 -2.1839617e-01
  3.3898982e-01
 -8.1288064e-01
 -1.2353377e-01
  1.5953490e-01
  9.4716780e-02
  5.7831615e-01
 -3.3205560e-01
 -1.3369495e+00
  4.4390950e-01
  2.4185948e-01
 -2.0185193e-01
 -9.4213313e-01
 -2.7250567e-01
  1.5086095e-02
  5.9758890e-01
 -6.5713033e-02
  1.8804917e-01
 -7.6776958e-01
 -2.8503239e-01
 -7.3307037e-01
 -8.6900133e-01
  3.3462942e-01
 -3.7376186e-01
 -2.4275269e-01
  3.2727706e-01
  3.0916053e-01
 -4.6860516e-01
  7.1207516e-02
  4.8376390e-01
  4.3833191e-03
  5.3046101e-01
 -6.2405989e-03
 -7.0720160e-01
  6.4005129e-02
  7.6706946e-01
 -3.3370268e-01
 -1.6897593e-01
  6.7620301e-01
  2.2804371e-01
  1.2565732e-01
  2.5461433e-02
 -5.7538378e-01
 -3.1933331e-01
  8.5654259e-02
 -1.3407055e-01
 -3.0130485e-01
  7.0729530e-01
  2.5580600e-01
  2.0735167e-01
 -3.1249732e-01
 -1.9923763e-01
  5.4549098e-01
  3.9278021e-01
 -1.2118305e-01
 -6.2615538e-01
 -2.1294829e-02
  5.5147338e-01
 -8.2022205e-02
  7.0535183e-02
  2.5654945e-01
 -1.6264046e-02
 -6.3716553e-02
 -1.1658113e-01
 -1.0679454e-01
  4.6645725e-01
  4.3019366e-01
 -7.2531694e-01
  1.3969962e-01
  1.4297967e-01
  4.8784676e-01
  4.3776649e-01
  1.3050878e-02
 -2.0511414e-01
 -8.3717179e-01
  1.2880661e-01
  3.9500147e-01
  4.4746304e-01
  2.0158948e-01
  2.6106274e-01
  4.0318856e-01
 -4.6614286e-01
  5.4461735e-01
  4.0374368e-01
 -4.4607854e-01
 -1.4780211e-02
  1.8951615e-02
  4.0168092e-01
  4.5517552e-01
 -2.2825378e-01
 -6.5788426e-02
 -1.2760268e-01
  1.9566165e-01
 -4.0608954e-01
  2.4690692e-01
  8.8371569e-03
 -2.2979699e-01
 -6.7434072e-01
  2.5214154e-01
  7.6647550e-01
 -6.0014522e-01
  4.6282125e-01
  7.2792637e-01
  1.0194489e+00
 -4.7831669e-01
  6.9941264e-01
  5.0575584e-01
  1.5675475e-01
 -4.1309226e-01
 -1.0418451e+00
  5.1985341e-01
 -1.9873545e-01
 -5.8213943e-01
 -4.2025319e-01
  4.9199891e-01
  1.2279803e-01
 -2.6198288e-02
  3.8640377e-01
 -5.0070482e-01
  9.8990023e-02
 -5.0327790e-01
  2.7518438e-02
  9.2379279e-02
 -6.9644654e-01
  6.7923301e-01
  1.5249939e-01
  2.6060840e-01
  3.0021605e-01
  3.4452951e-01
  3.3482200e-01
  1.8248019e-01
  4.0291092e-01
  7.9265082e-01
 -7.9428470e-01
  6.1707371e-01
  3.5473052e-01
 -6.7272508e-01
  1.0490290e+00
 -2.8554207e-01
  1.2866549e-02
  7.2300529e-01
  3.5320896e-01
 -7.4456193e-02
  2.1745232e-01
  8.0743469e-02
  1.1032773e+00
  1.0374225e+00
  1.1594651e+00
 -2.1794689e-01
 -9.0310164e-03
  1.0437105e+00
  2.1372061e-02
  4.5609179e-01
 -4.3500151e-02
 -4.5978177e-02
  2.8773096e-01
  5.1242385e-02
  6.6450483e-01
  3.0036393e-01
  9.2901416e-02
 -1.2891273e-01
 -2.7855197e-01
  1.3245606e-01
  2.8568146e-01
 -8.6669749e-01
  2.7787501e-01
  2.2727433e-01
  8.7688094e-01
 -7.4562514e-01
 -1.2991490e+00
  2.3040316e-01
  5.8727831e-01
 -6.3206691e-01
 -6.8182588e-01
  5.2151638e-01
 -4.9016902e-01
 -1.5719026e-02
 -4.6171591e-01
  2.1118779e-01
 -6.1699873e-01
  5.9897032e-02
 -3.1229556e-01
 -3.6119125e-04
 -5.2838099e-01
  4.2847040e-01
  5.1885277e-01
 -1.4212161e-01
  5.7847011e-01
 -4.6915141e-01
 -1.8675704e-01
  2.1322742e-01
  1.0310204e+00
  2.7232975e-01
 -4.2593861e-01
 -1.2045421e-01
  3.3910942e-01
 -3.8130894e-01
  9.4291210e-01
  1.6877881e-01
  2.3548973e-01
  1.9908078e-01
 -2.6836899e-01
  5.9954727e-01
 -2.6129875e-01
 -2.4047067e-02
  7.9591835e-01
 -2.9865199e-01
 -3.8159087e-01
 -2.3573838e-01
  2.7805638e-01
  3.9328769e-01
 -4.2084187e-01
 -7.0082098e-01
  6.7570066e-01
 -1.2047485e-01
 -7.5730628e-01
 -6.8146542e-02
 -1.8299280e-01
  3.5017481e-01
 -1.6317643e-01
  3.4179533e-01
 -2.5376916e-01
  5.4310465e-01
  1.2359412e-01
  3.2859629e-01
  1.6975278e-01
 -6.5639174e-01
 -2.9140478e-02
 -5.3787208e-01
 -3.6960033e-01
 -3.2869172e-01
  2.2590567e-01
 -8.0879048e-02
 -3.3073310e-02
 -3.7789962e-01
  8.8048771e-02
  2.6179612e-01
 -1.1540806e-01
 -8.3891702e-01
  6.8529147e-01
 -4.8763227e-01
  3.0401713e-01
  9.7241774e-03
 -6.3427091e-01
 -2.7134541e-02
  3.4956026e-01
 -4.4917464e-01
 -1.4969569e-01
 -3.0872884e-01
  2.3022056e-01
 -4.1500846e-01
  5.8246881e-01
  4.1121092e-01
  3.8277027e-01
  3.4856349e-01
 -1.0151700e+00
  2.9579908e-01
  3.4316567e-01
 -1.0639429e-01
 -2.6979774e-02
 -4.4462380e-01
  2.9358146e-01
 -5.3958029e-02
  3.2185468e-01
  5.2549130e-01
 -4.7300559e-01
  2.2209364e-01
  5.2577913e-01
  6.4432079e-01
 -4.7371119e-01
  2.6473007e-01
 -1.4465837e-01
 -3.8322145e-01
  4.0083292e-01
 -5.5768681e-01
 -2.0561105e-02
 -2.4693146e-01
 -5.7427341e-01
 -4.1610464e-01
 -5.8153425e-03
  5.6729555e-01
 -6.2767917e-01
 -8.3495826e-01
 -6.0086137e-01
  9.8945878e-02
  1.3471483e-01
 -3.6444944e-01
  4.2191684e-01
 -1.2658651e-01
  3.8033795e-01
 -4.3368396e-01
  6.2254131e-01
 -1.3924626e-01
  1.1408157e-01
  8.1089340e-02
 -2.6911891e-01
 -3.9011157e-01
 -2.8836223e-01
 -8.1857163e-01
  2.3636201e-01
 -6.0392189e-01
  2.3938659e-01
 -1.1739922e-01
  2.1660246e-01
 -7.3507446e-01
 -1.0434068e+00
  3.4778234e-01
 -1.3745286e-01
  6.0466945e-01
  2.9956374e-01
  8.4086949e-01
 -2.3336995e-01
 -6.5763867e-01
  1.8517816e-01
  4.5786870e-01
  2.0224042e-02
 -2.7245039e-02
  7.2876322e-01
 -5.6160134e-01
  1.6598095e-01
  2.6771969e-01
 -3.8351741e-01
 -1.9801125e-01
 -1.7203109e-01
 -4.1977900e-01
  2.8665125e-01
 -3.5337394e-03
 -5.2439228e-02
  1.7995328e-01
 -2.1714422e-01
 -3.8503733e-04
 -2.0833226e-01
 -1.6876486e-01
 -4.4225156e-01
 -7.7429754e-01
  6.0899806e-01
  1.0176016e-01
 -3.9024067e-01
  1.3879333e-01
 -6.7377406e-01
 -6.3198578e-01
 -2.7462226e-01
  9.9930704e-01
 -1.0894504e-01
 -6.4909965e-01
  1.6700615e-01
  3.9157319e-01
  6.9257921e-01
 -1.0491075e-01
 -4.4946867e-01
 -1.2197489e-01
  6.8517610e-02
 -3.7137467e-02
  7.7409559e-01
  2.1961726e-01
 -3.8907769e-01
  5.2378410e-01
  3.2741952e-01
 -8.1020743e-02
  1.4828818e-01
  2.8510568e-01
  7.1048766e-01
  8.3104706e-01
  2.1242952e-01
 -3.2511371e-01
  1.8189311e-01
 -4.6098247e-01
  1.4986855e-01
 -3.4595105e-01
 -4.0181965e-01
 -2.9399410e-01
  9.1785049e-01
  1.7592052e-01
  2.9052055e-01
 -4.0709111e-01
 -3.5348985e-01
 -2.8431889e-01
 -3.2484093e-01
 -4.5656192e-01
 -4.4953403e-01
  1.1317423e-01
  9.3092519e-01
  3.0311278e-01
  5.9970176e-01
 -7.4971989e-02
  2.8764462e-01
 -6.3628191e-01
  9.1361523e-02
  7.4612856e-01
  2.7851251e-01
 -4.6566966e-01
 -1.1442585e-01
  1.0544541e-01
 -7.7686794e-02
  7.5227469e-01
 -2.1121146e-01
 -6.5601063e-01
  2.5594842e-01
  4.9543577e-01
  3.9839885e-01
 -6.6978842e-01
 -5.9214872e-01
  1.4323709e-02
  8.0110021e-02
 -3.0660078e-01
  1.0084351e-01
  2.8427097e-01
 -1.1396190e-01
  4.1992858e-02
  1.5274671e-01
 -3.3761707e-01
  2.9070517e-01
  5.0262725e-01
 -1.1252579e-01
 -1.8081995e-02
  6.0003835e-01
  6.0714293e-01
 -7.7907985e-01
 -2.3304620e-01
 -4.1220862e-01
 -3.2344726e-01
 -5.8832598e-01
  1.0225260e-01
 -1.1006367e-01
 -3.2085064e-01
 -9.1125801e-02
 -2.5393292e-02
  2.0717001e-02
  6.4915977e-02
 -3.1228116e-01
  3.0064556e-01
  2.1674699e-01
  6.5352690e-01
  2.7105585e-01
 -3.1713042e-01
 -4.0622464e-01
 -2.2021618e-01
 -4.6529996e-01
  6.0043788e-01
 -7.7848119e-01
 -1.8536827e-01
 -3.2581487e-01
 -5.1437896e-01
  3.9079976e-01
 -9.8860335e-01
  2.1061602e-01
 -9.9562567e-01
  8.3047503e-01
  8.0460775e-01
  2.7608240e-01
 -5.2930146e-02
  1.1499696e+00
 -6.1673498e-01
 -1.4951149e-01
 -4.4546524e-01
  5.8298796e-02
 -1.4037676e-01
  1.0739169e-01
  5.9455182e-02
  5.6724370e-01
 -3.0501562e-01
 -6.9492899e-02
  5.7386601e-01
 -6.8800938e-01
  2.2281258e-01
 -2.6045698e-01
  2.4008116e-01
 -5.5128220e-02
 -8.2516715e-02
 -6.6910708e-01
  2.3602831e-01
 -9.5067841e-01
 -4.0929687e-01
 -6.1480492e-01
 -8.1998050e-01
  7.0116609e-01
 -4.4787961e-01
 -5.1436335e-01
  5.0642014e-01
  3.5349429e-01
  3.3798420e-01
  3.3309540e-01
 -3.8493305e-01
  9.1730958e-01
 -3.9310396e-01
  8.9798558e-01
  1.2939949e-01
 -1.3006748e+00
  6.4148587e-01
  2.6559907e-01
 -3.8596156e-01
 -1.8384403e-01
  3.7870726e-01
  7.6999718e-01
 -1.7276834e-01
  5.5480190e-02
  8.1757051e-01
  5.9979919e-02
 -4.2065603e-01
 -3.6232729e-02
 -6.8885541e-01
 -3.7041828e-02
 -4.2069879e-01
 -6.6894579e-01
 -3.4917536e-01
  1.5366196e-02
  4.7811383e-01
  4.9097371e-01
 -3.3919439e-01
  4.4100440e-01
  6.2951916e-03
 -2.1090904e-01
 -1.4854720e-01
  7.5387943e-01
  5.5943227e-01
  3.1578094e-01
 -2.2147512e-01
  4.3275872e-01
  5.3140461e-01
 -4.7129351e-01
 -2.0755722e-01
  3.1717101e-01
 -4.8456901e-01
 -5.8131176e-01
 -2.4556175e-01
  3.3094898e-01
 -2.1048883e-01
  1.0967456e+00
 -6.6206896e-01
 -1.8023872e-01
  6.5919578e-02
  7.7263695e-01
 -4.8414417e-02
  5.0515097e-02
  6.3575089e-01
  6.2595648e-01
  5.3590178e-01
  5.3329682e-01
 -6.6441333e-01
 -1.0215173e+00
  2.0510915e-01
  2.8893340e-01
  4.0616310e-01
  3.3214983e-01
 -3.2191941e-01
  2.0850116e-02
  5.6104753e-02
  4.5205042e-01
 -2.3604749e-01
  6.0947013e-01
 -3.3772293e-02
 -6.0982788e-01
 -9.8871268e-02
  1.7042257e-01
  7.1615815e-01
  2.5623670e-01
 -2.4039082e-01
 -2.4218947e-01
 -2.3593415e-01
 -6.8753237e-01
 -7.1783561e-01
 -4.0005562e-01
 -5.4259038e-01
  7.0592362e-01
 -1.3136062e-01
 -1.1636911e-01
 -7.9377854e-01
  5.7704312e-01
  2.7464285e-01
 -7.1369529e-01
 -2.5707710e-01
  5.9956205e-01
  4.9447098e-01
  2.2397301e-01
  4.0866652e-01
 -7.3477864e-01
  1.7326862e-01
  3.6076215e-01
 -4.0258738e-01
  2.9054502e-01
  5.7748145e-01
  1.6144411e-01
 -1.0554108e-01
  2.9769605e-01
 -8.1872784e-02
  2.1084118e-01
  8.8332526e-02
 -6.4391291e-01
  4.4742778e-01
  4.7254249e-01
 -2.2200789e-01
 -3.3503190e-01
 -6.4731789e-01
 -2.2644325e-01
  4.4104597e-01
  3.9618576e-01
 -7.4083304e-01
  3.2098625e-02
  5.9038728e-01
  4.6409878e-01
 -5.1825202e-01
 -1.1526369e+00
 -8.7175196e-01
  4.4169083e-01
  4.3065107e-01
 -3.6447182e-01
  8.4919924e-01
  1.8258505e-01
  2.3344110e-01
  8.1929392e-01
  2.5155565e-01
  4.8661077e-01
  1.3528417e-01
 -1.1878461e-01
 -2.0532623e-01
  1.2506630e-01
  8.4708536e-01
  2.3980121e-01
 -4.7593516e-01
  9.1210879e-02
 -7.7073032e-01
  3.1858662e-01
  5.7961084e-02
 -2.7804682e-01
 -7.2364253e-01
  7.4940485e-01
  9.1933358e-01
  2.8258577e-01
  3.5737193e-01
 -9.9806227e-02
 -2.7655181e-01
  1.6889474e-01
 -1.0410101e+00
  9.6789998e-01
 -7.5785869e-01
 -4.0530336e-01
 -3.0422999e-02
 -2.1771133e-01
  2.6489949e-01
  1.9687628e-02
 -2.3852751e-01
 -3.1799138e-01
 -3.5862347e-01
  1.7349413e-01
 -2.6823199e-01
 -1.2920502e-01
  4.8063800e-02
  8.0295101e-02
 -6.8197286e-01
  2.7061945e-01
  1.0787855e-01
 -8.2117236e-01
  5.4053110e-01
  2.8461091e-02
 -2.1645476e-01
  1.6693261e-01
 -4.4361842e-01
 -8.1680216e-02
 -1.4514211e-01
 -2.1038257e-01
  3.1488088e-01
  1.4387204e-01
  7.1919513e-01
 -3.3098665e-01
  6.6216731e-01
 -3.1974909e-01
  5.4639697e-01
  3.9825678e-01
  4.7465011e-01
  8.0525839e-01
 -5.4800779e-01
 -3.6010635e-01
  5.0294554e-01
 -4.5086747e-01
  3.3653095e-01
 -1.1306085e-01
 -2.0821919e-01
 -7.8168547e-01
  5.0414348e-01
 -2.2754037e-01
  2.7014500e-01
 -9.7991608e-02
 -8.2528359e-01
  2.1674855e-01
 -5.3573132e-01
  6.3039273e-01
  9.9234082e-02
 -5.4580152e-01
  1.0198042e-01
  4.8933250e-01
  6.3314807e-01
  5.9607154e-01
 -6.0676622e-01
 -4.4013980e-01
  3.7551033e-01
 -6.8920141e-01
  3.8097274e-01
  3.4282859e-02
  1.0991385e+00
  5.3769809e-01
 -2.2888660e-01
  4.4900692e-01
 -5.7134710e-02
 -1.0090183e-01
  1.5898836e-01
  7.0203441e-01
 -3.2628989e-01
 -7.3071092e-02
 -3.2275265e-01
  4.0924975e-01
  4.8539540e-01
 -2.8070837e-01
  4.1055402e-01
 -4.6058789e-01
  8.2982516e-01
  5.4794922e-02
 -2.2262575e-01
  5.9369254e-01
  6.4008367e-01
 -3.6274657e-01
 -6.8633121e-01
 -2.5698385e-01
  1.6211990e-01
 -1.7198859e-01
  5.8036495e-02
  6.3136779e-02
  4.3001363e-01
 -7.5577974e-01
  4.3882307e-01
 -6.4542544e-01
  3.9290416e-01
 -7.1199429e-01
 -1.8235216e-01
 -6.5132034e-01
  2.0887104e-01
  2.0111185e-01
  3.7191149e-02
  1.1534800e-01
 -3.6994746e-01
  7.9894352e-01
 -6.9444209e-01
 -3.4425485e-01
 -1.6317736e-01
  4.7239658e-01
  4.4923428e-01
  2.5929898e-01
 -5.4963702e-01
 -2.0957211e-01
 -4.6644637e-01
  1.5558214e-01
 -8.6251980e-01
 -3.3528689e-01
 -1.1370698e+00
  2.8940150e-01
  1.2757385e-01
 -3.1365022e-01
 -2.6424667e-01
  1.1103866e-01
 -4.1648865e-01
 -4.8166829e-01
 -4.4369546e-01
 -3.0126071e-01
  5.7988244e-01
 -5.7830292e-01
  1.8304214e-01
  3.5882655e-01
  9.8290280e-02
  4.4081461e-01
 -1.5881893e-01
  5.4362488e-01
  2.0954568e-02
  4.8461202e-01
  6.7276114e-01
 -5.6534022e-01
 -2.9234421e-01
 -6.4544484e-02
  1.3174501e-01
  3.5352305e-02
  3.1002143e-01
 -3.3886027e-01
  5.5424923e-01
 -2.2123367e-01
  3.0499285e-01
 -7.5005621e-02
 -7.5890787e-02
 -7.7294386e-03
 -2.9905283e-01
  4.6620694e-01
  2.5709715e-01
  2.7520239e-01
  6.0521878e-02
 -1.0911579e+00
 -4.2425521e-02
  5.6072229e-01
 -2.2574356e-01
 -2.5088167e-01
 -4.0417250e-02
 -7.9504073e-01
  9.4143197e-02
  1.2659937e-02
  4.8104918e-01
  8.6416520e-02
  7.6344615e-01
 -3.1213105e-01
 -1.2629849e-01
 -2.7801318e-02
 -4.5735817e-02
  1.0773313e-01
  1.0501610e-01
 -1.4154677e-01
  5.1844305e-01
 -5.7772696e-01
 -1.5341964e-01
  4.4304183e-01
 -9.5403999e-01
 -7.9924554e-02
 -3.8105447e-02
 -1.9800271e-01
 -5.0025159e-01
  4.3485618e-01
 -3.6314338e-01
 -2.3152804e-01
  6.6483843e-01
  3.8229394e-01
 -2.5987942e-03
 -2.3093788e-01
 -2.5057358e-01
 -2.9709959e-01
 -1.1658792e+00
 -1.5148833e-01
 -1.7439276e-01
 -6.0881604e-02
  3.0961388e-01
  6.5902084e-01
  1.6978109e-01
 -1.6355084e-01
 -1.9810528e-01
 -1.4660530e-01
 -6.4037777e-02
  2.8916230e-02
  5.1622117e-01
 -8.7743151e-01
 -7.3570675e-01
  1.8704268e-01
 -9.3703669e-01
 -7.4382043e-01
 -9.6505427e-01
 -6.0394205e-02
 -3.5367172e-02
 -1.7919673e-01
  2.4295811e-02
 -5.0442928e-01
 -2.2020438e-01
  4.5997865e-02
  5.5975866e-01
  6.0852861e-01
  5.5233943e-01
 -1.7353567e-01
  4.7606680e-01
 -3.4569152e-02
 -6.3378322e-01
  3.5493916e-01
  5.0617504e-01
 -2.1506665e-02
  5.4632312e-01
  6.0538876e-01
  2.8779775e-01
 -2.4095927e-01
  1.9654481e-01
 -4.7342759e-01
 -1.2201324e-01
  6.8193966e-01
  1.3902912e-01
  2.0232949e-02
 -2.3428033e-01
 -2.3039977e-01
 -1.1317088e-01
 -1.2630305e-01
  6.2393151e-02
  4.3868202e-01
  7.6051474e-02
  1.4036927e-01
  2.5629050e-01
  2.7666023e-01
  7.7660717e-02
  1.1185230e-01
 -1.0732429e-01
 -8.7046427e-01
 -2.8971860e-01
  2.0030898e-01
 -3.5436362e-01
 -1.2097412e-01
  1.9839719e-02
 -4.1423175e-01
  2.9405621e-01
  5.1407367e-01
 -3.6013946e-01
  5.3086516e-02
 -9.5666641e-01
  7.7275950e-01
 -3.7757546e-02
  3.4219739e-01
 -3.8508943e-01
  4.3511739e-01
  3.5266966e-01
  2.9539797e-01
 -4.6453524e-01
 -2.1223287e-01
  6.2491643e-01
  3.5423025e-01
  7.5154966e-01
  2.2850539e-01
 -4.9151844e-01
 -2.9666957e-01
  8.8692594e-01
  1.6109882e-02
 -4.1729918e-01
  1.1426466e-01
  4.3144500e-01
  4.9073097e-01
 -4.6363838e-02
 -1.5651532e-01
 -2.7197641e-01
  7.8875765e-02
  5.9378985e-02
  9.3647197e-02
 -2.5684145e-01
 -2.3995148e-01
  7.5529492e-01
  9.0524226e-02
 -2.5876237e-02
 -3.0601442e-01
  4.1010413e-02
  6.8893423e-03
  2.3452109e-01
  1.0891078e-01
 -1.0094725e-01
  7.1349752e-01
 -2.5289744e-01
  6.7403316e-01
  1.0399990e-01
 -5.5742449e-01
 -1.0841196e-01
  3.8010025e-01
 -7.8826302e-01
  2.7389586e-01
 -5.2760202e-01
 -1.1196133e-01
  6.3405526e-01
  5.3874409e-01
 -1.3472647e-02
 -1.1695003e-01
  9.3818963e-01
 -4.0882900e-02
 -1.9042078e-01
  2.9185507e-01
 -1.7596443e-01
  9.9918269e-02
  1.6852735e-01
 -4.8535418e-02
  1.6088253e-02
  4.5322415e-01
 -1.0512495e-01
  5.3122997e-01
 -7.3689574e-01
  5.2808386e-01
 -5.1184678e-01
  1.8228218e-01
 -5.7290518e-01
  4.5528930e-01
  5.8446032e-01
 -6.1824453e-01
 -9.3253545e-02
 -3.5708368e-01
 -6.7723848e-02
  2.2427674e-01
  4.7820577e-01
  4.5883995e-01
  3.1099987e-01
  6.8087643e-01
  3.3663472e-04
 -1.6536629e-01
  3.3493882e-01
  7.5189732e-02
 -2.4519496e-01
  7.3016757e-01
 -5.6582695e-01
 -5.2244073e-01
  8.5828751e-01
  9.4309956e-01
 -5.7475066e-01
 -5.6841111e-01
 -6.2870389e-01
  1.6500635e-01
 -4.8229441e-01
  8.0943251e-01
 -4.6916100e-01
  1.7024054e-01
  1.6502161e-01
  5.6268681e-02
  3.7755546e-01
 -6.6583091e-01
 -4.4809586e-01
 -1.8113934e-01
 -6.1293162e-02
  7.2516881e-02
 -2.0619152e-01
 -5.7109559e-01
 -8.7106735e-02
  1.0224697e-01
 -5.2796662e-01
 -7.9711497e-01
 -1.1687230e-01
  2.1090600e-01
 -2.7232295e-01
  4.6500634e-02
 -1.8095061e-01
  2.1417962e-01
 -3.9696994e-01
 -7.8803915e-01
 -9.9638343e-01
  3.6932412e-01
  1.6150516e-01
 -6.8095541e-01
  4.8778176e-02
  5.2958375e-01
 -6.1191097e-02
 -1.5031676e-01
 -3.7921348e-01
  4.2432487e-01
  9.9140983e-03
 -1.3756831e-01
 -4.8383585e-01
 -2.6125488e-01
  4.5786446e-01
 -5.8191472e-01
  5.1808107e-01
 -6.8772966e-01
 -4.9231470e-01
  1.5465936e-01
 -9.3206149e-01
  2.1671364e-01
 -1.3041195e-01
 -1.0264086e+00
 -3.9685670e-01
  6.7141509e-01
  4.8260355e-01
 -8.8902220e-02
  2.2554690e-01
  1.4586975e-01
 -6.7558400e-02
 -4.3953115e-01
  2.0853522e-01
 -2.2018351e-01
  3.1968247e-02
  2.6552599e-02
  4.9436423e-01
 -2.8893394e-02
  3.6027709e-01
  5.4550862e-01
  3.9132720e-01
  6.1906672e-01
 -8.1778175e-01
  3.9028838e-01
  5.9703690e-01
 -2.9852915e-01
  7.6572165e-02
  3.0700320e-01
  6.2400007e-01
  1.3657068e-01
  6.6934168e-01
  5.2871933e-04
  2.4501616e-01
  1.2078506e-01
  2.9636908e-01
  8.0429757e-01
  1.7150949e-01
 -4.5213360e-02
 -5.6644100e-01
  1.1478697e-01
  4.8027325e-01
  4.9958077e-01
  6.6870637e-02
 -3.4033147e-01
  1.3138446e-01
 -6.4239490e-01
  6.9491148e-01
 -6.3385987e-01
  9.7224295e-02
 -2.5817645e-01
  1.7155103e-01
  2.2114644e-02
 -1.1266289e-01
 -6.7059618e-01
 -3.0855143e-01
  6.1728984e-01
  2.6294461e-02
  4.7130051e-01
  4.0433916e-01
 -2.0789166e-01
 -5.9486127e-01
  7.1596992e-01
 -8.2619250e-01
 -1.4383104e-01
 -3.4108898e-01
  4.1675061e-01
 -7.7820778e-01
  3.3720958e-01
 -4.1839314e-01
  2.9301822e-02
 -1.3380092e-01
  7.7681109e-02
 -7.5792384e-01
 -1.5643629e-01
  5.3874594e-01
 -2.9692319e-01
 -6.9194484e-01
  3.1921971e-01
  4.0419933e-01
  2.7234036e-01
 -9.2437550e-02
  4.4567013e-01
  3.6522585e-01
  6.9101882e-01
  4.8075467e-01
  2.6817830e-02
  3.9456424e-01
 -2.3633716e-01
  2.6900369e-01
  5.0775456e-01
  1.0825414e-01
 -5.2964878e-01
  3.0411756e-02
 -2.6704201e-01
 -5.1090789e-01
 -9.1323517e-02
  2.7903467e-01
  3.8715246e-01
  1.3810688e-01
 -1.8245989e-01
  1.3003787e-01
 -4.3942678e-01
 -1.0311534e+00
 -2.2231625e-01
  5.1956809e-01
 -9.7584951e-01
  2.3506504e-01
  1.3773334e-01
  4.6992224e-01
 -5.5452663e-01
 -2.4603152e-01
  6.4268216e-02
  3.3661342e-01
 -2.9977822e-01
  2.9379007e-01
  3.1355262e-01
 -3.3106942e-02
  1.6271378e-01
 -3.2622290e-01
 -2.3854914e-01
  4.6881488e-01
  1.3092476e-01
 -3.1262621e-01
 -3.5970721e-02
  5.4425913e-01
 -8.7463206e-01
  3.2030568e-01
 -4.5836952e-02
 -3.1256381e-01
 -8.2790685e-01
  1.1990416e-01
  2.1172029e-01
  4.8533332e-01
 -4.7565228e-01
  7.2566278e-02
 -6.9243842e-01
  1.6226711e-02
 -1.4886139e-01
 -1.7631081e-01
  4.8910791e-01
 -9.1539651e-01
 -8.5524964e-01
 -1.6240098e-01
  3.8903672e-01
  2.4222919e-01
  2.4704220e-02
  1.8972350e-02
  5.1836271e-02
 -6.3982135e-01
 -4.5411429e-01
 -2.2615632e-01
  5.3219557e-01
 -5.1804584e-02
 -1.8213187e-01
 -4.7302523e-01
  3.4688821e-01
 -2.1176147e-01
 -7.9223853e-01
 -6.7357391e-01
  2.7916390e-01
 -2.3130187e-01
 -1.9884305e-02
  4.4688094e-01
 -5.8155380e-02
  9.8743969e-01
 -3.8245267e-01
 -3.3771467e-01
  7.8220081e-01
  3.2441691e-02
  6.5644717e-01
 -3.5857069e-01
 -1.2000777e-01
  6.1555845e-01
  8.4101540e-01
  2.6875755e-01
  2.4008331e-01
  1.2258174e-01
 -4.0851796e-01
 -1.6572779e-02
 -4.0092972e-01
  3.9069831e-01
 -1.6952580e-01
  4.7456309e-01
  7.0735162e-01
 -6.0645950e-01
  9.3242872e-01
  8.0836177e-01
  1.5077978e-01
 -7.5998658e-01
  5.4081881e-01
  3.8322634e-01
 -5.3868699e-01
 -3.4137118e-01
  5.7446796e-01
  6.4456113e-02
  1.4186503e-01
 -3.1205937e-01
  3.6871424e-01
 -3.8378689e-01
  3.0416582e-02
 -9.5590964e-02
 -8.7038678e-01
  2.7295664e-01
  4.6628109e-01
 -2.6379436e-01
 -4.8607162e-01
  1.6704038e-01
 -2.1293680e-01
  2.4880162e-01
  4.9813175e-01
  9.1375685e-01
  5.4303031e-02
 -5.0050165e-03
  2.6229411e-01
  1.5799244e-01
  8.1954889e-02
 -4.4009575e-01
 -4.7278130e-01
  7.3289555e-01
  7.7251756e-01
 -5.8964747e-01
  4.2268726e-01
  1.2585360e-01
  5.3687406e-01
 -2.8934824e-01
  2.2138345e-01
  1.1154134e-02
 -7.7864581e-01
  5.0627977e-01
  1.2842304e-01
  4.6358994e-01
  2.5584790e-01
 -1.9483992e-01
  4.4338217e-01
 -3.4358799e-01
  1.5990785e-01
  2.8618407e-01
 -3.0795148e-01
 -1.5142536e-01
  2.3870406e-01
  4.8614791e-01
 -3.2976481e-01
 -3.4424916e-01
 -1.7479751e-01
  4.4890887e-01
  5.4072225e-01
 -4.7187791e-03
  3.2526612e-01
 -1.1581683e+00
 -7.4716508e-02
 -1.8624462e-01
  1.4612718e-01
  1.6813238e-01
  1.1692616e-01
  2.7764168e-01
 -4.5949703e-01
 -1.4014107e-01
  5.6551886e-01
  2.6069990e-01
 -5.5096108e-02
 -1.9033117e-02
 -1.1800077e-01
 -1.5690243e-01
  4.4163299e-01
  1.5080376e-01
  5.1217216e-01
  2.8381395e-01
 -2.9533601e-01
  1.2317047e-01
  3.7962664e-02
 -3.2265641e-02
 -6.0255572e-02
 -5.3131219e-02
 -1.2565681e-01
  7.7689171e-01
 -1.8445180e-01
  7.1355814e-01
  8.5588105e-02
  3.0955106e-02
  3.6778057e-01
 -5.7739639e-01
 -6.8701053e-01
 -3.3093941e-01
 -4.5530966e-01
  1.9307914e-01
 -1.0376561e+00
  1.0316377e-01
  3.8802084e-01
  2.7048573e-01
  1.3070180e+00
 -8.4154844e-01
  4.2535990e-01
 -4.1284430e-01
 -5.3930193e-01
  9.1857903e-02
  5.5863363e-01
  3.0008221e-02
  7.4842066e-02
 -2.1583226e-02
  2.6142567e-02
 -8.6836904e-02
  4.1623497e-01
  1.4376207e-01
 -1.2449732e-01
  6.7657113e-02
  4.3680900e-01
  2.0608000e-01
  4.7304037e-01
  4.6066359e-01
 -1.0492468e-01
  4.7062930e-01
 -4.0287435e-01
  4.0722695e-01
  7.3347670e-01
  2.7355659e-01
 -3.8267305e-01
 -5.5196974e-02
  4.9070328e-01
  7.3613936e-01
 -1.2565634e+00
 -6.8907386e-01
 -1.0803304e+00
 -1.7955850e-01
 -2.3536062e-01
 -5.7444602e-01
  1.6425755e+00
  2.4085502e-01
  4.4793567e-01
 -9.7810310e-01
  4.5700571e-01
  1.1909785e-01
 -1.2124615e+00
 -2.8429559e-01
  3.7960505e-01
  3.2397950e-01
 -1.3124102e-01
 -2.2571641e-03
  1.1004084e-01
 -3.1453761e-01
 -1.0858998e-01
 -5.9403700e-01
 -5.7522370e-04
  7.6708637e-02
  2.6520789e-01
  3.5166619e-03
  4.6500322e-01
 -1.4575723e-01
  1.0218766e+00
 -1.2650666e+00
 -4.1702092e-01
  7.6976532e-01
  5.8472157e-01
  2.5564140e-01
 -5.6917751e-01
 -8.3575028e-01
  1.9184858e-01
  1.5509050e-01
  3.3094177e-01
  2.9435375e-01
  1.0354826e-01
  8.5749590e-01
 -5.2013598e-02
  1.1501273e-01
 -1.0725322e+00
  1.3410677e-01
  3.4178672e-03
  8.3048888e-02
 -1.5923756e-01
  5.6711751e-01
  4.1676648e-02
 -5.8610672e-01
 -8.9017165e-01
  1.1078753e+00
 -2.5226268e-01
 -5.7033435e-02
  1.9192440e-02
  2.3331872e-01
  5.5210836e-02
 -8.9160949e-01
 -3.4233457e-01
 -1.2068359e-01
  2.5652745e-01
 -4.3262509e-04
  1.2941872e+00
  7.2076507e-02
  9.7208500e-02
 -4.4564453e-01
  2.6587647e-01
 -5.0978377e-03
  6.3766766e-01
  1.1302130e-01
 -4.0220934e-01
 -6.1295873e-01
 -5.6473303e-01
 -7.8882140e-01
  6.7686534e-01
  2.4059917e-01
  4.1483983e-01
 -1.3914035e-01
 -8.9342308e-01
 -2.1950202e-02
 -3.3340245e-01
 -1.2978351e-01
  2.6265106e-01
  7.0203048e-01
 -2.0142478e-01
 -1.1071075e-01
 -2.5836366e-01
 -2.4225876e-01
  2.9344347e-01
  7.9670084e-01
 -3.6954564e-01
  9.7861499e-02
 -1.9069734e-01
  1.8867089e-01
  2.4010168e-02
  3.6359362e-02
 -3.9499354e-01
  3.7882116e-01
  2.8786990e-01
  6.5146577e-01
 -1.8364970e-01
  1.5647969e-01
  5.5473852e-01
 -3.1596613e-01
 -3.5192735e-02
  8.6082242e-02
  1.8386607e-01
  1.7846690e-01
  1.4132735e-01
  1.7166805e-01
  5.3080696e-01
  1.8932072e-02
  3.6372429e-01
 -3.3501944e-01
  5.4160213e-01
  1.7702359e-01
  3.1172198e-01
 -2.0221990e-01
  3.0728588e-01
 -4.1495213e-01
 -2.7124882e-01
 -4.4314367e-01
 -3.6684138e-01
  1.9459815e-01
  5.1865560e-01
 -2.7705543e-02
  1.8127300e-01
  1.4452582e-02
  3.2901287e-01
 -3.2406491e-01
  5.3057354e-02
  3.7956929e-01
  3.0426589e-01
 -1.2276909e+00
 -6.2992388e-01
 -1.2897573e-01
 -1.9932611e-01
  8.8163517e-02
 -1.1206729e-01
  4.6412686e-01
  2.4701537e-01
 -4.9559054e-01
 -2.3058291e-01
 -3.0260405e-01
 -1.7355166e-01
  7.3042661e-02
  1.7304522e-03
  1.9736786e-01
  3.7656343e-01
 -4.0641940e-01
 -1.4554706e-01
 -4.0666950e-01
 -1.4493361e-01
 -5.3594941e-01
  2.2480527e-01
 -1.9097982e-01
  2.2824064e-01
 -9.1797137e-01
 -3.3786333e-01
  2.5661886e-01
 -2.5878707e-01
  1.9250442e-01
 -5.7769221e-01
 -1.3862726e-01
  3.5799211e-01
 -2.0671383e-01
  7.5999483e-02
  7.6846457e-01
  4.9131367e-01
 -1.1027867e-01
  1.1001519e-01
 -3.7881777e-02
 -7.3643112e-01
  2.3483789e-02
 -1.8323949e-01
 -5.8809853e-01
 -5.2978706e-01
  3.1480637e-01
 -1.0839926e-01
 -1.2284679e-01
  7.3812693e-01
  4.9447975e-01
  2.6409140e-01
 -9.2888817e-02
 -5.6642848e-01
 -6.0742646e-01
 -1.3942868e-01
  2.4171486e-02
 -6.0250300e-01
  9.6932992e-02
 -4.2738444e-01
  2.1513380e-01
  5.2504021e-01
  8.4050320e-02
  7.7347718e-02
 -4.2672589e-01
  3.5490093e-01
 -1.3189572e-01
 -5.8806247e-01
  9.4040394e-01
 -2.5007999e-01
 -7.3316079e-01
 -2.2523712e-01
 -5.5192988e-02
 -1.8772665e-01
  6.7145026e-01
 -9.0332031e-02
 -5.7344806e-01
  5.7795686e-01
  1.4415359e-01
  2.3399699e-01
  3.1094351e-01
  2.6690713e-01
 -6.9445997e-02
 -6.3836980e-01
 -6.9218747e-02
  1.4226159e-01
 -4.4177309e-02
 -3.2809407e-01
 -9.4346797e-01
  1.8516436e-01
 -5.7653701e-01
  6.5676756e-03
 -1.8979131e-01
 -3.9555407e-01
 -1.3411790e-02
  9.3299903e-02
 -1.0540402e+00
  5.0532788e-01
  1.2907115e-01
  4.3919399e-01
  1.7665331e-01
 -1.3598883e-01
  1.5906532e-01
 -3.0395865e-01
  8.4298551e-02
 -2.5935441e-01
 -4.5261696e-01
  9.5323041e-02
 -2.4070962e-01
 -5.5887576e-02
 -4.8972106e-01
 -2.7806467e-01
 -5.5157948e-02
 -1.9330889e-01
 -5.7291543e-01
  2.2443451e-01
 -3.5979450e-01
 -5.6489271e-01
 -9.5129348e-02
  7.4276197e-01
 -3.8194075e-01
 -5.8822948e-01
  2.2823755e-01
 -2.8881735e-01
  1.0373048e-01
 -1.1688783e+00
 -4.0295550e-01
  2.1248712e-01
  4.7980434e-01
 -8.4100612e-02
  3.5484922e-01
 -6.3115321e-03
  6.0059363e-01
 -1.3740522e-01
 -1.7474794e-01
 -9.1656439e-02
 -5.1938707e-01
  4.8553273e-01
  1.4192399e-01
  3.2635650e-01
 -7.0336014e-01
 -7.9446858e-01
 -2.7457917e-01
  2.6264496e-02
 -3.2896265e-02
  5.9440577e-01
 -3.9430305e-01
  2.8236988e-01
  4.9123487e-01
 -2.2973949e-01
  3.7082598e-02
 -4.6147066e-01
 -2.9082581e-01
 -2.7632520e-01
 -3.0026981e-01
 -1.0814557e+00
 -3.4864777e-01
  2.4356972e-01
  2.8794193e-01
  1.7567573e-01
 -3.3072904e-01
 -1.6735896e-01
  1.1764382e-01
  1.0228821e+00
  9.7853981e-02
  2.0333424e-01
  1.5836509e-01
  9.8722689e-02
 -4.4901887e-01
 -8.0702409e-02
 -4.6007770e-01
 -1.8118234e-01
 -7.4982360e-02
 -6.6110361e-01
  1.8756197e-01
 -1.7099389e-01
  7.8078121e-02
 -1.2360072e+00
 -6.4187415e-02
 -2.4639075e-01
 -9.2328396e-03
 -2.3420212e-01
 -7.7353001e-01
  3.1904411e-01
  8.8918179e-02
  2.3296314e-01
 -2.1008290e-01
 -2.2251511e-01
 -9.5160109e-01
  7.3177737e-01
  8.8831790e-02
 -6.3549531e-01
  4.7254422e-01
 -3.7154174e-01
  2.4024846e-01
 -4.0280029e-02
 -6.6049683e-01
  1.1319511e-01
  3.9962313e-01
 -5.8064961e-01
 -7.1714526e-01
 -5.1652008e-01
 -2.0043461e-01
 -9.9096274e-01
 -6.6999131e-01
  4.7676536e-01
 -7.0124727e-01
  3.3811471e-01
 -3.0299279e-01
 -9.1542363e-02
 -4.7217491e-01
  1.5456118e-02
  4.7188574e-01
 -3.3813825e-01
  4.5818329e-01
 -1.6583875e-01
 -2.1423504e-01
 -3.6177543e-01
  3.0823418e-01
 -1.2602555e-03
  2.0774585e-01
  6.2253106e-01
  1.5946916e-01
  2.0428334e-01
 -4.4181785e-01
  1.2904742e-01
 -4.5394742e-01
 -7.7346765e-02
 -2.1267392e-01
  3.4618187e-01
 -1.0654633e-01
 -2.9930612e-01
 -4.1013992e-01
 -5.2456540e-01
  4.0316600e-01
 -1.9412021e-01
 -2.7345037e-01
  9.0940648e-01
  5.9695053e-01
 -1.5705782e-01
 -4.3929753e-01
 -6.3960463e-02
  9.3799621e-02
 -2.0793588e-01
  5.4717714e-01
 -2.5772044e-01
 -5.7706517e-01
  7.2792315e-01
 -2.3996761e-01
 -4.9047500e-01
 -4.5112407e-01
  2.9526141e-01
  5.4001516e-01
  4.8022291e-01
  3.8470763e-01
  3.6942419e-01
  1.8846913e-01
 -4.0417200e-01
 -2.0613551e-01
  1.8530561e-01
 -6.5506423e-01
  1.3045268e-01
  5.2166051e-01
  1.9637981e-01
 -7.3206879e-02
  1.2677683e-01
 -1.2923841e-01
 -8.3198555e-02
  3.3565319e-01
  4.6731654e-01
 -3.5085943e-01
  4.5636415e-01
 -1.2685276e+00
  6.3002628e-01
 -2.2749375e-01
  5.6135762e-01
  6.6924676e-02
  1.8762386e-01
 -9.9921161e-03
  5.4873937e-01
 -5.4890138e-01
  1.0838097e-01
  5.7824049e-02
 -2.8310707e-01
 -3.1108810e-02
 -3.6969241e-01
  3.0960590e-01
 -4.6847309e-03
 -4.2511424e-01
  1.0667201e+00
 -2.8476852e-01
 -6.3094354e-01
  9.1168118e-01
 -1.1241876e-01
 -8.6693025e-01
 -1.2864740e-01
 -1.9251784e-02
  5.5235338e-01
 -3.7720373e-01
  8.2268588e-02
  2.0657030e-01
  9.7932555e-03
 -2.0000084e-01
 -4.7113937e-01
 -3.3378068e-02
  1.4481880e-01
  5.8495790e-02
  2.5219500e-01
  8.6035088e-02
  4.1018501e-01
 -3.7768063e-01
 -3.5339022e-01
 -2.1188927e-01
  3.9068297e-01
 -4.3796068e-01
 -4.0102601e-01
 -9.8037708e-01
 -4.4020516e-01
 -2.3071250e-01
  7.6724571e-01
 -1.9949441e-01
  4.1846293e-01
 -6.5529001e-01
  3.8367361e-01
  2.5662675e-01
  6.4563191e-01
 -5.4888475e-01
 -6.8668234e-01
  2.8903446e-01
  4.7281453e-01
 -3.4986970e-01
  2.1143652e-01
 -9.2781091e-01
  2.3263042e-01
  2.9767624e-01
 -4.4573203e-01
  5.6835061e-01
 -3.9037982e-01
  7.4515456e-01
 -6.3363248e-01
  3.7566993e-01
  3.0041304e-01
  3.7353945e-01
  3.0710372e-01
  6.8522274e-01
 -9.1904134e-01
 -3.6464775e-01
 -5.7365113e-01
 -2.5546798e-01
  5.2338386e-01
 -1.0142694e+00
  3.2848230e-01
 -2.7509037e-01
 -1.5488106e-03
  6.3642812e-01
 -2.9925376e-01
 -6.5667056e-02
 -3.4366664e-01
 -2.7462325e-01
 -6.6982776e-01
  5.8267817e-02
  3.7697241e-02
 -7.9537816e-02
 -3.7290059e-02
 -5.5406851e-01
  1.0625795e-01
 -7.5219673e-01
  5.4479724e-01
  1.3146612e-01
  2.7583608e-01
 -1.0492823e+00
  4.1879454e-01
 -2.7106714e-01
 -4.3012598e-01
  3.6425027e-01
 -1.3567971e-01
 -2.9646149e-01
 -2.3282151e-01
  1.0274164e-01
  5.0271627e-02
 -2.0010363e-02
 -3.7166342e-01
  9.9348301e-01
 -6.8234451e-02
  7.8020692e-01
  1.4803307e-01
  5.7635240e-02
 -5.4933101e-01
 -2.8475532e-01
 -8.6558402e-01
  7.3337179e-01
 -4.6263251e-01
 -1.3235544e-01
  5.3143603e-01
 -1.7923255e-01
 -1.6316508e-01
  4.0374240e-01
  7.8598458e-01
  4.6639405e-02
  1.0671842e+00
 -3.3816895e-01
 -3.7290302e-01
 -4.7319686e-01
  5.0857836e-01
  5.5320215e-01
 -2.9949701e-01
 -4.5209774e-01
  1.9254769e-01
  1.3713878e-01
  7.6234795e-02
 -7.7553332e-02
  7.3980570e-01
  2.5577363e-02
 -1.5907304e-01
  4.6081159e-01
  2.1443187e-01
  3.2403401e-01
 -4.3829635e-02
  2.7450541e-01
 -5.2548558e-02
  1.5394798e-01
 -1.3909863e-01
 -1.5584053e-01
  9.2797570e-02
  4.7798800e-01
 -1.9777334e-01
  7.9920846e-01
 -2.0400983e-01
  1.8981023e-01
  2.5433409e-01
  1.0854118e-01
 -9.5325667e-01
  3.9067242e-01
 -9.2461139e-01
 -2.4794446e-01
  5.1467776e-01
  1.1075893e-01
  1.3837527e-01
 -2.6243120e-01
 -2.3390771e-01
  2.9502863e-01
 -3.8675135e-01
  2.9510617e-01
 -2.9671213e-01
  3.1193430e-02
 -4.8985508e-01
  2.4867240e-01
  2.7117759e-01
  3.5170755e-01
  6.2006927e-01
 -7.9654026e-01
  1.2223903e-02
  1.2394107e-01
 -3.1592584e-01
  1.1562022e-01
  1.7786811e-01
 -1.1356276e-01
  2.3609348e-01
 -1.0240093e-01
 -3.0307892e-01
 -4.0756312e-01
  3.2273120e-01
  6.6647255e-01
  3.0463517e-01
 -1.8596603e-01
 -8.5929789e-02
  1.7650434e-01
  1.4075164e-01
 -3.8602629e-01
 -6.0830418e-02
  8.1866705e-01
 -3.4198694e-02
  7.5208551e-01
 -2.7121150e-01
  1.3176924e-01
  2.1470472e-02
  4.4834927e-01
  2.7490592e-01
  1.1992562e-01
 -2.5092927e-01
  2.9873811e-02
  3.0522648e-01
  4.7020948e-01
 -3.8510832e-01
 -6.0307622e-01
  2.0134822e-02
 -7.0068008e-01
 -5.5006278e-01
 -5.4263437e-01
 -1.4692377e-01
 -4.2077941e-01
  1.5093489e-01
 -3.7894639e-01
 -2.9904482e-01
 -2.9667735e-02
 -3.0802447e-01
  6.0675031e-01
 -9.6407080e-01
 -6.3489854e-01
  1.4789233e-01
 -1.7588037e-01
  1.5980597e-01
 -6.8950433e-01
  5.5531108e-01
  2.0273943e-01
 -5.2831012e-01
  7.2633880e-01
  3.5147631e-01
 -2.9679197e-01
  8.0123931e-01
 -6.4556295e-01
  1.8994759e-01
  1.5017435e-01
 -4.9863538e-01
  3.4908969e-02
 -3.4795788e-01
 -8.9507379e-02
  4.8437480e-02
 -2.8026655e-01
  1.0055988e-01
  1.3060690e-01
  1.6247161e-01
 -8.5239834e-01
 -2.8570598e-01
 -4.3515381e-01
 -1.7045145e-01
 -2.5403905e-01
 -2.1670105e-01
 -4.0623122e-01
 -3.0629373e-01
  3.6347058e-01
 -4.0625777e-02
  5.4549402e-01
 -1.0179555e-01
 -6.4443791e-01
 -8.3111078e-01
 -7.3631847e-01
  8.0093659e-02
  1.7121447e-02
 -1.4522484e-01
  3.2954732e-01
  1.8024661e-01
  4.9852321e-01
  2.6308006e-01
  3.0980363e-01
  1.0984122e+00
 -8.3833218e-01
 -3.8967237e-01
  3.9667383e-01
 -6.0266197e-01
 -3.2011148e-02
  4.2778125e-01
  1.5254702e-01
  7.2418898e-01
  2.9299619e-02
 -3.3554128e-01
  1.4053065e-01
 -2.3322570e-01
 -6.5224841e-03
  5.0765675e-01
 -5.7325158e-02
  4.9853787e-01
 -6.0773533e-02
 -5.8172596e-01
 -3.2770604e-01
  8.7696202e-02
 -3.8216802e-01
  1.3434462e-01
  9.0995312e-01
  2.2937426e-01
 -3.3159289e-01
  8.4807199e-01
  2.4868321e-01
 -5.2036422e-01
  2.6059094e-01
  5.5932218e-01
  7.9793566e-01
  9.8841542e-01
 -8.2041007e-01
 -4.8015991e-01
  5.9264904e-01
 -4.8872586e-02
  7.2993234e-02
 -4.8803467e-01
 -5.2319127e-01
  1.4627910e-01
  6.7905122e-01
 -5.1734173e-01
  6.1684889e-01
  4.6932691e-01
 -1.0479469e-01
  7.4978578e-01
 -2.8213945e-01
 -1.6949899e-01
 -1.3345806e-01
  2.2071725e-01
  6.8406510e-01
 -1.0641352e-02
 -1.1976319e-01
  3.1315246e-01
  5.8343375e-01
 -5.4161352e-01
 -9.7061956e-01
 -2.1042782e-01
  2.2729127e-01
 -1.8399672e-01
 -3.0706438e-01
 -4.2249829e-01
  2.4468083e-02
 -5.0185722e-01
 -2.3030421e-02
 -3.4187566e-02
  4.9865596e-02
  3.4279302e-01
  2.5911513e-01
 -5.2717793e-01
  4.8480266e-01
 -3.5665500e-01
 -1.0458408e-01
  4.0014881e-01
 -1.4635061e-01
  1.6801585e-01
 -1.8538961e-01
  6.7696244e-01
 -5.2669841e-01
  3.0055016e-02
  6.3953914e-02
 -6.4951114e-02
  8.6601621e-01
  2.0162666e-02
 -2.8356391e-01
 -3.6450207e-01
  4.1882354e-01
  3.0060104e-01
 -5.8719146e-01
  8.4432267e-02
 -4.8239917e-01
 -2.0242415e-01
 -4.4151181e-01
 -1.6892949e-01
 -1.3941605e-01
 -3.3106691e-01
 -2.4102217e-01
  9.0827811e-01
 -3.5474497e-01
 -1.0728620e-01
 -3.9454812e-01
 -6.3130550e-02
  7.8810662e-01
  3.0280384e-01
 -1.4345789e-01
  9.0519436e-02
  2.9595390e-02
  3.3913311e-01
 -1.6346069e-01
 -1.3338506e-01
 -7.0566691e-02
 -2.9662916e-01
  3.4307290e-02
  1.4382175e-01
 -1.7455000e-01
  3.2467374e-01
  2.2254287e-01
 -8.3100355e-01
 -3.1941125e-01
  7.9902038e-02
 -4.3987513e-01
  3.4146106e-01
 -2.8176042e-01
  1.5404008e-01
 -1.2274503e+00
 -3.8458094e-01
  2.1482845e-01
  1.6008902e-01
  4.3110716e-01
 -6.4307815e-01
 -2.2068888e-01
  3.1374305e-01
 -4.2453644e-01
  1.5189232e-01
 -9.4064724e-01
  4.5928815e-01
  4.0595752e-01
 -6.4768595e-01
  5.8988385e-02
  3.8851264e-01
 -3.5095465e-01
 -6.9523150e-01
 -6.8364334e-01
 -2.7421653e-01
 -7.5098711e-01
  7.4430269e-01
 -4.0395033e-02
  2.4616791e-02
 -1.9482225e-01
 -5.3763998e-01
 -2.1964253e-01
  3.4455997e-01
 -5.6891501e-02
  8.6372817e-01
  5.7153776e-04
 -4.1121003e-01
  1.8198432e-01
 -2.7712053e-01
 -2.2194459e-01
 -1.4273508e-01
  6.2712216e-01
 -3.2210711e-01
  5.9346235e-01
 -8.5389800e-02
 -6.1666119e-01
  5.1603413e-01
  7.0043318e-02
  1.4647217e-01
 -1.0615867e-01
 -8.4637105e-01
 -2.9698467e-01
 -5.7772219e-01
  3.3713308e-01
 -2.1812877e-01
 -3.1857222e-01
  2.5245211e-01
 -7.6336373e-04
 -1.6995398e-02
 -3.6549166e-01
  2.5452578e-01
 -7.0046872e-01
 -3.3602583e-01
 -5.4434568e-01
  4.7925958e-01
  1.2971073e-01
  4.0237084e-01
 -1.5990369e-01
  8.4561557e-01
  3.1899458e-01
 -3.2558531e-01
  1.0023256e-01
 -2.7051526e-01
 -6.9390798e-01
  1.4133793e-01
  5.1261920e-02
  8.0412857e-02
 -6.2443793e-01
 -8.0664980e-01
 -7.0722528e-02
 -4.7521284e-01
  1.1308608e-01
  1.2344548e+00
  3.5277069e-01
 -3.2827637e-01
  5.4352379e-01
 -6.4494509e-01
  2.8621125e-01
  2.1277654e-01
  4.8304152e-01
 -5.2588272e-01
  4.8417661e-01
  5.5129033e-01
  3.7454692e-01
 -4.4445172e-01
 -2.9462275e-01
  2.3539250e-01
 -3.2147053e-01
  5.8616304e-01
  3.3295989e-02
 -3.3628188e-02
  6.0824072e-01
 -8.9288425e-01
 -8.8572249e-02
 -5.1866114e-01
 -7.4303532e-03
 -2.1741787e-01
 -3.5553312e-01
  4.2246842e-01
  6.8516564e-01
 -4.4155610e-01
  1.0588137e-01
  8.7951946e-01
 -1.7286614e-01
 -3.5704798e-01
 -3.6982706e-01
 -3.4318632e-01
 -3.2734442e-01
 -2.9559240e-01
 -2.3905770e-01
  1.9149545e-01
 -2.8780028e-01
 -7.3457770e-02
  9.2903638e-01
  6.1290371e-01
 -5.5365866e-01
 -1.1156969e-02
  2.2271451e-01
 -6.8644673e-01
 -7.8558159e-01
  1.7150518e-01
 -5.3522270e-02
  1.7243363e-02
  3.6104828e-01
  3.7334669e-01
 -2.2853771e-03
  3.1353414e-01
 -2.3617980e-01
 -2.0187691e-02
 -5.0632429e-01
  1.4299031e-01
  4.8637626e-01
  1.1088331e+00
  5.7911032e-01
  3.1934208e-01
 -1.2553640e-01
 -2.5571299e-01
 -2.6671681e-01
  1.8405335e-01
  7.8424200e-02
  3.9757989e-02
  4.5696720e-02
  2.4495327e-01
  3.2026407e-01
  1.7631377e-01
  2.5935224e-01
  1.1486197e-01
  1.5200177e-01
 -7.9869825e-01
  2.9671991e-01
 -8.2572693e-01
  6.6119796e-01
  1.9189808e-01
  4.6049011e-01
 -2.8416795e-01
 -2.2110456e-01
  1.2527609e+00
  2.8490138e-01
  5.4224169e-01
 -6.5066956e-02
 -4.2719807e-02
  5.9374206e-02
  6.5317161e-02
 -2.4582969e-01
  3.2620540e-01
 -5.3480315e-01
  2.5347164e-02
 -2.1270978e-01
  4.2486429e-01
  9.9453676e-01
 -1.3714902e-01
 -8.4204233e-01
  1.4182006e-01
  4.0457394e-02
 -9.2871296e-01
 -8.4807676e-01
  1.2614694e-01
  4.5652965e-01
  4.1998205e-01
  2.7963817e-01
 -1.0540732e+00
 -4.8059514e-01
 -2.9993242e-01
 -2.6800719e-01
 -3.8440186e-01
  2.4716581e-01
  5.9902686e-01
 -1.8608765e-01
 -1.7670067e-01
  1.4018571e-01
  1.7932591e-03
 -2.5955409e-01
 -3.6842284e-01
  5.7096660e-01
 -1.4933959e-01
 -1.3220511e-01
 -8.7625682e-02
  4.8109990e-01
 -2.6467812e-01
  4.4141424e-01
 -1.9127785e-01
  2.3332935e-02
 -2.8562576e-01
  1.0669241e-01
 -1.7682028e-01
  8.9725986e-02
  8.3587416e-02
 -6.5163571e-01
  8.5185751e-02
  1.8958190e-01
  1.3934873e-01
 -1.8215361e-01
  4.5106170e-01
 -5.1658052e-01
  3.8282409e-01
 -6.2712389e-01
 -7.1790820e-01
  1.0829657e-02
  1.2641823e-01
 -1.5383139e-01
 -1.4332220e-01
  1.1605817e-01
 -5.1818568e-01
 -5.0469786e-01
 -2.7302343e-01
  3.1288031e-02
 -5.8181888e-01
 -3.7216533e-02
 -3.1114909e-01
 -4.5423698e-01
 -2.6745351e-02
  7.0858073e-01
 -5.4808438e-01
 -6.3159156e-01
  4.9971092e-02
  1.6752759e-01
  3.7149015e-01
 -1.9241357e-01
  2.0785058e-01
  3.0190174e-02
 -2.2477013e-01
  6.6200864e-01
 -3.6811668e-01
 -6.2353913e-02
 -4.5045486e-01
  6.0499054e-01
  7.4020076e-01
  5.7783359e-01
  8.6255395e-01
  3.2951093e-01
  1.4030059e-01
 -3.1493619e-02
  7.6415695e-02
 -1.0304201e-01
 -4.9267624e-02
 -1.5392181e-01
  8.2020569e-01
  1.0563520e-01
 -7.9140311e-01
  5.6164706e-01
  5.5571556e-02
  4.3459868e-01
  3.3825473e-03
 -1.5903662e-01
 -2.5124082e-02
  6.9973159e-01
 -5.3218275e-01
 -5.1319510e-01
  4.6018308e-01
 -4.1973576e-02
  2.7376726e-01
 -9.4497818e-01
  4.6988886e-02
  3.2297322e-01
 -1.3551807e-01
  7.1905482e-01
  2.7860242e-01
  8.2767439e-01
 -1.3712361e-01
  1.3162234e-01
 -4.9197981e-01
 -4.0552649e-01
  5.5466479e-01
 -4.9185529e-02
  9.3531221e-02
 -3.3270639e-01
 -6.6127849e-01
  4.4031662e-01
 -1.9593596e-01
  3.5726704e-02
 -2.7227268e-01
  6.2587649e-02
  9.6643470e-02
 -1.8247843e-02
  4.6698615e-01
  2.7708858e-01
 -5.7965016e-01
 -1.2545843e-01
  2.9992355e-02
 -3.0004126e-01
 -2.8432307e-01
  2.8851867e-01
 -1.1727547e-01
  1.9057159e-01
 -9.3685561e-01
  1.8408020e-01
  1.5009166e-01
  6.4036882e-01
  5.0125099e-03
  1.6590278e-01
 -5.7977545e-01
 -1.2785877e-01
  4.3933618e-01
  4.2079329e-01
 -2.3192316e-01
 -6.1635244e-01
 -2.1367747e-01
 -3.7201944e-01
  1.8301181e-01
 -2.9954621e-01
  1.7628284e-01
 -2.9644790e-01
 -2.5976843e-01
  9.0787458e-01
 -3.7836975e-01
 -2.6737562e-01
 -9.6313947e-01
  6.0649139e-01
 -3.6195263e-01
  7.6142478e-01
 -7.0708346e-01
 -1.3301535e-01
 -2.2213702e-01
  1.4519376e-01
 -2.1315402e-01
  1.7599568e-01
  2.6876580e-02
  1.1981114e-01
 -7.2798669e-02
 -9.4712740e-01
  7.8804702e-01
 -7.3410153e-01
 -6.4316258e-02
  4.8765129e-01
  3.7201577e-01
  5.2427441e-01
  3.4786996e-01
  2.3159061e-01
 -4.2127284e-01
 -3.5792276e-02
 -1.4010811e-01
 -1.1721218e-01
 -2.9725167e-01
  1.6517563e-01
  2.8443861e-01
 -8.6718909e-02
  7.7618621e-03
  5.2567297e-01
  2.0355311e-01
 -7.2341168e-01
  8.2965836e-02
  1.6663747e-01
  3.9896488e-01
 -4.5503908e-01
 -3.5101059e-01
  7.9991549e-01
 -2.0939801e-02
 -2.0653901e-01
  6.0040933e-01
  2.8999093e-01
 -5.0873125e-01
 -1.0260587e+00
 -3.9042383e-01
 -1.4026112e-02
  8.2873732e-01
  4.3521237e-01
  3.1015158e-01
  2.2861935e-01
 -6.6889006e-01
  2.1740215e-01
  1.4175363e-01
  1.0398343e+00
  3.3326853e-02
  2.7124622e-01
  1.1299509e-01
 -1.2602969e-03
  4.0131697e-01
  2.6451525e-01
 -5.2445427e-02
 -5.2061063e-01
 -1.5418318e-01
 -1.9140053e-01
 -6.0451281e-01
 -4.5683347e-02
 -2.6240715e-01
  1.3426923e+00
 -6.0424274e-01
 -2.5163069e-01
  4.4394478e-02
 -3.3260825e-01
 -4.4084167e-01
 -2.1107445e-02
 -4.3224093e-01
 -1.6247748e-01
 -1.0462387e-02
 -6.0837799e-01
  2.4909657e-01
 -1.2045231e-01
  5.2081138e-01
 -1.5254427e-01
  4.9758834e-01
 -3.6956751e-01
  4.0837303e-01
 -1.9711833e-01
 -6.4441311e-01
 -1.6286550e-01
 -7.8290260e-01
  1.9064075e-01
  5.1652912e-02
 -9.7799204e-02
  2.8528520e-01
  2.1961148e-01
 -2.5095832e-01
  4.4214627e-01
 -7.9273887e-02
 -4.1122848e-01
  9.9435729e-01
 -3.0335271e-01
 -1.2386980e+00
  1.4353193e-01
  7.7400014e-02
 -1.8932636e-01
 -7.7950396e-02
 -2.4875094e-01
  2.1491166e-02
 -3.8663518e-01
 -4.7155398e-01
  3.4182675e-02
  3.1477049e-01
  1.0944982e+00
  1.9804876e-01
 -4.2203686e-01
 -4.5613119e-01
  5.5128938e-01
 -1.7800142e-01
  8.7344903e-01
  6.0251210e-02
 -4.3922511e-01
  8.4845388e-01
 -4.1472828e-01
  5.1048356e-01
  5.0971857e-03
 -4.2977539e-01
 -1.8501551e-01
 -2.2548588e-01
 -6.1705548e-01
 -2.9095688e-01
  7.1153849e-01
  2.1319094e-01
  9.8463878e-02
 -1.9266900e-01
 -1.5010254e-01
  7.2274953e-02
 -2.9482993e-01
 -1.4023189e-01
 -3.9787599e-01
  6.0363609e-01
 -3.0399898e-01
  5.4661667e-01
  3.9924353e-01
 -6.5568453e-01
  5.2265429e-01
 -9.6106254e-02
  7.3226094e-03
 -4.3274057e-01
 -2.2626930e-01
  3.8902596e-01
  3.0765828e-01
 -2.8594285e-01
  6.5693676e-01
 -8.5764992e-01
 -6.1995769e-01
 -3.7018973e-01
 -4.0406901e-01
 -2.7900121e-01
 -1.5194930e-01
  2.7760908e-01
  6.1730963e-01
 -5.6712729e-01
  7.5222689e-01
 -2.2276100e-02
  6.1065388e-01
 -6.7871511e-01
 -5.2890396e-01
  1.2047879e-01
  5.0685817e-01
 -4.3065500e-01
 -3.9826896e-02
  3.3857346e-01
 -7.7821702e-02
  1.8183599e-01
 -1.8300158e-01
 -5.7981467e-01
  9.6274626e-01
 -7.1760076e-01
 -7.2295353e-02
  4.1279581e-01
  1.2545772e-01
 -3.5881773e-01
 -4.1242875e-02
 -3.8033277e-01
  3.2039151e-01
  2.9198131e-01
 -6.4032614e-01
  2.5434509e-01
  2.1588534e-01
 -4.2322323e-01
 -1.7698410e-01
  3.7470010e-01
  8.5344397e-02
  1.8301481e-01
  3.4628738e-02
 -6.7236316e-01
 -2.4756382e-01
 -3.1193677e-01
  5.6773281e-01
  5.2668452e-01
  3.1042010e-01
 -1.1918801e-02
  3.2367146e-01
  1.3028103e-01
 -8.0276400e-01
 -8.0219559e-02
 -2.3012716e-01
 -6.8939710e-01
 -5.6712204e-01
  3.1744292e-01
  2.5976080e-02
  1.6040611e-01
  2.9157284e-01
  2.8848463e-01
 -5.4862028e-01
 -3.9775756e-01
  3.4270486e-01
 -1.6801518e-01
 -2.3708268e-01
 -7.4368262e-01
  8.3555889e-01
  1.4247546e-01
  7.2753131e-01
  5.2748245e-01
  4.0342909e-01
 -4.2244124e-01
  7.3757835e-02
  5.4052467e-03
 -2.1031858e-01
  6.5588611e-01
 -3.8404506e-01
  4.2361152e-01
  5.1380235e-01
 -8.6740881e-01
  7.8279860e-02
  1.6437793e-01
  7.9518956e-01
  1.7337441e-01
 -5.9296501e-01
  4.5344993e-01
  6.5564543e-01
  7.1552306e-01
  5.3217191e-01
  4.6441656e-01
 -2.8570074e-01
 -6.0437549e-02
 -5.5832177e-01
 -5.6192797e-01
  3.2056335e-01
 -3.1102775e-02
  4.2192206e-01
  2.0616479e-01
 -6.5363079e-01
 -6.2610662e-01
 -5.0103140e-01
  5.1116735e-01
 -5.7148075e-01
  1.6568163e-02
 -4.5690037e-02
 -2.3066007e-02
  6.3880008e-01
 -2.0119593e-01
 -2.1812509e-01
 -1.4263499e-01
  8.2323432e-02
 -1.0963013e+00
  2.8873435e-01
  2.6592642e-01
 -4.5362592e-01
 -2.3776118e-01
 -8.4340863e-02
 -5.8083320e-01
 -6.0026789e-01
 -6.0707235e-01
  7.0770824e-01
 -3.3989531e-01
 -2.8572130e-01
  7.5167425e-02
 -5.9535384e-01
 -2.7610919e-01
 -1.0788374e-01
 -1.7572133e-01
 -1.2339422e-01
  7.5399464e-01
 -8.0612886e-01
 -5.4751170e-01
 -1.1446013e-01
 -2.3211790e-02
 -4.1324191e-02
 -1.5956350e-01
  7.5801201e-02
  3.3293253e-01
 -4.0150726e-01
  2.6302314e-01
  5.2854729e-01
  3.1461799e-01
  4.0126780e-01
 -3.0517358e-01
 -4.4713598e-01
 -5.8872324e-01
 -5.7220972e-01
 -7.2262788e-01
  8.4189755e-01
 -1.9183233e-01
  2.5901210e-01
 -4.7611237e-02
  5.3459865e-01
 -5.3545707e-01
 -1.7786813e-01
  5.4946738e-01
 -1.0001006e+00
 -3.5165295e-01
 -2.8642938e-01
  4.6656591e-01
 -4.6267785e-02
  2.1906891e-01
  6.3037509e-01
  3.2261986e-01
 -2.6714751e-01
  4.7229668e-01
  4.4854009e-01
 -6.3842416e-01
  5.8255643e-01
 -3.4810692e-01
  2.0277496e-01
  7.1620092e-02
  1.5019979e-01
  7.4403602e-01
 -3.9301921e-02
  5.3674549e-01
 -2.7131054e-01
 -7.2652185e-01
 -1.2671858e-01
  9.9683684e-01
 -5.2818749e-02
 -7.0078146e-01
  2.7699679e-01
  2.3310725e-01
 -1.6162735e-01
 -4.8204073e-01
 -1.2307186e-01
  3.0998167e-02
 -2.2314121e-01
  1.1698499e-01
  2.8488696e-01
  2.7232885e-01
  5.3076947e-01
 -2.2923006e-01
  1.5843153e-01
  9.8428112e-01
 -1.8335681e-01
 -2.5350708e-01
 -1.9263127e-01
 -9.7166091e-01
  3.8529956e-01
 -2.2682410e-02
 -2.0641759e-01
  5.7942089e-02
 -2.7219293e-01
  8.0784267e-01
 -3.7756485e-01
 -3.4212789e-01
  6.7534590e-01
  9.2044950e-01
 -5.5343455e-01
  5.6355268e-01
 -1.1896448e+00
  5.7623733e-02
  8.5912429e-02
 -5.0911423e-02
  2.5741148e-01
  8.7517954e-02
  1.1665794e+00
  4.4836029e-01
 -3.1211221e-01
 -1.0605773e+00
 -8.5980371e-02
  2.0270102e-01
 -2.1509837e-01
  2.2002667e-01
  6.2640911e-01
  4.8003709e-01
  3.3540207e-01
  3.8321587e-01
  2.0418885e-01
 -6.1797410e-02
  8.3997257e-02
 -1.0528658e-01
 -9.9332642e-04
  2.5135601e-01
  6.0282099e-01
  1.9787274e-01
  1.1482459e-01
  4.1564971e-01
  1.8100934e-01
  5.7243866e-01
  3.2209376e-01
 -1.3201813e-01
 -1.4961830e-01
  3.9272901e-01
  6.0377878e-01
  3.8103342e-01
  5.4381955e-01
  9.6897578e-01
  9.5024295e-02
 -6.4642179e-01
  3.2468632e-01
 -9.0161186e-01
  2.0816278e-01
  2.0396717e-01
  7.1177386e-02
 -4.2332131e-01
  6.9136304e-01
 -7.2053212e-01
  6.6099562e-02
  7.2206652e-01
  2.9659000e-01
 -3.7745610e-02
  3.1176141e-01
 -4.5485106e-01
 -1.0999459e-01
 -6.9369930e-01
 -5.9475440e-01
  2.0394069e-01
 -2.5578648e-01
 -7.2265011e-01
 -2.1676099e-01
 -2.5448865e-01
  6.5717977e-01
  1.8766946e-01
 -3.6763343e-01
 -4.1130617e-01
 -2.5232142e-01
 -9.4676487e-02
 -2.9593816e-01
 -8.0823678e-01
 -1.0098196e-01
 -4.2078327e-02
  2.5248837e-01
  2.3382464e-01
 -5.8249867e-01
  2.2213329e-01
  3.7720937e-01
  5.5616784e-01
 -2.4176659e-01
  9.6164060e-01
  5.3363746e-01
  1.7258611e-01
  3.5158154e-01
 -1.5793020e-01
  2.1579902e-01
  3.3330357e-01
 -5.7339358e-01
 -1.1159817e+00
 -5.2760708e-01
 -3.7368331e-02
  7.3475099e-01
 -7.0853782e-01
  5.5058040e-03
  5.6975389e-01
 -1.6473033e-01
 -1.4856797e-01
  2.7679914e-01
 -1.6255504e-01
  2.2500189e-01
 -7.0439422e-01
  1.6543938e-01
 -9.4376914e-02
  3.1977367e-02
  2.5239283e-01
 -1.1717030e-01
 -4.5147860e-01
 -5.8063114e-01
  2.1471384e-01
 -2.5124556e-01
 -1.4140068e-01
 -6.8311507e-01
 -5.5647254e-01
 -1.2642932e+00
  3.8882151e-01
 -4.1158023e-01
 -4.5491490e-01
  2.0599060e-01
  1.3352843e-01
 -5.2810758e-01
  5.5532920e-01
 -6.6806018e-02
 -1.5914948e-01
 -7.1248490e-01
  1.3194515e-01
  1.9019285e-01
 -6.5428358e-01
 -1.1197628e-02
  2.7463028e-01
 -1.5252170e-01
  7.7308524e-01
 -2.7504531e-01
  1.5023799e-01
  1.2171700e-01
 -2.6994076e-02
 -2.3079851e-01
  2.0376252e-01
 -1.2501192e-01
  2.2319448e-01
 -2.0902176e-01
 -9.6380919e-01
 -2.1352638e-01
 -3.5039479e-01
  2.4309599e-01
 -1.2105826e-01
  9.9204637e-02
 -9.4087452e-01
  3.9670923e-01
 -5.4262823e-01
 -4.7996178e-02
  4.5499748e-01
  6.6421032e-02
 -8.7281719e-02
  6.6104587e-03
  2.2084525e-01
 -6.5179086e-01
  2.0841187e-01
  2.5757149e-01
  8.5209411e-01
  9.0606773e-01
  9.0102130e-01
 -4.0710360e-01
  4.4021532e-02
  5.1601630e-01
 -4.3588349e-01
 -3.2128620e-01
 -3.3795077e-01
  4.8158357e-01
 -7.5585961e-01
 -2.0551880e-01
 -4.2046836e-01
  2.5923076e-01
  6.8264669e-01
 -7.6340389e-01
  4.4920304e-01
  3.6450642e-01
 -2.8115210e-01
 -8.3183721e-03
 -1.1245918e-01
 -8.7487161e-02
  1.5698875e-01
  4.8985731e-02
 -8.3616257e-01
  3.0588800e-01
  7.9016767e-02
 -2.9231101e-01
 -4.1409805e-01
  2.3559280e-01
  7.3490924e-01
  6.4368415e-01
  3.7458062e-01
 -3.3572089e-02
  2.6792672e-01
  4.5902887e-01
 -1.9476263e-01
 -3.0028471e-01
  1.6337919e-01
 -5.5100754e-02
 -5.7430148e-01
 -3.8836636e-02
 -6.2317449e-01
 -3.4294635e-01
  2.5441387e-01
 -2.9245941e-03
 -2.8985772e-01
 -1.0316720e-02
 -4.5815632e-01
  1.0309567e+00
  2.2462538e-01
  2.1938169e-01
 -5.5998349e-01
  3.3613563e-01
  1.1249732e-02
  4.5142636e-02
 -2.8151771e-01
  6.8588233e-01
 -7.8682676e-02
  7.3144495e-01
  7.8633422e-01
  6.1030906e-02
  1.6760503e-01
 -6.6902623e-02
 -3.5047606e-01
  2.2757426e-01
 -3.8144878e-01
  4.1678146e-01
  9.6864629e-01
 -1.2200309e-01
 -4.4486788e-01
  3.4846578e-02
 -1.1205987e-01
 -3.9403517e-02
  4.1435789e-02
 -4.1606149e-01
  9.1500598e-01
  1.9883871e-01
  1.2054545e+00
  1.7289382e-01
  7.2115093e-01
 -6.9679564e-01
  4.4221652e-01
  9.9053073e-01
  1.3013445e-01
 -3.6633259e-01
 -3.5341215e-01
 -2.3944439e-01
 -7.3245925e-01
 -2.3150484e-01
  6.7712796e-01
  3.7173802e-01
  2.8833002e-01
 -2.3022397e-01
 -3.9724413e-01
 -5.4629833e-01
 -4.2767406e-01
  6.4041346e-01
 -2.2815005e-01
  4.7751367e-01
 -1.1036342e-01
  5.5848040e-02
  6.2490207e-01
 -4.6317731e-03
 -2.6060328e-02
 -3.2166162e-01
 -1.3288400e-01
 -6.0763055e-01
 -5.7162714e-01
  4.5159099e-01
  2.2298169e-01
 -5.5265743e-01
 -7.0344913e-01
  7.3750913e-01
 -7.8015137e-01
  2.9799765e-01
  2.0305605e-01
 -1.2132808e-01
  3.1083789e-01
 -5.8689797e-01
 -1.1141027e-01
  8.1721783e-01
 -5.4433131e-01
  1.1283308e-01
 -1.1076937e-01
 -3.6751959e-01
  9.8034881e-02
 -6.8873562e-02
  6.9432670e-01
  2.0918763e-01
 -2.0026265e-01
 -1.1234962e-01
 -1.0939560e-01
 -1.9770290e-01
  3.9585319e-01
  4.7087986e-02
  5.6932807e-01
 -6.2371492e-01
 -3.5582000e-01
 -1.2693928e-01
  4.6223007e-02
 -3.3175248e-01
 -3.5202742e-01
 -8.5726671e-02
 -7.1336366e-02
 -9.6974283e-02
  3.3665648e-01
  1.1669395e+00
  6.8726903e-01
  9.7349942e-02
  7.9939026e-01
  3.3769626e-02
 -5.1332624e-03
  1.6958882e-01
  1.1234882e+00
 -4.7115716e-01
  3.4090248e-01
 -1.7186326e-01
 -7.4379027e-01
 -1.8931805e-01
 -3.6584046e-01
  4.2257702e-01
 -2.6194086e-02
 -8.5389060e-01
 -2.3854405e-01
 -7.5919771e-01
  2.3207010e-01
  1.6359642e-01
 -4.8303279e-01
 -3.3078265e-01
 -3.3675137e-01
 -4.9103600e-01
  1.6928595e-01
 -3.6835410e-02
 -8.2359828e-02
 -5.9785420e-01
  3.8722423e-01
  5.8747768e-01
  5.9210527e-01
  2.7564421e-01
 -3.1167462e-02
  2.9999474e-01
 -2.6568305e-01
 -1.5879647e-01
 -1.2751107e-01
  5.5404621e-01
  1.7966314e-01
  1.7804833e-01
 -3.3021331e-01
  4.1556302e-01
 -7.1909034e-01
 -7.2369456e-01
 -5.6496775e-01
  7.6744378e-01
 -4.5176595e-01
 -1.3879642e-01
  2.6257652e-01
  1.6179255e-01
  9.1073595e-02
  5.5745697e-01
  1.6173205e-01
 -2.6027927e-01
 -1.9375995e-01
 -1.1537369e-01
  3.6110365e-01
  1.0500060e-02
  2.8686646e-01
 -3.8763735e-01
 -1.1711612e-01
  4.7303545e-01
 -5.1707047e-01
  9.0644605e-02
 -1.1487487e-01
 -1.6802233e-01
 -8.0032206e-01
  1.3560380e-01
  2.2461720e-01
 -7.6779485e-01
 -6.2530041e-01
  2.4386859e-01
  1.8365592e-01
 -4.3279663e-01
  5.8794998e-02
  2.5329557e-01
 -4.1397506e-01
  3.6694717e-02
 -1.7320062e-01
 -9.8449364e-02
 -2.9743251e-01
 -3.8061535e-01
  3.6376381e-01
  3.3554053e-01
 -7.4047202e-01
  1.8064886e-01
 -6.8755615e-01
 -1.1246203e+00
 -1.0129260e-01
  5.3555124e-02
  7.0508286e-02
  2.2647811e-01
  2.9287869e-01
  5.6697679e-01
  2.6414159e-01
  5.0109947e-01
  2.6042012e-03
 -6.2224060e-01
  2.1000072e-01
  1.6045201e-01
 -3.2560128e-01
 -2.9593170e-01
 -3.7507329e-02
 -2.8457046e-01
 -2.6884413e-01
  1.1154694e-01
 -3.7663651e-01
 -4.2053261e-01
  1.7608918e-01
 -2.0211585e-01
  4.3493396e-01
  8.4143998e-03
 -6.1433530e-01
  2.0317906e-01
  3.1698681e-02
  3.7368767e-02
  2.8158227e-01
  7.0741385e-02
 -3.1337997e-01
 -4.1089524e-02
  4.4999120e-01
  5.9373476e-02
  7.1070242e-01
  7.9876852e-01
 -9.8775700e-03
  2.4888855e-01
 -1.6536999e-01
  1.9124320e-01
 -2.8215107e-01
  4.1579318e-01
 -1.7580679e-02
 -8.0351546e-02
 -9.8315001e-01
 -6.2854463e-01
  7.3797472e-02
 -4.3022960e-01
 -5.5774868e-01
  6.9790649e-01
  1.0200700e-01
 -6.8070322e-02
 -1.3953329e+00
 -3.7717921e-01
 -7.0706166e-02
  2.9219428e-01
  2.2728829e-01
 -4.5030794e-01
  5.3171836e-02
  3.4979594e-01
  5.6724244e-01
  1.4796585e-01
  3.6166897e-01
  1.8978515e-01
 -1.0655112e-01
  5.3824633e-01
  1.2169693e-01
 -1.0345843e+00
 -1.4713746e-01
 -1.0653145e-01
 -5.9464704e-02
 -2.1749094e-01
  2.2108503e-02
  4.5962560e-01
  8.7977901e-02
  1.6424727e-01
  1.0113660e-01
 -6.3809499e-02
 -4.3742797e-01
  1.0309212e-01
 -5.1742953e-01
 -4.5899633e-01
  4.5230645e-01
 -8.2822360e-02
  1.2671579e-01
  2.5748102e-02
  2.9440677e-01
  2.2645535e-01
  6.9332129e-01
  3.4736651e-01
 -3.5805675e-01
 -6.9115609e-01
  4.2070559e-01
 -3.9995345e-01
 -2.1329801e-01
 -9.1795373e-01
 -3.7375554e-01
  2.5165582e-01
 -2.7921475e-02
  5.2044916e-01
 -4.7020218e-01
 -8.9581445e-02
  1.3459767e-01
 -4.5756727e-02
  5.7147998e-01
 -4.3632366e-02
  2.0913844e-01
 -2.9335406e-01
 -2.0414777e-01
 -4.8895684e-01
  8.8694334e-02
 -5.2733272e-01
  2.0616731e-02
  5.0290948e-01
 -4.4422585e-01
 -6.7486548e-01
  1.0975579e-01
  3.4972927e-01
 -2.3021626e-01
 -2.4106944e-01
 -2.0794275e-01
 -1.9903722e-01
  4.1475013e-01
 -3.9979717e-01
 -7.2264552e-01
 -3.2109451e-02
  3.8094455e-01
 -4.9256548e-01
 -3.3194914e-01
  3.0826372e-01
 -4.5611545e-01
  1.0947988e-01
 -5.8676388e-02
 -8.2106131e-01
 -1.2627822e-01
  2.2067580e-01
  4.4621402e-01
  7.2546557e-02
  7.9973286e-01
 -2.3397486e-01
  6.2062305e-01
  6.3811302e-01
 -1.8952008e-02
 -3.8833421e-01
  5.8484614e-01
  4.4601431e-01
  2.4655518e-01
  2.6987019e-01
  4.5510599e-01
 -1.5769204e-02
 -7.5447843e-03
 -6.2892175e-01
 -5.3931373e-01
  1.5779838e-01
 -4.6308145e-01
  2.8353176e-01
 -3.1271392e-01
 -2.6024116e-02
  4.5076106e-02
  1.7595474e-01
  4.7346842e-01
  2.5942093e-01
 -2.5706053e-02
  5.1192319e-01
 -4.3250206e-01
 -1.4980347e-01
  1.8533581e-01
 -1.6640617e-01
 -4.4078067e-01
  3.5943589e-01
 -6.9287544e-01
 -4.8847992e-02
  2.3136291e-01
  1.4345914e-01
 -1.5359899e-01
 -6.3985234e-01
 -5.3483605e-02
  2.2593558e-01
 -1.9570922e-02
  1.4396931e-01
 -9.5577759e-01
 -8.2932070e-02
  1.2748834e-01
  5.0580293e-01
 -1.9747038e-01
  8.9669168e-01
 -5.2221876e-01
  1.1695499e+00
  5.1242346e-01
 -1.0234091e-01
 -1.2220845e-01
 -8.5881256e-02
 -3.6410770e-01
  4.1100481e-01
  3.5159209e-01
  6.7123938e-01
  3.4827387e-01
 -8.8927591e-01
  1.2823763e-01
  4.0090284e-01
  2.6290031e-02
  1.9329353e-01
  1.8563916e-01
 -2.6910943e-01
  4.9675518e-01
 -6.1132574e-01
  5.9816152e-02
 -6.0151112e-01
 -1.1142565e-01
 -2.3450201e-02
  7.8643724e-02
 -3.3868214e-01
 -6.1583418e-01
  9.7018264e-02
 -5.0073892e-01
 -1.3648720e+00
  3.8480669e-01
 -6.5473568e-01
  9.0329126e-02
  5.3469759e-01
 -2.1338034e-01
 -3.6337730e-02
  4.9805213e-02
 -8.5699670e-02
 -1.6834852e-01
 -1.7384106e-01
  3.6228856e-03
  5.9648365e-01
  8.7306639e-03
  5.1525289e-01
 -2.9256439e-02
 -8.7474507e-01
  5.9726733e-01
 -9.1451779e-02
 -6.0267723e-01
  3.7142619e-01
 -1.6038841e-02
  3.2869744e-01
  6.9887173e-01
  4.2755723e-01
 -2.8516832e-01
 -7.7304322e-01
  3.6585981e-01
  4.3836888e-02
 -1.5675025e-01
  5.3950280e-01
  6.0661620e-01
  1.3612849e-01
 -1.2543823e-01
  2.6958057e-01
 -7.9824305e-01
 -9.3227488e-01
  9.1153055e-02
  7.7302265e-01
 -1.2386632e+00
 -2.2348964e-01
 -1.3243006e-01
 -5.7950824e-01
  1.1429860e-01
 -6.5264738e-01
 -2.0129120e-01
 -6.9312140e-02
 -1.1718994e-01
  8.1396125e-02
 -3.8321912e-01
 -4.0464845e-01
  6.8104602e-02
 -5.2483910e-01
  6.8983918e-01
 -8.5438442e-01
 -5.9753481e-02
 -1.3157071e-01
  1.3685635e-01
  3.6714721e-01
 -8.1497288e-01
  1.2700514e-01
  9.1109626e-02
  5.0059986e-01
  1.6621688e-01
 -4.4886181e-01
  6.6488969e-01
 -2.2207445e-01
 -2.4206515e-01
  1.1371565e-01
 -4.7373515e-01
  1.4866339e+00
  2.2978558e-01
  3.5143364e-02
  7.9910189e-02
  1.4220555e-01
  6.0019976e-01
  3.5054711e-01
 -5.0632226e-01
  3.3972599e-02
 -2.0303042e-01
 -5.0370890e-01
  3.6567393e-01
  4.4783801e-01
 -2.6046136e-01
 -9.4544989e-01
 -4.3667045e-01
 -1.5742371e+00
  8.6662404e-02
 -2.1875127e-01
  2.7909884e-01
  9.9469846e-01
  4.3909341e-01
  4.8347592e-01
  1.2144799e-01
 -5.3928267e-02
 -1.0216316e-01
 -1.9036721e-01
  6.2973011e-01
  1.2478459e-01
  4.2341849e-01
 -6.0424274e-01
  2.3937577e-01
  2.3157538e-01
  5.8940090e-02
  6.7120689e-01
  1.3885167e+00
  3.2621179e-02
 -8.5514911e-02
 -2.6353586e-01
 -4.5454732e-01
  6.5879023e-01
  4.7173832e-02
 -1.0771839e-01
 -2.2812283e-01
  1.8976639e-01
  5.4365870e-02
 -7.4785215e-01
 -1.7417511e-02
  1.5561414e-01
 -3.5299003e-01
  4.2771244e-01
 -8.3951689e-02
 -2.1869971e-01
  3.2944158e-01
  3.2531258e-01
 -1.2948389e-01
  1.8067619e-01
 -6.0857382e-02
 -3.7592435e-01
  6.6407762e-02
  7.1604930e-02
 -1.2461132e-01
 -1.5734591e-01
 -3.2883098e-03
  2.8500769e-01
  3.1021678e-01
 -2.1448376e-02
 -6.6710246e-01
  1.9668844e-01
 -3.0310309e-01
 -1.8192989e-01
  2.4469329e-01
 -4.6688378e-02
  7.1706665e-01
  3.8881630e-01
  9.5743334e-01
  5.2978746e-03
  1.2440807e-01
 -5.8980312e-02
  3.9464182e-01
  2.6811117e-01
  7.4043520e-02
  6.7351155e-02
  5.3113091e-01
  8.8709764e-02
  5.3991866e-01
  1.8771434e-01
 -8.1544977e-01
  1.5088274e-01
 -6.0825026e-01
 -5.3697252e-01
 -1.5035866e-01
 -3.6809164e-01
  1.6650808e-01
 -7.0429176e-01
  4.0956037e-03
  5.2793640e-01
 -1.0548308e-01
  5.4603904e-01
 -2.3327839e-01
 -1.8874313e-01
 -5.6339663e-01
  9.3512797e-01
  7.2062755e-01
  3.7810230e-01
  2.4100956e-01
 -2.7664986e-01
 -1.8179682e-01
  7.2455809e-02
 -3.1017441e-01
  2.2416018e-04
  2.3719202e-01
  4.7581956e-01
  3.7301961e-01
  7.9599565e-01
 -6.9113709e-02
  1.0080135e+00
  4.5695809e-01
  2.1967328e-01
  4.7897449e-01
  2.7493355e-01
  3.2175353e-04
 -2.8086093e-01
  4.6579376e-01
  3.2069743e-01
 -1.4499019e-02
  5.6123644e-01
 -5.7661392e-02
  2.0106487e-01
 -2.7460179e-01
  5.0766915e-01
 -1.8665203e-01
 -2.5367579e-01
  7.5276220e-01
 -7.1697235e-02
 -3.4439567e-01
 -2.4023977e-01
 -6.0738349e-01
  7.8893524e-01
 -7.8570977e-02
 -3.6271322e-01
  3.3709928e-01
 -8.1662290e-02
  2.5513819e-01
 -9.7626024e-01
  7.7403888e-02
 -1.0014070e+00
  1.0916980e-01
  4.4970250e-01
 -2.8446233e-01
  1.1066162e-01
 -4.2670235e-01
 -2.1666351e-01
 -4.3029761e-01
  4.9590299e-01
  5.0717813e-01
 -6.8506473e-01
  4.7956952e-03
 -1.3985696e-01
 -2.1332255e-01
  7.5683618e-01
  2.6036084e-01
  4.7401348e-03
 -1.9688170e-01
 -7.1329826e-01
 -3.8725147e-01
 -1.0511036e+00
  1.6594151e-02
  7.6184146e-02
 -6.0549397e-02
  1.4831984e-01
  3.3752060e-01
  2.4982277e-01
 -4.9227726e-01
 -3.0386633e-01
 -1.3884625e-02
 -1.6160013e-01
 -7.9567331e-01
 -1.5620418e-01
  9.9985935e-02
  2.3975082e-01
 -3.6661556e-01
  4.7369736e-01
 -4.1992572e-01
 -4.2234802e-01
  3.3496988e-01
  2.7723303e-02
  2.2949298e-01
  3.3494622e-01
 -1.2183589e-01
  4.0944776e-01
 -5.2590746e-01
  6.3644111e-02
  1.9586276e-01
 -1.4198621e-01
  1.7375680e-02
 -3.0330682e-01
 -9.6368827e-02
  2.4877129e-01
  2.6876429e-01
  7.1737224e-01
  6.1272062e-02
 -3.7506288e-01
  3.6298898e-01
  1.1037202e-01
 -4.9350071e-01
 -1.0817590e+00
 -5.4144144e-01
  9.6902989e-02
 -5.2154124e-01
 -2.5349268e-01
  4.4222301e-01
 -3.2748163e-01
 -5.9735186e-02
  1.6874950e-01
  6.6297486e-02
 -5.1563639e-02
 -4.1980213e-01
 -2.3799701e-01
  2.5126627e-02
 -2.7982863e-02
  4.3129838e-01
  6.4311981e-01
  2.0414758e-01
  4.5805022e-02
  3.7287289e-01
  4.3996032e-02
 -1.1072364e+00
  5.5787641e-01
 -7.0895925e-02
 -2.8670490e-01
  5.7490528e-01
  5.1002902e-01
 -6.8259364e-01
 -8.6994655e-02
 -8.9738213e-02
  3.4478553e-02
 -5.3955186e-02
 -3.3466643e-01
  3.2088166e-01
  3.9924410e-01
  1.5282291e-01
  8.6038880e-02
  2.7881530e-01
  1.2194983e-01
 -8.1803483e-01
 -1.3279092e-01
  2.4821943e-01
  5.0251484e-02
 -4.1045380e-01
 -8.8932192e-01
 -4.8099706e-01
 -2.4333774e-01
 -2.1472569e-01
  9.9977061e-02
 -4.8087573e-01
 -1.4027256e-01
 -6.4291996e-01
  2.6000488e-01
 -8.2632762e-01
  3.6613110e-01
 -6.0033703e-01
  2.5272277e-01
 -4.7157651e-01
  2.6419830e-01
  1.0252568e-01
 -5.0920504e-01
  1.6724120e-01
  2.2926699e-01
  3.7849182e-01
  4.2719153e-01
  5.8917925e-02
  1.7702794e-01
 -2.0013203e-01
 -4.2787382e-01
 -8.7796599e-02
  3.7453309e-01
  5.3929102e-01
 -5.4518092e-01
 -2.1525870e-01
  2.0207559e-01
  4.2743221e-02
  1.8253501e-01
  1.2962854e-01
  1.3012010e-01
  4.7108459e-01
 -2.0194836e-03
  1.4194122e-01
  3.8155663e-01
 -6.3646831e-02
  3.1547141e-01
 -3.5673481e-01
  1.0004259e+00
  7.5162792e-01
 -2.5068823e-01
 -9.6424229e-02
  4.6927724e-02
 -5.4394293e-01
 -2.0613317e-01
  3.2106295e-02
 -4.1380936e-01
  5.8638304e-01
  5.0114858e-01
  1.0668226e-01
 -1.1460137e-01
 -3.2725626e-01
  8.4316827e-02
  1.7218010e-01
 -6.4180142e-01
 -8.3011180e-01
 -4.8528612e-01
  2.0955895e-01
  5.8575533e-02
  9.0441234e-02
  4.4590393e-01
  6.8780810e-02
  1.5763389e-01
  7.5661451e-01
 -1.3454922e-01
 -5.1091236e-01
 -3.3221790e-01
 -5.6783295e-01
  3.1973714e-01
  7.3269641e-01
 -2.8454661e-01
 -6.2312067e-02
 -4.0145397e-01
 -2.4893832e-01
 -7.7284425e-01
  3.5626051e-01
  6.7728859e-01
  1.4560892e-01
  1.8865365e-01
 -5.2277386e-01
 -7.9726583e-01
 -5.8612859e-01
  9.8223859e-01
 -5.2563649e-01
 -8.3198988e-01
  4.3471959e-01
 -3.6096969e-01
  4.5916757e-01
  4.0424728e-01
  8.8694119e-01
  2.3313691e-01
  2.0937547e-01
  3.3620974e-01
  1.5783675e-01
  4.7682390e-01
  2.5938913e-01
 -2.8092065e-01
  7.8001195e-01
 -9.9940568e-01
  6.5651846e-01
 -4.9121591e-01
  4.9438659e-02
 -7.9220481e-02
  3.5419753e-01
  7.7059455e-02
 -5.5071932e-01
  2.4078979e-01
  8.4140822e-02
 -1.2781054e-01
  3.4763250e-01
  4.2594507e-01
 -3.3943173e-01
 -1.4097287e-01
  4.9896529e-01
 -6.4603552e-02
 -1.3989656e-01
  1.9138169e-01
 -4.5263267e-01
  1.7158282e-01
 -3.3801988e-02
  3.8045131e-02
 -6.6279608e-01
  2.6561919e-01
 -4.1087857e-01
  1.5719210e-01
 -8.4132522e-01
 -9.0147197e-02
 -8.3636865e-02
  3.5234678e-01
 -2.5502691e-01
  6.0946321e-01
 -2.0653908e-01
 -1.1419968e-01
  2.3532020e-01
 -1.1875716e+00
 -5.8038682e-01
 -1.6549061e-01
 -2.7973628e-01
 -7.2767138e-02
  2.2944637e-01
 -7.3595732e-02
 -4.5605075e-01
  3.2093719e-01
  5.7098590e-02
 -1.2054695e-01
 -1.1983110e-01
  2.8388444e-01
 -5.6995153e-01
  4.8782387e-01
  4.3731067e-01
  4.5868883e-01
  2.6038778e-01
  3.4721616e-01
 -2.1733756e-01
 -2.7967104e-01
  5.2301481e-02
 -1.2038397e-01
  6.9144778e-02
 -1.0914263e-02
  3.1299067e-01
 -1.1317392e-01
  1.1687982e-01
 -7.1343914e-02
  1.0563610e-01
  3.5278868e-02
 -5.7237560e-01
  8.9019217e-02
 -9.6473984e-02
  1.8454993e-01
  8.2174158e-01
  1.8082323e-02
  8.8172413e-02
  1.4928709e-01
  1.5975666e-01
  2.5103470e-02
 -2.6733348e-01
  6.7260534e-01
 -3.6571267e-01
  1.4695629e-01
 -1.1913205e-02
  6.2143791e-01
 -3.3767000e-02
  1.9100334e-02
 -3.5279006e-01
 -9.0245587e-01
 -3.6838785e-01
 -3.2187569e-01
  1.1125387e+00
 -1.7589085e-01
  1.8530026e-01
 -7.0090306e-01
  3.8114309e-02
  6.2527084e-01
 -1.8272464e-01
  4.0357223e-01
 -2.7774283e-01
 -2.5172859e-01
 -4.0371025e-01
 -5.6710261e-01
 -1.7570406e-01
  5.9120022e-02
 -8.4199607e-01
  8.9074636e-01
  7.1521693e-01
 -7.9169518e-01
  2.0488498e-01
  7.7491277e-01
  1.9416125e-01
  3.6548474e-01
 -1.4725627e-01
  1.2866932e-01
  4.6281617e-02
  4.8664787e-01
 -5.0224334e-01
 -1.9946207e-01
 -4.7801016e-03
  1.1599846e+00
  7.9149874e-03
 -1.4995342e+00
 -4.5705506e-01
 -1.0466827e+00
 -7.2964090e-01
 -8.1538923e-02
 -9.3566515e-02
 -7.9107112e-01
  5.5487197e-02
  2.8673708e-01
 -2.6779649e-01
  7.9760566e-02
 -1.0502303e+00
  4.0311661e-02
 -1.0027803e-02
 -2.9723853e-01
 -4.8916119e-01
  6.6467255e-01
  9.3703518e+00
  4.8807034e-01
  7.7118206e-01
 -5.7037961e-01
  4.8436108e-01
 -2.6363680e-02
 -4.4492960e-01
 -4.1084060e-01
  9.5174402e-01
 -2.5360245e-01
 -2.7715367e-01
  1.3064098e-01
 -5.3681288e-02
  7.8798425e-01
  4.0621713e-01
  8.5314572e-01
  3.2529381e-01
 -3.1230447e-01
  6.4484608e-01
 -5.4016924e-01
  4.3659076e-02
  4.2409271e-01
 -6.9809490e-01
 -7.0920521e-01
  3.1492397e-01
  5.6108278e-01
  2.1568240e-01
 -8.9915437e-01
  9.5394954e-02
  3.0876201e-01
  2.2259642e-01
 -4.7861984e-01
 -4.9965918e-01
  9.3938732e-01
 -2.9088876e-01
  2.7380192e-01
 -1.3480359e-01
 -1.3939197e-01
  7.9166770e-01
 -1.8182112e-01
 -7.6348996e-01
 -6.0345504e-02
  7.6002419e-01
 -2.8710017e-01
 -5.4537183e-01
 -3.2495788e-01
 -1.6055234e-01
  2.6023239e-01
  2.2105421e-01
 -4.6695822e-01
 -3.1880555e-01
  3.7627414e-01
 -6.4080220e-01
 -4.5624015e-01
  4.9317729e-02
 -2.0036910e-01
  8.2000947e-01
  3.7396529e-01
  5.9909099e-01
 -7.2059417e-01
 -5.4823405e-01
  6.8236709e-01
  2.9563084e-01
 -7.5498706e-01
 -4.3356231e-01
  9.5771952e-03
 -2.8348649e-01
  2.7812198e-01
  5.8029824e-01
  4.3249428e-01
 -1.6846344e-01
 -2.1951663e-01
  4.2261031e-01
  1.5805186e-01
 -5.9508526e-01
  3.3347562e-01
 -1.4479977e-01
 -1.0637167e-01
 -3.4996726e-02
 -4.6067661e-01
 -5.0076771e-01
 -9.9375054e-02
 -8.3704048e-01
 -5.5173945e-01
 -1.8099292e-01
  5.6634617e-01
 -1.7507687e-01
 -2.6198391e-02
 -3.6513129e-01
  1.9852863e-01
  3.9903812e-02
  5.0373542e-01
 -6.4667314e-01
 -5.6960166e-01
  8.0244355e-02
 -3.5919074e-02
  6.5975428e-01
 -3.0929586e-01
 -5.3525603e-01
 -2.8204568e-02
  4.0085521e-01
  2.8302541e-01
  4.5368156e-01
  4.2421544e-01
 -6.4277321e-02
 -1.9692793e-01
  4.6409994e-01
  2.1121418e-01
 -1.2831382e-01
 -4.6320722e-01
 -7.6248813e-01
 -3.8754705e-01
 -3.9067572e-01
 -2.2865279e-01
  2.1891774e-01
  5.4685950e-01
  1.6688122e-01
  1.3642686e-02
 -4.2190686e-01
 -7.9042208e-01
 -3.9508340e-01
 -2.9327148e-01
 -1.1134747e-01
 -2.9451036e-01
 -6.7950982e-01
 -9.1457009e-02
  1.8370995e-01
  4.8875853e-01
  3.3904478e-01
 -2.6796636e-01
  5.7179201e-02
 -2.1981268e-01
 -6.4354128e-01
 -6.9416600e-01
 -9.8525137e-02
 -1.0600541e+00
 -1.3711842e+00
  1.5531695e-01
 -5.4646921e-01
 -2.5166219e-01
 -3.3035752e-01
 -7.7486765e-01
  5.7510769e-01
 -2.0584831e-01
  3.9072160e-02
 -3.1589661e-02
  6.9618648e-01
  2.8822009e-02
  5.3088069e-01
 -9.6220955e-02
  6.8528734e-02
 -1.2052162e-01
 -1.0887598e-01
  4.0771976e-01
 -5.0484657e-02
  5.4402590e-01
  2.4729440e-01
  9.1755778e-01
 -8.4035212e-01
 -9.8617978e-02
  4.1997132e-01
  3.1521744e-01
 -6.8810958e-01
  9.7116721e-01
  4.2529786e-01
 -2.0194311e-01
  4.2916276e-02
  4.3885682e-02
  3.2955382e-02
 -2.6562455e-01
 -9.2968392e-01
  5.6855779e-02
  8.7627763e-01
 -1.8312058e-01
  9.3607956e-01
  3.0566525e-01
 -2.4231663e-01
 -3.5650572e-01
 -1.9874936e-01
  5.6180072e-01
  8.1532604e-01
  2.2204268e-01
  5.1914364e-01
  4.0605062e-01
 -1.1752304e-01
  2.6595774e-01
  2.2361673e-01
  2.9732999e-01
 -7.3438847e-01
 -7.3227197e-02
  6.2903799e-02
  6.8083934e-02
  4.7218002e-02
 -4.6079391e-01
 -2.3257676e-01
  3.1884414e-01
 -4.4164410e-01
 -6.0049803e-03
 -9.0045953e-01
  6.2995046e-02
 -2.5510404e-01
 -6.6019797e-01
 -2.0413208e-01
  8.1961975e-02
  9.1488689e-01
 -3.8825786e-01
 -7.8335500e-01
  1.5020822e-01
 -8.5135147e-02
 -4.6448597e-01
 -3.4935719e-01
  1.1460965e-01
 -2.1301934e-01
 -4.3363088e-01
  5.7210219e-01
  3.1064528e-01
 -2.1575565e-02
 -2.2896494e-01
  5.4087663e-01
 -4.7064090e-01
 -3.6758777e-01
  5.2176750e-01
 -1.1868770e-01
  4.5374906e-01
 -2.7988842e-01
  3.7694776e-01
 -1.9351846e-02
  7.0242815e-02
 -3.7301734e-01
 -2.6964802e-01
 -4.8344868e-01
 -5.8003340e-02
  2.5688577e-01
  1.1646269e-01
  1.4261305e-01
  6.0582721e-01
  1.3844511e-01
 -4.4709998e-01
  5.5407584e-01
 -4.2488536e-01
 -2.7291971e-01
  4.0346894e-01
 -1.4987975e-01
  4.5589048e-01
  9.2808664e-02
  5.1782382e-01
 -6.7627734e-01
  4.8262095e-01
  9.6935976e-01
  2.2178841e-01
  4.6064010e-01
 -1.7785797e-01
 -2.4259116e-01
  1.0415630e-01
 -3.6652306e-01
  3.4803540e-02
 -7.6342367e-02
  5.4124717e-02
  2.9672271e-01
  5.7919997e-01
  1.2503722e-01
  3.2954472e-01
 -2.2738692e-01
  4.7014570e-01
 -1.6429347e-01
  1.8288732e-01
 -2.3184994e-01
 -2.3054773e-01
  1.4762050e-01
  4.3681765e-01
 -4.2503339e-01
 -6.3947782e-02
  2.7893102e-01
 -5.5277383e-01
 -8.3712918e-01
  6.5854144e-01
  2.0279449e-01
  1.0987028e-01
  3.5776895e-01
 -6.2793273e-01
  7.8115219e-01
 -7.8241915e-01
 -3.1552473e-01
  3.0560449e-01
  4.8737669e-01
  1.2381064e+00
  4.6099472e-01
  1.5824306e-01
  9.9988006e-02
  7.2696710e-01
 -8.4369338e-01
 -4.5501765e-02
 -3.3788583e-01
 -2.4465674e-01
  2.1412824e-01
  1.4806123e-01
  5.6987232e-01
  8.5665882e-02
 -7.0967123e-02
 -3.9291748e-01
 -4.5916343e-01
  3.0262595e-01
  5.1267892e-02
 -7.6682605e-02
  1.1794459e-01
 -1.3544667e-01
 -7.9574898e-02
  8.9534767e-02
 -5.0928855e-01
  5.9336364e-01
 -1.2029894e-01
 -6.9393486e-02
  8.4686287e-02
 -6.2940496e-01
 -1.1739959e-01
  1.1928496e-01
  1.1364729e+00
 -9.1221124e-01
  1.1620606e-01
 -2.4516006e-01
  3.7091434e-01
 -6.4058995e-01
 -7.5331974e-01
  5.0996494e-01
