nep4 2 Li Cl 
cutoff 8 4 146 18
n_max 4 4
basis_size 8 8
l_max 4 2 0
ANN 30 0
 -5.8996910e-01
  6.9225580e-01
 -1.1707115e+00
 -6.5896705e-02
  6.2350112e-01
  6.7333400e-02
  2.8329492e-01
 -1.8633550e-01
 -3.6144653e-01
  2.4102809e-01
  8.4715742e-01
  1.3265455e-01
 -1.0251725e+00
 -9.6033156e-01
 -3.1125048e-01
 -5.5392194e-01
 -1.1538708e+00
 -7.0370638e-01
  8.9745969e-01
  1.2037617e+00
  8.0691111e-01
  1.3314947e+00
 -6.5087801e-01
 -1.1448246e+00
  4.3257996e-01
 -4.7749639e-01
 -5.2494645e-01
 -6.4647508e-01
  4.4750726e-01
  4.3603304e-01
 -1.2001541e+00
 -8.0796528e-01
 -2.0377864e-01
  1.1589507e-01
 -2.9038915e-01
 -2.5259465e-01
 -1.0454875e+00
  3.0780557e-01
 -1.8964221e-01
  1.5355632e-01
 -5.6844145e-01
 -1.1495933e-01
  7.5976330e-01
 -5.2067834e-01
 -1.1679625e-01
  4.2251749e-03
 -1.0451587e+00
 -6.7713600e-01
 -6.8571407e-01
  1.8402223e-01
 -5.2706546e-01
 -5.3617887e-02
  1.8278684e-01
 -2.5504692e-02
 -4.7142547e-01
 -4.1700825e-01
 -7.8699213e-01
 -1.4127277e-01
  9.1862595e-01
  2.5483358e-01
 -1.3752912e+00
 -2.2527207e-01
 -7.9106230e-01
  2.9102188e-01
  1.5659787e-01
 -1.3301477e+00
  1.2385266e-01
 -3.8004148e-01
 -2.8347266e-01
 -6.7042089e-01
 -8.9222109e-01
 -8.1097478e-01
  1.0087354e+00
 -1.0792369e+00
 -2.6708776e-01
 -9.6947908e-01
  1.0507364e+00
  2.9020688e-01
  4.8449850e-01
 -3.5188559e-01
 -4.1023770e-01
  1.2766571e-01
 -1.0279902e+00
  3.9731506e-02
 -3.7552565e-02
 -2.6613602e-01
 -1.0397631e+00
  2.6797408e-01
  3.7946808e-01
 -5.6204355e-01
 -5.0232148e-01
 -3.7411600e-01
 -8.5800958e-01
 -5.3164250e-01
  5.7623483e-02
  4.0786573e-01
 -5.6416965e-01
  8.4390604e-01
 -1.5097992e-01
 -1.2713689e-01
 -6.9724780e-01
  1.9796652e-01
 -4.0743092e-01
  2.0865275e-01
 -8.9876211e-01
  1.2742884e-01
  1.0442185e-01
 -6.6998237e-01
  6.6182423e-01
  3.0564460e-01
  2.6007220e-01
 -3.7924144e-01
  3.6193448e-01
  3.7527001e-01
  7.6382178e-01
 -7.3413634e-01
 -1.2774962e+00
 -8.6514056e-01
  2.9670084e-01
  1.2376529e-02
  5.2556127e-01
 -7.7666849e-02
  6.4779139e-01
 -4.1151026e-01
  1.1674480e+00
 -3.1683019e-01
  2.6159844e-01
 -8.1688970e-01
  2.6007551e-01
  4.6981952e-01
 -1.2774715e-01
 -5.9192759e-01
 -7.2250444e-01
 -3.5896522e-01
  6.9754148e-01
 -2.3736997e-01
 -5.4531348e-01
  6.5237808e-01
  5.4301137e-01
  1.0386071e+00
  5.5731064e-01
  1.6275595e-01
 -7.1486014e-01
 -5.5714887e-01
  5.1454842e-01
 -5.5220032e-01
 -7.3859555e-01
  1.2240955e+00
  5.6723863e-01
 -4.0148187e-01
 -2.5747710e-01
  9.4331330e-01
  8.5655737e-01
  1.6608134e-01
  2.7255145e-01
  3.0596998e-01
  3.6378232e-01
 -2.8316125e-01
 -1.3540649e-01
  2.6413903e-01
 -1.5193862e-01
 -9.1913092e-01
 -5.1113534e-01
 -9.8658822e-02
  8.6889476e-01
  6.1669284e-01
 -7.8583562e-01
 -7.5629815e-02
  3.0201268e-01
  2.2247712e-01
 -8.8539559e-01
  5.3361791e-01
  2.4863826e-01
  7.3082894e-01
  7.8355557e-01
  8.5433781e-01
 -1.1438453e-01
  1.3337350e-02
 -8.2707502e-02
 -8.5808212e-01
 -6.1331153e-01
 -3.5077035e-01
 -5.8744109e-01
 -3.8551825e-01
 -7.4398637e-01
 -1.0741006e-01
  1.7093723e-01
 -1.3869781e+00
 -1.0800858e+00
 -1.3178428e-01
  1.5710729e-01
 -8.4497243e-01
 -7.4048299e-01
  1.2517071e-01
 -1.0427423e+00
  9.6728212e-01
 -5.4728103e-01
  2.4816748e-01
 -5.8242795e-03
 -3.4508818e-01
 -8.3813065e-01
  3.3159319e-01
 -3.2400131e-01
 -8.9559132e-01
  2.7276862e-01
  6.9703452e-02
 -9.4376987e-01
 -9.3065476e-01
  3.9463302e-01
 -5.3910601e-01
  8.1095085e-02
 -4.2771718e-01
  1.2068597e+00
  4.2431924e-01
  5.2410072e-01
 -8.0738479e-01
  1.9383533e-02
 -5.2723670e-01
  6.6313177e-01
 -4.5563316e-01
  5.1868796e-01
  5.9401739e-01
 -3.2152852e-01
  1.4356586e-01
  2.1073268e-01
 -5.2155906e-01
  9.7914696e-01
  8.1175172e-01
  8.0265659e-01
 -7.9895377e-01
 -5.6972682e-01
  2.7711424e-01
  3.2536927e-01
 -1.4718160e-01
  3.2113710e-01
 -2.6569620e-01
 -2.8766516e-01
 -1.0608726e-01
  1.1410432e+00
 -7.5545299e-01
 -1.5700458e-01
  4.0788805e-01
  7.1823251e-01
 -2.1688862e-01
 -5.1999968e-01
 -5.6815244e-02
  5.3340048e-01
  3.7751612e-01
 -6.3879561e-01
  2.0334014e-01
 -8.3435017e-01
  6.4999685e-02
 -3.7953722e-01
 -6.3467413e-01
 -3.1515282e-01
  4.5452952e-01
 -6.0188138e-01
 -8.5540004e-02
  9.6668534e-02
  3.2537121e-01
 -6.4621598e-01
  4.4872662e-01
  1.6507465e-02
  1.9753809e-01
  5.8121592e-01
  3.1097567e-01
  7.3946990e-02
 -7.7868676e-01
  1.1885934e-01
 -1.2439890e-01
  3.5059863e-01
  1.2741951e+00
  4.6956219e-02
  1.0692451e+00
  1.9587041e-01
  3.2555091e-01
  4.9082270e-01
 -1.5248105e-01
  3.3483735e-01
 -8.3144271e-01
  4.2564386e-01
 -5.5973446e-01
  8.6422510e-02
 -5.9383273e-01
  4.1267556e-01
 -9.3468153e-01
  1.1172585e-02
  5.4796344e-01
 -1.2242585e-01
 -5.3622270e-01
  2.5259364e-02
  6.0591406e-01
  9.2456955e-01
 -5.3911000e-01
  6.7009324e-01
  2.5485453e-01
 -4.9434349e-01
  2.7682859e-01
 -1.1160842e-01
 -6.3390471e-02
 -5.2344310e-01
 -2.7063212e-01
  1.1224520e+00
 -3.6260298e-01
 -2.0467676e-01
 -6.4749461e-01
 -2.5424293e-01
  1.9050936e-01
 -1.3865061e+00
 -1.3833701e-02
 -2.2860520e-01
  4.0540764e-01
 -7.4521579e-02
  9.5275539e-01
 -8.5897803e-01
  8.0341036e-03
 -7.4537015e-01
 -5.8398330e-01
 -3.8086620e-01
 -6.6078120e-01
  6.0430837e-01
  3.4724995e-01
 -6.0356146e-01
 -1.1325471e+00
  7.8119403e-01
  8.5218027e-02
  4.4220427e-01
  1.3935038e-01
 -1.2414889e-01
  6.8965679e-01
 -1.8876591e-01
 -3.7156612e-01
 -8.9128792e-01
  1.2138297e-01
  6.0235202e-01
  4.8376092e-01
  1.4039000e+00
  1.1487568e-01
  6.3553619e-01
 -6.2900591e-01
  4.2978096e-01
 -2.6142043e-01
 -1.3810779e-01
 -3.5129255e-01
 -6.3150358e-01
  4.1492973e-02
  5.0267088e-01
 -9.9177378e-01
 -8.1983548e-01
  4.9864718e-01
 -6.2497222e-01
 -8.0469579e-01
  2.8811714e-01
  8.3517361e-01
  1.6054094e-02
  3.3019322e-01
  9.4910234e-02
 -6.4469498e-01
 -1.4271134e-01
  5.0854415e-01
 -4.9780238e-01
 -9.3671657e-02
 -1.1970528e+00
 -4.1078317e-01
  8.0811471e-01
  2.6654634e-01
  1.3629068e-02
  1.9310646e-01
 -3.6619580e-01
  6.5318781e-01
  1.1224549e+00
 -9.2663549e-02
 -4.7127306e-01
 -9.6634889e-01
  1.2474942e+00
  6.6209346e-01
 -2.2197904e-01
  2.9667255e-01
  5.4594260e-01
  1.7935030e-01
 -3.5906926e-01
  8.4403938e-01
 -2.6687750e-01
 -1.6978721e-01
 -1.1007551e-01
 -1.0650723e+00
  5.1280111e-01
  5.5700868e-01
 -1.8348509e-01
 -7.0993954e-01
  1.5288496e-01
  7.1195412e-01
  2.0596991e-01
 -3.3931434e-01
  6.8276584e-01
 -7.0002162e-01
 -7.5890593e-02
  6.4581573e-01
  6.2289727e-01
  2.1904460e-01
  6.6925347e-01
  2.8469506e-01
  3.0400753e-01
 -9.4670951e-01
 -1.8301805e-02
  6.3815266e-01
 -3.3050278e-01
 -1.7218997e-01
  4.5223843e-02
  3.8326120e-01
 -6.0561848e-01
  6.5562479e-02
 -7.5508580e-02
  5.7480758e-01
 -2.8731346e-01
 -6.5923893e-01
  1.2340657e-01
  2.6002469e-02
 -6.6330135e-01
  6.2817466e-01
  7.8707457e-01
 -1.9974169e-01
 -1.1509563e+00
  9.8430675e-01
  7.7611840e-01
 -2.7186805e-01
 -5.1731580e-01
 -8.0191880e-01
  9.4676062e-02
  3.0612546e-01
  6.6368294e-01
  1.8094929e-01
 -8.0490208e-01
 -7.3382539e-01
  8.7625617e-01
 -2.0035306e-01
  7.6146930e-01
 -1.0993619e+00
  1.0532941e-01
 -2.5727227e-01
 -8.9535707e-01
 -8.2041222e-01
 -3.9291987e-01
  8.3378851e-01
 -1.1580170e+00
  4.2857084e-01
  1.9352941e-01
  1.9306120e-03
 -4.9472988e-02
 -3.3724570e-01
  5.5156440e-01
  1.3597032e-01
  5.4685289e-01
  7.7056551e-01
  6.4049155e-01
  5.1307380e-01
  8.3161777e-01
  2.5869381e-01
 -5.0439608e-01
  5.9223157e-01
  4.1325831e-01
  1.0958631e+00
  6.8204218e-01
 -3.8754873e-02
 -2.1920149e-01
 -4.6656486e-01
  5.4054993e-01
 -1.7983028e-01
  1.4596865e-01
 -6.1738777e-01
  6.2662572e-01
  5.7876611e-01
 -1.0530468e+00
  6.5906870e-01
  9.6235675e-01
 -1.7950685e-01
 -5.9374553e-01
  1.7852589e-01
 -3.7159586e-01
  2.5737265e-01
 -7.9002865e-02
 -4.2942435e-01
 -9.8116010e-01
  4.0129077e-01
 -8.9348143e-01
 -8.6956882e-01
  2.5489822e-01
 -5.2031291e-01
 -2.4332689e-01
 -2.6642659e-01
 -6.6056162e-02
  3.3195859e-01
  1.3310815e-01
  6.6012543e-01
  9.4836026e-01
  1.3370603e-01
 -2.4662900e-01
 -1.6032977e-01
  2.8128079e-01
  5.9532799e-02
 -9.1604185e-01
 -4.1700107e-01
  6.5650362e-01
  1.3187706e-02
 -6.8207335e-01
 -1.2549934e-01
 -8.6943483e-01
  5.8083403e-01
  1.0093082e-01
 -8.8119215e-01
  4.1294795e-01
 -1.1808616e+00
 -6.9972590e-02
  5.1966742e-02
 -1.1007320e+00
 -8.9284664e-01
 -3.1739005e-01
  1.1159662e+00
 -4.4064167e-01
 -3.8588303e-01
 -1.2399476e-01
  4.9375585e-01
  1.7284651e-01
 -1.1516712e-01
  8.1658328e-01
 -8.2275605e-01
  1.1841313e+00
 -9.8950714e-01
 -2.0578884e-01
  7.0530653e-01
 -7.4480221e-02
 -3.2510650e-01
 -9.5212317e-01
  4.2259073e-01
  8.4401530e-01
  5.3815801e-02
  1.0236793e+00
  8.0326468e-01
  6.8537152e-01
 -8.6993176e-01
 -7.7532613e-01
 -7.4093944e-01
  1.3756020e-01
 -1.1014866e+00
  6.9713846e-02
 -8.4517395e-01
 -1.2431764e-01
 -1.3615288e-01
 -1.1883302e+00
  6.2725461e-01
  3.2139492e-01
 -5.3231508e-01
  7.6456213e-01
 -5.6163335e-01
 -9.1862135e-02
  2.3280926e-01
  9.3038291e-01
 -3.5713753e-01
  3.4119405e-02
  6.9204319e-01
 -8.5752457e-01
 -3.5926455e-01
  1.3551970e-01
  1.0722209e+00
 -9.2826799e-02
 -7.4137557e-01
 -6.5477222e-01
 -6.6038802e-02
  1.1980577e+00
 -6.0205704e-01
  2.5449607e-01
 -1.1867659e+00
  2.3268692e-01
  9.6240990e-02
 -1.2721163e+00
 -1.0862980e+00
 -7.2176796e-01
  5.0139731e-01
  1.3759611e+00
  1.7767577e-01
 -1.3215995e+00
 -8.6645824e-01
  5.4615498e-01
  1.0373145e+00
  6.3226628e-01
 -8.0764037e-01
 -5.1020596e-02
  3.7987715e-01
 -3.8348129e-01
 -5.2006865e-01
  8.6984432e-01
  4.1822949e-01
 -1.0882819e+00
 -7.7110156e-02
 -7.3044670e-01
 -5.9619063e-01
  1.1442842e+00
  3.9341557e-01
  4.8651537e-01
 -1.1487221e+00
  1.0075126e+00
  6.0176551e-01
 -3.1526425e-01
 -1.0373415e+00
  9.0944928e-01
  3.8617587e-01
 -4.7219250e-01
  7.1819848e-01
  1.0087292e+00
 -2.3681028e-01
 -3.3543137e-01
 -9.7650182e-01
 -5.4611322e-02
  1.3986791e+00
  5.0553340e-01
  1.7931446e-01
 -1.2396181e+00
  1.1387115e+00
 -3.7604937e-01
 -7.7989721e-01
  3.0294237e-01
 -4.4420728e-01
 -1.3040100e+00
 -6.3922822e-01
 -5.4168075e-01
 -3.5819679e-01
 -4.3175071e-01
 -4.7893235e-01
 -7.5237668e-01
 -7.1754701e-02
 -5.9496033e-01
  1.0013621e-01
 -9.3466598e-01
  3.3659532e-04
 -1.1807038e+00
  8.7829113e-01
 -5.7607882e-02
  6.1485869e-01
 -4.7855884e-01
  7.5815630e-01
 -1.9400056e-01
  2.5565568e-01
 -4.4888526e-01
 -3.4626752e-01
  7.7861941e-01
 -7.9058003e-01
  4.8433131e-01
  3.7527338e-02
  2.6633215e-01
  1.0833292e+00
 -2.7703369e-01
  5.2460867e-01
 -7.3971999e-01
  5.6751347e-01
  3.7030300e-01
 -3.6097720e-01
  7.4043691e-02
 -3.3671799e-01
 -8.8011670e-01
  5.3293325e-02
 -3.0925119e-01
 -2.9379126e-01
 -8.1327820e-01
  2.8354672e-01
 -4.5351163e-02
 -3.3352229e-01
  4.4308084e-01
  2.5372806e-01
  7.3291712e-02
 -2.2842887e-01
  1.0572031e+00
 -1.1035298e+00
 -3.3495140e-01
 -6.3190210e-01
 -3.0065447e-01
 -6.5319508e-01
 -4.5076662e-01
  7.5386417e-01
  8.9396489e-01
  4.6498291e-02
 -3.0322254e-01
 -4.0743181e-01
  1.2546764e-01
  1.1063734e-01
  1.5884990e-01
 -5.9649462e-01
 -2.9554427e-01
 -9.9135315e-01
 -4.9002203e-01
  9.0970099e-02
 -1.0661250e+00
 -3.7809644e-02
  9.3597305e-01
  1.2109296e+00
 -2.1522059e-01
  5.8966559e-01
  7.4557745e-01
  6.4090073e-01
 -5.0557160e-01
 -3.1218696e-01
 -5.1609492e-01
  3.1011719e-01
 -7.7522248e-01
 -9.3824047e-01
 -3.8133463e-01
 -4.5740914e-01
  5.6802982e-01
 -2.4218257e-01
 -4.5895022e-01
  4.7477129e-01
  5.5564189e-01
 -1.0107570e+00
 -5.2006876e-01
 -3.2930237e-01
  1.0043817e-01
  1.9662939e-01
 -9.0227395e-01
 -4.0119246e-02
 -2.8924882e-01
  5.1199210e-01
  3.1484362e-01
 -3.2609606e-01
  1.1526333e+00
 -4.3374440e-01
 -6.0955501e-01
  1.4673485e-01
 -4.2093801e-01
 -3.1166613e-01
 -4.5625138e-01
 -1.5964815e-01
  9.9642217e-01
  6.3685298e-01
 -2.1433331e-01
  9.0856898e-01
  6.5379912e-01
  5.6225950e-01
 -6.6114265e-01
  6.6375911e-01
 -8.2660043e-01
 -4.6158525e-01
 -3.6725035e-01
  2.8572556e-01
 -2.0286694e-01
 -9.7832781e-01
 -9.2341816e-01
 -8.5690749e-01
  4.7018117e-01
 -5.3511697e-01
  8.1604952e-01
  2.1973845e-01
  2.7501160e-01
  3.8264811e-01
  4.5415640e-01
  3.2112020e-01
 -9.4515097e-01
 -2.9703504e-01
  5.6308150e-01
  7.9513758e-01
  7.0935324e-02
 -1.1314185e+00
  7.9212379e-01
 -3.9467314e-01
  1.0281634e-01
  8.8500306e-03
 -2.5557980e-01
 -8.0794072e-01
 -3.2667893e-01
  1.1468095e+00
 -2.7489656e-01
 -1.0799247e+00
 -7.7413315e-01
 -8.1455326e-01
 -1.9744548e-01
 -5.5991080e-02
  6.1776769e-01
 -8.5232323e-01
  3.4308875e-01
  8.9231646e-01
  5.6643820e-01
  6.5072989e-01
 -2.9649335e-01
 -9.9643505e-01
 -2.1068172e-01
 -1.6324192e-01
  1.4409870e-01
  4.8576254e-01
 -3.7645084e-01
  8.9510775e-01
  2.2682855e-01
 -4.5443559e-01
  7.6473707e-01
 -7.8296101e-01
 -2.5619227e-01
 -5.9740895e-01
  1.9676958e-01
  4.0776587e-01
 -6.0505611e-01
  1.1619978e+00
 -5.4834348e-01
  4.5068911e-01
 -1.2789941e-01
 -8.9329427e-01
  1.0161595e+00
  1.0739715e+00
  7.9551405e-01
 -8.5067332e-01
  2.9420486e-01
 -2.3133831e-01
 -1.0882154e+00
 -6.8734896e-01
 -8.5544300e-01
  5.4396790e-01
  6.2214839e-01
 -5.2461702e-01
  1.8724018e-01
 -2.8724787e-01
 -2.9615727e-01
 -4.6025920e-01
 -8.1994683e-01
 -3.0866674e-01
 -3.4505841e-01
  7.1248174e-01
  2.5529855e-01
  6.3410199e-01
  2.9268301e-01
 -6.4635456e-01
  5.3546312e-03
  7.6097602e-01
  9.0786111e-01
 -9.4749528e-01
 -1.0655893e-01
 -3.6800284e-02
  9.3794602e-01
 -6.3977951e-01
  7.0493329e-01
 -4.4190517e-01
 -4.8869199e-01
  3.8851649e-01
 -3.4428903e-01
 -3.9984730e-01
  6.2258112e-01
  5.7650030e-01
 -9.0887004e-01
 -5.9653509e-01
 -2.4199715e-01
  7.3051417e-01
  2.3423104e-01
 -1.4936070e-01
 -4.0665176e-02
  2.4390510e-01
 -6.1365139e-01
  7.4457794e-01
 -1.3446230e-01
  1.6110510e-01
 -1.8588910e-01
  8.4283018e-01
  8.5302520e-01
 -6.1224312e-01
 -3.1715715e-01
 -5.0863224e-01
 -2.2562355e-01
  7.1614683e-01
 -8.7752885e-01
  4.5484030e-01
 -6.6498655e-01
 -4.6162152e-01
  3.2611411e-02
  4.3635541e-01
  6.2726390e-01
 -3.0803606e-01
  1.2677075e-01
 -1.0316037e+00
 -6.7347789e-01
 -3.3017254e-01
 -2.5695542e-01
  6.1702120e-01
 -9.1178119e-02
  8.1196809e-01
  3.6862686e-01
 -4.9951542e-02
 -9.7991222e-01
  9.7275652e-02
 -5.9576505e-01
  6.5230501e-01
 -5.9223562e-03
  4.5979086e-01
  1.6029887e-01
  6.8219292e-01
 -1.1998849e+00
  7.9411864e-01
 -4.1281554e-01
 -4.7606683e-01
  5.4294151e-01
 -3.1779394e-01
 -1.0533212e+00
 -5.7508953e-02
  8.4401405e-01
 -9.7543091e-01
  1.1979413e+00
  5.8323860e-01
 -4.3348555e-02
  9.6856278e-01
  7.9651272e-01
  5.3025275e-01
  6.0935086e-01
 -6.9250411e-01
  6.7726374e-01
  4.7014073e-01
 -8.6878878e-01
 -1.7265823e-01
 -8.0702239e-01
 -6.0127801e-01
 -8.9355439e-01
 -7.8048873e-01
 -1.6905087e-01
 -7.1454555e-01
 -2.3390508e-01
  7.0565641e-01
  8.4520012e-01
  3.3273908e-01
  4.3743688e-01
 -3.6243087e-01
  2.9088439e-02
  2.5501969e-01
 -4.2831501e-01
 -7.2473496e-01
  8.6249274e-01
  1.3656904e-02
 -4.0884674e-01
  7.1698958e-01
  9.2404622e-01
 -3.1453291e-01
  6.4363170e-01
 -6.3465393e-01
 -3.3613116e-01
  1.0329086e+00
  5.0841129e-01
 -8.3698136e-01
  8.8022864e-01
  4.0608436e-01
  3.6664999e-01
  5.1601883e-02
  9.4722331e-02
 -1.0667284e-01
 -1.1769139e-01
  1.1174433e+00
 -4.1596612e-01
  1.5246972e-01
 -3.7780622e-01
  3.9185412e-02
 -3.9959574e-01
 -2.4120395e-01
  5.0927454e-01
  8.6796004e-01
  9.1793710e-01
 -1.0562237e-01
 -4.3204255e-02
  5.5329781e-02
  4.5527953e-01
  9.1354084e-01
 -1.2783274e-01
 -3.1546104e-01
  1.3899133e-01
 -7.4826129e-02
  5.1769441e-01
  2.6096776e-01
  3.1422967e-01
 -3.0356008e-01
 -5.3403056e-01
 -3.3600014e-01
 -3.1586477e-01
 -1.2418173e-01
 -7.1177125e-02
  7.5351399e-01
  8.1067789e-01
  1.8571423e-01
 -4.8397973e-01
 -7.0495154e-03
  8.4781897e-01
  7.0778109e-02
 -3.5280529e-01
  1.1518905e+00
  7.2097981e-01
  8.1747615e-01
  1.1014936e+00
  6.9891816e-01
  4.4750941e-01
  1.0010575e+00
  8.5392076e-01
  3.7861553e-01
 -6.9015330e-01
  9.7348911e-01
  1.0219488e-01
 -3.2554266e-01
  4.4732693e-01
 -5.4311776e-01
 -2.8539750e-01
  5.7275152e-01
 -4.2233363e-01
  9.8752332e-01
  5.6962234e-01
  8.1215143e-01
  3.9331165e-01
  3.5319185e-01
  1.2260650e-01
 -4.3722263e-01
 -9.5881087e-01
  2.0866972e-01
  7.3816574e-01
 -6.1536813e-01
  1.2166957e+00
  2.0935220e-01
  7.0053560e-01
 -7.1419531e-01
  3.3422071e-01
  4.1062126e-01
 -6.7960668e-01
 -1.1048118e-01
 -3.3569562e-01
  1.2732277e+00
  4.7032142e-01
  1.0976751e+00
  2.8762057e-01
  2.3049368e-01
 -1.8995391e-01
 -6.7402780e-01
  6.1418623e-01
 -2.9133201e-01
 -7.9531394e-02
  8.7849653e-01
 -2.4328580e-01
 -1.0936534e+00
 -7.5544721e-01
  4.0900412e-01
  5.4386795e-01
  3.3018747e-01
 -5.8274728e-01
 -3.2466042e-01
 -1.1541415e-01
  2.8307170e-01
 -5.3150326e-01
 -6.7608207e-02
  5.5049336e-01
  7.9661918e-01
  3.1221959e-01
  4.0192928e-02
 -5.5944884e-01
 -6.6777736e-02
 -8.2062766e-02
  7.0006408e-02
  1.9796924e-01
 -2.0161334e-01
  2.8336048e-01
  1.4615583e-02
 -2.8518119e-01
 -3.7357813e-01
  2.4618343e-01
 -1.0144531e+00
  1.3067640e-02
  5.5036064e-02
  2.7697420e-01
 -9.7156239e-01
  3.0705214e-02
 -9.4554049e-01
 -7.0321709e-01
 -1.0205878e+00
 -9.3817949e-01
  8.2849491e-01
 -8.2706219e-01
 -2.2106734e-01
 -5.8588558e-01
  8.6843699e-01
  5.8439940e-01
  2.0349674e-01
  7.3615357e-02
 -6.4757556e-02
 -4.3767625e-01
 -2.5580916e-01
  1.1408116e+00
 -7.9154211e-01
 -3.7037054e-01
 -7.2646014e-02
 -3.5731301e-01
 -8.7499428e-01
 -6.9527930e-01
 -1.0141639e-01
 -3.5713263e-02
  6.2709764e-02
 -2.9885441e-01
 -8.9479351e-01
  1.2273084e+00
 -2.7858403e-01
  5.9902573e-01
 -9.6422833e-01
  5.6291008e-01
  3.5577339e-01
  5.4775381e-01
  1.5036571e-01
 -5.8024496e-01
 -8.6399984e-01
  3.4402853e-01
 -6.0458428e-01
 -4.3608147e-01
 -5.5130172e-01
 -4.4064552e-01
  1.0717628e+00
 -4.7725677e-02
 -8.0369949e-01
 -2.0721614e-02
 -1.2989661e-01
 -8.9028794e-01
  4.9639323e-01
 -6.1562631e-02
  3.2011151e-01
  8.7221760e-01
 -5.6624585e-01
  2.4925332e-01
 -4.5794556e-01
  1.2566593e-01
  3.1398740e-02
  9.0419775e-01
 -2.1933444e-01
  8.0443799e-02
  7.2243339e-01
 -1.0272142e+00
  5.1158339e-01
 -1.7151253e-01
  4.4818249e-01
 -3.6459547e-01
 -2.1032974e-01
  3.2667780e-01
 -3.4622398e-01
  7.2748500e-01
  2.3969352e-01
 -1.1582506e+00
 -1.0411526e+00
  5.9149110e-01
 -7.3073912e-01
 -5.4095566e-01
  1.4389071e-01
  1.0451206e-01
 -5.2373958e-01
  7.1451604e-01
 -4.7696349e-01
  3.8523042e-01
 -7.7359754e-01
 -7.8097332e-01
 -6.9289988e-01
  5.8388823e-01
  5.7506639e-01
  4.0957633e-01
 -4.5168003e-01
 -4.6968419e-02
  1.0199491e-01
 -1.0398129e+00
  5.7142608e-02
 -3.4048003e-01
 -3.1562963e-01
 -2.7901587e-01
  8.9595962e-01
  4.9619350e-01
  3.1779641e-01
 -1.3297700e+00
 -5.6754702e-01
  8.2003433e-01
  7.9202199e-01
 -5.1988202e-01
 -2.7444848e-01
 -9.5533454e-01
  2.1190094e-03
 -1.2191139e+00
 -1.4677894e+00
 -7.2235674e-01
  9.8185503e-01
 -9.6505657e-02
  8.2605278e-01
  9.4036186e-01
  4.6566668e-01
 -1.0440047e+00
  6.9948775e-01
 -4.8821363e-01
 -1.0816377e+00
 -5.7392806e-01
  4.8850960e-04
 -9.3230349e-01
 -1.0747230e+00
 -3.9780822e-01
 -8.0879122e-01
  4.1338989e-01
 -8.6788297e-01
 -1.9769606e-01
 -5.7512116e-01
  5.3277487e-01
  5.0182748e-01
 -2.3191419e-01
  3.9171807e-02
 -8.4982735e-01
  6.6372931e-01
 -5.8331865e-01
 -1.0693904e+00
  1.9478189e-02
 -1.0709271e+00
  1.0088537e+00
  1.7202856e-01
 -7.7446955e-01
  3.6009884e-01
 -1.2987050e-01
  6.4281708e-01
 -3.8846594e-01
 -1.2141443e+00
  4.5273465e-01
  1.3942090e-01
  1.7843300e-01
  1.0522274e+00
  9.1932273e-01
  7.2916794e-01
  8.6597168e-01
  9.6445732e-02
  4.5684388e-01
 -3.9738169e-01
  3.1474337e-01
 -6.8122321e-01
 -1.5127318e-01
 -5.8607852e-01
  5.6110054e-01
 -5.7756573e-01
  9.1437286e-01
 -9.7718909e-02
  3.0478704e-01
  9.7167468e-01
 -1.2838087e+00
  6.6100615e-01
  1.0335782e+00
  2.4102220e-01
  2.8475558e-02
 -3.4145439e-01
 -8.7283574e-02
 -1.0910757e+00
 -9.6633673e-01
  3.6275110e-01
 -5.2409881e-01
  4.3615532e-01
 -6.1080325e-01
  5.4198217e-01
 -1.7892629e-01
 -9.9967521e-01
  6.3938475e-01
  8.1570804e-02
  3.3417515e-02
  7.4289072e-01
  9.2975956e-01
 -5.8751100e-01
  2.6557249e-01
 -8.5841691e-01
  6.4036012e-01
  2.6442856e-01
  3.1750160e-01
  2.6433042e-01
 -2.0284076e-01
  2.8769985e-01
 -5.6823617e-01
 -1.2385437e-01
 -1.3697562e-01
  4.2154184e-03
 -2.4221267e-01
 -6.9284970e-01
 -2.4858487e-01
 -3.9649510e-01
 -6.0875309e-01
  1.3625214e-01
 -7.0484412e-01
  6.2629575e-01
  9.6686208e-01
 -8.8334012e-01
  6.8466514e-01
  1.0227731e+00
  4.3050769e-01
 -4.4445992e-02
 -3.6243897e-02
 -9.6145952e-01
 -1.1447854e+00
  1.0045362e+00
 -2.1839021e-02
  6.7602617e-01
  4.9911427e-01
 -8.5580194e-01
 -9.5966059e-01
  8.6364144e-01
 -4.5322686e-01
  4.4431394e-01
  5.0376022e-01
  9.8440999e-01
  7.3404282e-01
  9.9165149e-02
 -4.5960203e-01
 -7.4066710e-01
  8.0682464e-02
 -1.3393754e+00
 -6.7249995e-01
 -1.1887336e+00
  1.2139725e-01
  3.5363719e-01
 -1.6418022e-01
  8.1706220e-01
 -2.4625561e-01
 -1.3928460e-01
  2.9656532e-01
  6.1549938e-01
 -6.8632796e-02
 -1.0150696e-01
 -5.2356857e-01
  9.0727046e-02
  8.7159425e-01
  2.6932889e-01
  7.6170778e-01
  1.6024682e-01
  6.5429157e-01
  1.0675995e+00
 -2.2682787e-01
  9.1248624e-02
  5.7266080e-01
  1.0033183e+00
 -1.6158895e-01
 -2.9723111e-01
 -3.1483790e-01
 -5.9949499e-01
 -2.6144135e-01
 -6.3546246e-01
  1.2344813e+00
 -5.8356971e-01
  5.4883248e-01
 -8.4350568e-01
 -4.0991449e-01
 -7.5627458e-01
 -1.1097205e-01
  5.8340585e-01
 -5.0003976e-01
  1.6566774e-01
 -8.3424920e-01
  1.0404540e-01
 -3.5949013e-01
 -6.8178004e-01
  5.9784979e-01
 -5.4061097e-01
  6.4759934e-01
 -3.1687605e-01
 -9.5378354e-02
 -2.2148524e-01
 -9.6933174e-01
 -8.3071607e-01
  1.0203818e+00
 -2.2387901e-01
  9.1896188e-01
 -3.7511420e-01
 -4.4262737e-01
  6.2891078e-01
  5.3775626e-01
 -4.1587319e-02
  5.3534985e-01
 -5.1682466e-01
 -7.3190796e-01
 -5.7338709e-01
  7.5167853e-01
  4.9440902e-01
  1.2996325e-01
 -5.0436847e-02
 -1.5226461e-01
 -1.0148878e+00
  3.0259705e-01
  6.1897540e-01
  1.0931464e+00
 -9.8271167e-01
 -1.1558777e+00
 -8.2115787e-01
  4.9095735e-01
 -1.0976639e+00
 -7.7585685e-01
  5.1400477e-01
 -5.8616561e-01
  5.6859827e-01
  5.3549862e-01
  1.2563521e+00
 -3.5456836e-01
 -6.5658879e-01
 -6.8407917e-01
  5.2254647e-01
 -4.2788854e-01
  9.7078109e-01
 -7.7253926e-01
  8.7210327e-01
 -1.8599716e-01
  1.1921704e+00
 -1.1309601e-01
  7.1206197e-02
  7.3894525e-01
  5.8433241e-01
 -1.1526346e+00
  5.6109703e-01
  3.1896001e-01
  5.0719005e-01
 -5.1363111e-01
 -3.3786613e-02
 -7.9596043e-01
  4.5502469e-01
 -8.5221165e-01
  1.0496908e+00
  4.6379086e-01
 -4.5080572e-01
 -9.2091447e-01
  1.0942498e+00
 -4.5504335e-01
 -7.4132013e-01
  7.8956820e-02
  2.3480436e-01
  5.2538055e-01
  5.8540332e-01
 -5.1230413e-01
  6.3599199e-01
 -4.2258325e-01
 -8.8036329e-01
  9.9171706e-02
  6.4835823e-01
  6.9608295e-01
  9.2601493e-02
 -5.9508437e-01
  6.4948708e-01
 -4.5815203e-01
 -3.6451447e-01
  7.6061434e-01
  2.1560010e-01
 -6.4362669e-01
 -1.8858978e-01
 -4.3690827e-01
  1.2563982e+00
  4.4365528e-01
 -4.7215560e-01
 -2.4483435e-01
 -7.7184153e-01
  1.9755842e-01
  5.3663063e-01
  3.6669290e-01
 -5.5630356e-01
 -1.6305208e-01
 -6.8221217e-01
 -2.1835196e-01
  1.1187204e+00
  7.8666455e-01
  4.6030462e-01
 -4.1795209e-01
 -1.6942504e-01
 -6.6497374e-01
 -5.8220899e-01
  1.0886438e+00
 -4.7049931e-01
 -7.6550353e-01
  4.3068653e-01
  4.0131748e-01
 -7.4630612e-01
  4.6376356e-01
 -2.9635778e-01
  3.9051038e-01
  3.0409142e-01
 -4.9831688e-01
  5.8484681e-02
 -1.1951882e-01
  1.1562170e+00
 -1.0789946e+00
  3.1251732e-01
  3.5970702e-03
 -3.7096357e-01
 -2.4739039e-01
 -4.1961941e-01
  5.6213170e-01
 -3.5524389e-01
 -7.3836786e-01
  8.0762756e-01
  8.3875377e-04
  3.3842376e-01
 -6.2302959e-01
  1.8492125e-01
 -6.2760997e-01
 -1.6627119e-01
 -8.5136861e-01
 -3.9987195e-01
  3.4113869e-01
  1.1912794e+00
  1.0098532e+00
 -1.1669532e+00
  7.4203253e-01
 -6.9768572e-01
  7.4057949e-01
  4.1046134e-01
 -2.5252610e-01
  3.3149198e-01
  1.0736936e-01
  3.5823753e-01
 -6.9669372e-01
 -1.0276084e-01
 -5.7813710e-01
 -1.2600917e+00
 -9.7232515e-01
  1.1923074e-01
 -6.4542341e-01
  2.2831917e-01
  1.9242862e-01
  5.8446294e-01
  5.9870207e-01
 -7.0457405e-01
 -4.1152343e-01
 -3.8389379e-01
 -1.8909173e-01
 -1.2636876e+00
 -7.3728675e-01
  5.6674898e-01
 -6.2869483e-01
 -6.6368866e-01
 -5.6719303e-01
  5.1973321e-02
 -7.7532250e-01
 -6.2626964e-01
  9.8819715e-01
 -1.0196784e+00
  1.9298511e-02
  4.5463091e-01
 -5.5043751e-01
  6.6724795e-01
  7.7354610e-01
  6.4711916e-01
  7.3260552e-01
  4.5755553e-01
 -8.9506470e-02
 -6.8388867e-01
 -7.1402353e-01
 -1.3312417e+00
 -1.3511218e-01
  2.1244073e-01
  8.3482164e-01
 -7.2126722e-01
 -1.2959440e-01
 -9.9008489e-01
  1.1249964e+00
 -2.7152041e-01
  6.5404788e-02
 -1.1147702e-01
  4.1947547e-01
  1.0616829e-01
 -7.3212284e-01
 -4.2464939e-01
 -2.0222458e-01
  6.6938299e-01
  5.2567965e-01
  7.8434318e-01
 -9.8630136e-01
 -3.9264476e-01
  1.7172752e-01
  7.3957674e-02
  4.1225025e-01
  4.0310284e-01
 -6.9077867e-01
 -7.5322294e-01
 -3.6067009e-01
 -7.0875323e-01
 -3.9584544e-01
 -3.7237730e-02
 -1.1476759e+00
 -1.2560767e+00
 -8.2098943e-01
  6.7676216e-01
 -1.1389956e-01
 -5.0678635e-01
 -1.0550104e+00
 -7.7032357e-01
 -8.8742840e-01
  7.6397918e-02
  7.5550640e-01
  1.0779413e+00
 -7.5519139e-01
  1.4440645e+00
 -8.2807559e-01
  8.5232264e-01
  5.1792371e-01
 -6.8775094e-01
  1.2145112e-01
  2.9845205e-01
  1.0691932e+00
  5.6237495e-01
  2.5979742e-02
 -6.8042105e-01
 -3.3440310e-01
  5.7812130e-01
  9.9881977e-01
  4.0686685e-01
 -8.5145026e-01
 -8.6311084e-01
  8.8819909e-01
  1.1955620e-01
  1.0036441e+00
 -2.7841419e-01
 -6.9461030e-01
  4.8160669e-01
 -8.2256085e-01
 -8.9180076e-01
  1.1568618e+00
  5.2497530e-01
 -7.5981891e-01
  5.4869458e-02
 -8.0039728e-01
 -4.3721846e-01
  8.5191649e-01
 -1.0608649e-01
 -6.8856522e-02
 -3.6462169e-02
  1.5579508e-01
 -9.7790688e-01
 -6.9452053e-01
 -9.1176510e-01
  1.5470944e-01
 -1.2527108e-01
  9.3513143e-01
  1.1218949e-01
 -2.6604012e-01
  1.6822910e-01
  4.5668325e-01
  3.9612800e-01
 -8.9316303e-01
 -3.4899122e-01
 -9.9810518e-02
 -5.3247690e-01
 -8.1966802e-02
  2.7782828e-01
  8.1488824e-01
 -4.4351973e-02
  3.7004879e-01
  2.2903647e-01
 -1.5985325e-01
 -2.6908019e-01
  2.8038359e-01
  6.5562457e-01
 -4.5945078e-01
  6.8818277e-01
 -2.8833494e-01
 -3.0056095e-01
 -6.7770794e-02
  1.7451909e-01
  5.9199756e-01
 -7.0154774e-01
  2.4021292e-01
  1.3986936e-01
  6.7213631e-01
  9.9958539e-02
 -8.0421329e-01
 -6.3991714e-01
  1.0850883e-01
  6.0936663e-04
 -7.9999375e-01
  2.2559039e-01
  7.9088616e-01
 -6.1323780e-01
  5.8387643e-01
  3.0410430e-01
  3.3386379e-01
 -1.8591721e-01
 -8.5103683e-02
 -2.4643891e-01
 -1.1818205e+00
  3.3161429e-01
 -4.1601807e-01
 -5.5954051e-01
  3.4969971e-01
  9.2899464e-03
  5.4829489e-02
  5.3373843e-01
 -2.5014039e-02
 -4.4408041e-01
 -2.5421336e-01
 -6.4224827e-01
  8.8855880e-01
 -4.8192456e-01
 -3.9135215e-01
  4.7335866e-01
 -4.6898314e-01
  7.1020257e-01
  3.5374311e-01
 -9.2898613e-01
 -6.7957479e-01
  6.3008243e-01
 -7.6948661e-01
  1.5080437e-01
 -3.0579516e-01
 -5.7553613e-01
  6.3811922e-01
  1.1036922e+00
  1.9833203e-01
  5.3479117e-01
  1.2278571e+00
  7.2359031e-01
  1.2727714e-01
  2.2714531e-01
  6.9612694e-01
 -7.0348984e-01
  9.2638320e-01
 -8.0032653e-01
  7.2778779e-01
 -9.4854914e-02
 -7.6385146e-01
  2.2270218e-02
 -6.8892837e-01
 -1.1818432e+00
  8.1357896e-01
  6.5897036e-01
 -1.2872497e-03
 -5.2365577e-01
  2.5896874e-01
 -5.7035255e-01
 -3.2327554e-01
  4.9170780e-01
  6.7823225e-01
 -5.8984905e-01
  9.4169760e-01
 -1.1053014e+00
  6.2073255e-01
  3.1492195e-01
 -3.4888920e-01
 -8.8256836e-01
  2.8933870e-02
 -6.9842035e-01
 -1.6794042e-01
 -6.4693230e-01
 -1.3783295e-02
 -7.5137675e-02
  1.5073296e-01
  1.5528668e+00
 -4.9441192e-02
 -1.0479778e+00
  4.6380544e-01
  7.4775952e-01
 -1.0292314e+00
 -5.8092359e-02
  5.0423354e-01
 -1.1010413e+00
 -1.7628425e-01
 -2.3550241e-01
  9.2527038e-01
  5.5060756e-01
 -7.2298998e-01
  2.8544438e-01
  4.3480232e-01
 -9.5357990e-01
 -5.0013053e-01
 -8.2465714e-01
  1.0191187e+00
 -4.9787584e-01
 -7.4094957e-01
  6.7644054e-01
  9.6887112e-01
 -3.2732915e-02
 -7.1640766e-01
 -7.8756434e-01
 -1.0966180e-01
 -2.1374531e-01
  1.0524215e+00
  4.9044254e-01
 -9.8150498e-01
  9.0861130e-01
 -3.3751029e-01
 -1.6869435e-02
 -5.9788024e-01
 -4.5377154e-02
 -7.4229592e-01
 -9.6231759e-01
  4.6961761e-01
 -6.7766804e-01
 -1.7739810e-01
 -3.5304207e-01
 -1.0460140e+00
 -9.7325915e-01
 -5.2106041e-01
  1.4016087e-01
 -6.3553917e-01
  8.3540255e-01
  1.1976575e+00
 -7.7075833e-01
  7.6996535e-01
  5.9796274e-02
  8.8878441e-01
  7.6805878e-01
 -2.6417822e-02
  3.0698588e-01
  1.9715656e-01
 -7.6787166e-02
  8.9043552e-01
  2.7091321e-01
  4.0831465e-01
 -4.5753247e-01
  6.0274976e-01
  4.9942628e-02
  2.4762290e-02
 -1.8418828e-01
  6.0567313e-01
 -7.6539874e-01
  3.1828636e-01
 -9.4016045e-02
  2.3681119e-01
 -1.0226374e+00
 -8.7183130e-01
  7.0307478e-03
  6.1922157e-01
  9.8967391e-01
  6.1199188e-01
 -5.1569498e-01
 -4.4783691e-01
 -3.2193020e-01
 -1.1617489e+00
 -8.1657714e-01
 -6.7952663e-01
  8.1830585e-01
 -9.0053397e-01
 -1.0422291e+00
  9.9564904e-01
 -1.0013171e-01
 -3.0902484e-03
  3.2590464e-01
 -2.7500289e-02
 -1.8527779e-01
  5.8589715e-01
 -2.9383442e-01
  1.0232894e+00
  4.3211237e-01
 -5.5246359e-01
 -4.2496863e-01
  5.1773703e-01
 -3.1475961e-01
 -9.1218907e-01
  1.1820241e-01
 -9.4606012e-01
  3.6466607e-01
  1.0137118e+00
 -1.1810912e-02
 -3.9158189e-01
  2.3546430e-01
  1.0403305e-01
 -5.1943213e-01
  3.9477983e-01
  9.7929233e-01
 -8.2378197e-01
 -1.6925676e-01
 -1.8670544e-01
 -5.8928645e-01
  3.1898445e-01
 -1.1692322e+00
  7.6077622e-01
 -9.9193048e-01
 -1.0581274e-01
  2.6234290e-02
 -7.3979163e-01
 -6.2435848e-01
 -8.6503428e-01
  3.6719862e-01
  9.1546285e-01
  8.3328205e-01
  8.1496382e-01
  7.5417951e-02
  1.0894611e+00
 -5.0388134e-01
 -4.9977618e-01
  4.7241190e-01
  4.4214156e-01
  4.3014038e-01
 -9.8351306e-01
  1.3950303e-01
  7.2863662e-01
 -8.9961994e-01
 -5.5834466e-01
 -4.0215485e-02
 -5.4065025e-01
 -4.6038726e-01
 -4.3979222e-01
 -3.4442648e-02
  1.0209094e+00
  1.5200194e+00
  6.4798594e-01
  9.0263277e-01
  4.7384702e-02
  1.0015595e+00
 -2.7897146e-01
 -8.4531182e-01
 -1.0387288e+00
  4.2376766e-01
 -3.8911945e-01
  8.1416953e-01
  4.0129387e-01
  3.3060825e-01
  5.6512725e-01
 -3.2486123e-01
  6.4988118e-01
  4.8745880e-01
  1.3875039e-01
 -8.3451939e-01
  3.7807578e-01
  1.9238907e-01
 -4.9482852e-02
 -2.1647675e-01
  1.4573705e-01
  3.2129073e-01
  5.2131824e-02
  6.8400866e-01
  7.1305031e-01
 -3.1235570e-01
  9.6705818e-01
  3.5503101e-01
  6.6621172e-01
  6.9483829e-01
 -6.9386780e-01
  4.2838424e-01
 -1.0260563e+00
  3.4136131e-01
 -6.2372193e-02
 -3.4834072e-01
  8.2026917e-01
 -8.2603008e-01
  3.8040123e+00
  2.7039954e-01
 -6.2337838e-02
  8.0916941e-01
 -6.0543656e-02
  1.8961239e-01
  3.0802524e-01
 -3.8952443e-01
  5.3191215e-01
  3.2045078e-01
 -2.2165082e-01
 -1.2591479e+00
 -5.3256541e-01
 -6.2302858e-01
 -7.1165890e-01
 -9.5371515e-01
 -4.0169337e-01
  4.5942709e-01
  1.6260183e-01
 -8.6096197e-02
 -3.4218317e-01
 -5.5738610e-01
  9.8923124e-02
  9.3876570e-01
 -6.8226159e-01
 -9.0825188e-01
 -1.1860432e-02
  5.2464372e-01
  4.0875486e-01
  1.6590060e-01
  9.8293237e-02
 -3.1576470e-01
  2.4389881e-01
 -2.6785311e-01
  5.4418010e-01
  6.5535194e-01
 -3.8338101e-01
 -7.3595488e-01
 -6.0796946e-01
 -8.6098582e-01
  6.3628751e-01
 -1.3867287e-01
 -4.3725568e-01
  6.4355284e-02
  9.6467412e-01
 -1.2190051e+00
  5.5386221e-01
  7.8304046e-01
 -8.6480206e-01
  6.9576889e-01
  7.4181652e-01
  1.3320355e-01
 -8.3524369e-02
  1.8543415e-01
  5.5279469e-01
 -1.1375693e-01
  4.0006641e-01
  9.3356979e-01
  5.2073222e-01
 -4.5687699e-01
  6.6319841e-01
  2.6277557e-01
 -4.8993278e-01
  2.1438709e-01
  5.1454115e-01
  1.2549669e+00
 -6.4629562e-02
 -8.0548698e-01
 -6.8844521e-01
 -8.9239019e-01
  9.8651344e-01
  5.2834463e-01
  6.5452105e-01
  5.1224577e-01
  7.5295791e-02
 -6.9188309e-01
  1.2997814e-01
  2.0987742e-01
  6.0413057e-01
 -3.3982763e-01
 -2.7097493e-02
 -1.2608825e-01
  6.1337250e-01
  2.6278788e-01
  4.0276036e-01
  1.2790110e+00
  8.1609398e-01
 -4.0963387e-01
 -4.9912545e-01
  9.2963517e-01
  8.3328599e-01
  7.6772416e-01
 -1.2136037e+00
 -8.0243254e-01
  8.0902517e-01
  5.5799878e-01
 -6.3972217e-01
  1.0672163e+00
  9.4656545e-01
 -9.8721159e-01
  9.3406689e-01
  6.7840642e-01
  4.0406650e-01
  1.2257154e+00
 -1.6609716e-01
  7.7346414e-01
  6.0487741e-01
 -1.4247997e-02
  4.5616522e-02
  6.9015408e-01
  3.6638626e-01
  4.0120240e-02
  2.1078678e-02
 -1.8517193e-01
 -4.0477747e-01
 -5.1021707e-01
 -1.0143985e+00
  1.7154561e-01
 -2.1908666e-01
 -9.8197973e-01
  3.5820093e-02
  9.9227451e-02
 -7.2615087e-01
 -8.6451244e-01
  3.8492891e-01
 -3.3795378e-01
  6.1785728e-01
 -7.2692961e-01
  7.4153531e-01
 -6.1787254e-01
  3.8585535e-01
  1.3216481e-01
 -2.2699060e-01
  1.3974737e+00
  3.0123779e-01
  3.7605840e-01
  1.7515436e-01
  1.0600515e-02
  3.3540681e-01
  3.8992551e-01
 -1.8611187e-01
  6.3231617e-01
 -7.0692068e-01
 -5.9889275e-01
 -3.7596902e-01
  6.7544228e-01
 -2.9579777e-01
  6.6193140e-01
 -6.2150311e-01
  1.0946847e+00
 -1.9899264e-01
 -6.7925155e-01
 -4.7448364e-01
  3.0072975e-01
  3.3784145e-01
 -4.9027991e-01
 -7.6657873e-01
 -8.3041862e-02
 -8.4413177e-01
 -8.9821470e-01
 -2.2288220e-02
  4.3270120e-01
 -6.6390586e-01
 -7.5546700e-01
  1.8827207e-02
  6.0319471e-01
  1.3871570e-01
 -9.9239039e-01
  8.7168288e-01
  2.7007595e-01
  8.8300878e-01
 -6.5656680e-01
 -3.0066618e-01
 -9.5334017e-01
  1.0705569e+00
 -1.1466451e+00
  7.2496533e-02
 -4.6559387e-01
  1.5216850e-01
 -4.3704656e-01
 -1.6360915e-01
  6.7571297e-02
 -8.2864203e-02
  1.7650667e-01
 -3.5928268e-02
  3.3720031e-01
 -5.7713938e-01
  4.2785082e-02
 -5.1594770e-01
  4.0042940e-01
 -1.4963664e-01
  2.0725502e-01
  5.6214362e-01
 -6.3433659e-01
  1.3320929e-01
 -3.8590294e-01
 -5.4908264e-02
 -5.2171999e-01
 -2.1827964e-01
 -5.7858557e-01
 -4.9142450e-01
 -5.1509041e-01
 -2.4563216e-01
 -6.1162400e-01
  6.0699290e-01
 -9.3565774e-01
  9.8833688e-02
 -1.3628068e-02
 -1.0466279e+00
  9.2874932e-01
 -3.2460141e-01
  6.0549873e-01
 -2.9286843e-02
  9.7712445e-01
  5.2828968e-01
  5.5750012e-01
 -8.9836651e-01
  6.0913080e-01
 -9.8756552e-01
  6.1504388e-01
 -1.2940618e-01
  2.8204608e-01
  8.1602074e-02
 -5.3030556e-01
 -8.1917636e-02
 -9.3770128e-01
  1.5513709e-01
 -5.5342644e-01
  6.4913243e-01
  2.9039684e-01
 -1.3632939e+00
 -1.3247946e-01
  6.4984471e-01
 -6.2660199e-01
 -8.1444241e-02
  1.0425103e-01
 -2.7702345e-02
 -5.4767467e-02
 -6.6295469e-01
 -3.1186095e-01
  5.5370361e-01
  3.6735658e-02
  7.6391947e-01
 -8.5280687e-01
  1.1998997e-01
  6.8795180e-01
  8.0481544e-02
 -6.7965412e-01
 -1.2749661e+00
 -3.9486298e-01
  4.5171738e-01
  6.0573626e-01
  4.4392642e-01
 -4.4871356e-02
 -4.4124119e-02
 -6.3822496e-01
  9.1019839e-02
 -3.7640837e-01
  8.2425499e-01
 -2.6777094e-02
 -5.7807571e-01
  3.8851178e-01
 -1.2960458e-01
  3.7293851e-01
 -5.2098143e-01
 -2.0509215e-01
 -5.9173709e-01
  1.3396878e+00
 -1.6067205e-01
 -6.9692266e-01
 -7.8190696e-01
  3.2979366e-01
 -1.6747527e-01
 -6.8985504e-01
 -8.0657560e-01
 -2.0633504e-01
 -2.9269549e-01
  6.9257480e-01
  8.5545748e-01
 -4.2021805e-01
  3.9819628e-01
  4.4551617e-01
  6.7424250e-01
  1.5783066e-01
  5.6152582e-01
  8.4912670e-01
 -3.4349003e-01
 -4.8955288e-02
  4.0205935e-01
 -4.7135732e-01
 -9.7807664e-01
  1.6864216e-01
  3.6735696e-01
  9.2353934e-01
  6.0808772e-01
 -3.0851765e-02
 -1.2864336e+00
 -6.9915509e-01
 -2.4999711e-01
 -1.0321262e+00
  9.2100114e-01
 -3.9735597e-01
  8.6513339e-03
  8.1137854e-01
 -7.6711339e-01
  8.1278330e-01
  9.9757040e-01
  9.2949614e-02
 -8.5085553e-01
  3.9871126e-01
 -2.4506015e-01
  7.5855285e-02
  5.5081570e-01
 -1.8620944e-01
  7.2680551e-01
 -6.1702496e-01
 -4.3654925e-01
 -1.4621611e-01
  6.5463299e-01
  5.5569750e-01
 -2.2323263e-01
  9.0898347e-01
 -3.0498786e-02
  5.2009666e-01
  3.8633338e-01
 -6.4656252e-01
 -8.9893109e-01
 -1.4372357e+00
  4.1985530e-01
 -5.1954377e-01
  9.9883920e-01
 -4.7612432e-01
  1.2179178e+00
 -2.0859422e-01
  3.0007917e-01
 -6.1831099e-01
 -4.7824714e-01
  9.4060338e-01
  6.2263566e-01
  9.3723083e-01
 -1.4377402e-02
  8.5664529e-01
  4.6426094e-01
  5.8240330e-01
  3.5556656e-01
 -4.9461493e-01
  1.6334026e-01
  4.5071888e-01
  2.2789630e-01
  5.1913434e-01
  4.2869166e-01
  6.1677927e-01
 -7.1237797e-01
  1.1573688e-02
  8.5820681e-01
  9.1782016e-01
 -2.9557949e-01
  7.7512312e-01
  2.6622218e-01
  2.5989482e-01
  3.0802879e-01
  5.3016648e-02
  5.3016648e-02
  5.3016648e-02
  5.3016648e-02
  5.3016648e-02
  3.9980469e+01
  3.9980469e+01
  3.9980469e+01
  3.9980469e+01
  3.9980469e+01
  6.2033421e+01
  6.2033421e+01
  6.2033421e+01
  6.2033421e+01
  6.2033421e+01
  7.4439864e+00
  7.4439864e+00
  7.4439864e+00
  7.4439864e+00
  7.4439864e+00
  1.0912484e-01
  1.0912484e-01
  1.0912484e-01
  1.0912484e-01
  1.0912484e-01
  2.1402634e+03
  2.1402634e+03
  2.1402634e+03
  2.1402634e+03
  2.1402634e+03
