nep4 2 Li Cl 
cutoff 8 4 146 18
n_max 4 4
basis_size 8 8
l_max 4 2 0
ANN 30 0
  4.3776837e-01
 -1.0764402e+00
  1.3384251e-01
 -6.5989465e-02
  3.5142615e-01
 -3.4878501e-01
 -8.8448507e-01
 -2.0612840e-01
  6.5016127e-01
 -5.2657360e-01
 -6.4489579e-01
  2.8520358e-01
 -1.1968827e-01
  8.2652712e-01
 -4.5933226e-01
 -1.7360522e-01
 -7.7821332e-01
 -2.9214567e-01
 -7.0302093e-01
 -4.0401865e-02
 -5.5134058e-01
 -2.2669375e-01
 -5.8936977e-01
 -1.0578262e+00
  2.3329268e-01
  2.9452533e-01
  2.8724247e-01
  5.7745755e-01
 -1.0820791e+00
 -6.1902779e-01
  1.4947580e-01
  5.4913390e-01
  5.5696833e-01
 -5.0579686e-02
 -2.3881951e-01
  9.9822658e-01
 -7.0870793e-01
 -6.2372291e-01
  4.1078290e-01
 -9.1974574e-01
  1.1921058e+00
  5.3032309e-01
 -2.6028520e-01
  6.2792248e-01
 -1.0071199e+00
  4.4198057e-01
 -9.7690225e-01
  8.8248181e-01
 -4.9294844e-01
  4.0109211e-01
  4.2050382e-01
  6.2172506e-02
 -3.4643301e-01
  4.8758706e-01
 -4.2373118e-01
 -4.1893658e-01
  2.7989775e-01
  4.3270871e-01
  3.6802107e-01
  3.3312398e-01
  9.4698036e-01
  7.2910631e-01
  5.2138215e-01
 -1.0176647e+00
 -1.0201095e+00
  1.8076640e-01
  2.6736635e-01
  3.0859396e-01
 -4.2471322e-01
 -1.8007097e-01
  3.1341186e-01
 -1.1566803e+00
 -9.2640013e-01
  1.9835339e-01
  5.6668901e-01
  2.8635144e-01
 -5.5212063e-01
 -8.5826069e-01
 -2.6872516e-01
 -8.2845742e-01
 -8.9564317e-01
 -3.7170196e-01
  1.5688522e-01
  5.7378006e-01
  7.0379049e-01
  1.3362417e-01
 -1.1334106e+00
 -2.3308066e-01
 -1.2884523e-01
 -5.2619481e-01
  2.7815664e-01
  1.7815685e-02
 -6.1830604e-01
 -3.1720212e-01
 -2.8581017e-01
 -1.4550608e+00
  5.9167331e-01
 -4.7619206e-01
  5.8558382e-02
  2.2045035e-02
  8.3858931e-01
  3.2528606e-01
  8.3451885e-01
 -8.0214405e-01
 -5.4862553e-01
 -1.9062218e-01
 -7.2447109e-01
 -5.7552069e-01
  1.6321141e-01
  3.6866495e-01
 -4.9911976e-02
  9.7841197e-01
 -1.9659242e-01
 -9.1188967e-01
 -5.9392136e-01
  9.8869962e-01
 -3.6290285e-01
  5.4445583e-01
 -3.9286020e-01
  2.7958894e-01
  2.2916616e-01
  1.7912838e-01
  8.7189358e-01
  1.1983153e-01
 -5.9435350e-01
  2.0228003e-01
 -5.8373493e-01
  1.1743763e-01
  1.0566982e+00
 -7.2747469e-01
 -2.5684884e-01
 -2.7675724e-01
  3.4721285e-01
  6.4525259e-01
 -1.9560692e-01
  4.6882442e-01
 -8.2271230e-01
 -5.3386474e-01
  5.8673546e-02
  9.0817058e-01
 -4.3906268e-01
  6.9765002e-02
  9.2055082e-01
  3.3634728e-01
 -2.1198043e-01
  1.9836108e-01
 -7.3319429e-01
  6.0322469e-01
  8.1207913e-01
  5.6842619e-01
  4.7628951e-01
 -1.3024014e-02
  9.6489269e-01
 -4.1741753e-01
  6.7598170e-01
  3.3379123e-01
  5.2152866e-01
 -8.8650966e-01
 -3.5084552e-01
 -3.5183391e-01
  1.3267790e-01
 -1.7950518e-01
  1.1363097e+00
 -1.5423454e-02
  4.2153713e-01
 -2.9882658e-01
 -5.6438607e-01
 -8.7075335e-01
  3.0987328e-01
 -1.4499305e-01
  3.3527809e-01
 -5.7464451e-01
  2.1425663e-02
  1.6374578e-01
  1.1053107e+00
  5.1582462e-01
  1.5228482e-01
  1.0157404e+00
  8.0942285e-01
 -1.0016491e+00
 -3.4647560e-01
 -1.3137402e-01
 -1.7078377e-01
  3.4525916e-01
 -3.2670012e-01
 -4.3774688e-01
 -1.7981073e-02
 -8.1367970e-01
 -4.6628842e-01
 -4.4571379e-01
  8.1045312e-01
 -5.5221200e-01
 -6.6664785e-01
  2.8761195e-02
 -9.5123529e-01
 -7.6489133e-01
  1.2040130e-01
  8.9134955e-01
 -8.9312851e-01
 -9.4084358e-01
 -4.8677456e-02
 -3.7573782e-01
  3.0651447e-01
  6.1589152e-01
  6.8906695e-01
  1.1306423e+00
  7.0879066e-01
 -1.6058505e-01
 -9.3410444e-01
  3.9217076e-01
 -9.2003174e-02
 -7.9081583e-01
  7.7237785e-01
  1.0441596e-01
 -5.2940530e-01
  5.7061636e-01
  5.4898453e-01
  7.3000515e-01
 -8.7409484e-01
  5.8481699e-01
  6.1882633e-01
  4.0445873e-01
  9.6796769e-01
  5.1650286e-01
  8.3103269e-01
 -1.2920289e-01
 -4.7759780e-01
 -1.2305345e-01
 -4.5890507e-01
 -8.6461234e-01
 -1.4445832e-01
  1.1980881e-01
 -5.8401018e-02
 -6.4523423e-01
  4.5071360e-01
 -1.0159129e+00
  2.4018750e-01
  9.8284006e-02
  6.4431375e-01
  6.0393184e-01
 -1.0920371e+00
  6.6206998e-01
 -5.5925333e-01
 -2.0119426e-01
 -5.1139560e-02
 -9.0177083e-01
  5.9728408e-01
  1.3647485e-01
  8.1899238e-01
  1.2391621e+00
  9.7832656e-01
  1.1951669e+00
 -8.1995524e-02
  4.3364882e-01
  7.6750124e-01
  3.1549028e-01
 -8.5676849e-01
  6.9809163e-01
  6.2083292e-01
  6.6201824e-01
 -2.0775901e-01
  2.4432796e-01
  9.1906562e-02
 -1.0081553e+00
 -6.1926800e-01
 -3.0851194e-01
  4.0008786e-01
 -1.1787356e+00
 -5.6743515e-01
  7.2549868e-01
 -3.9933982e-01
 -3.6891362e-01
  7.5950869e-03
 -1.5057956e-01
 -6.5230936e-01
  4.8676917e-01
 -1.0909660e+00
  9.3076462e-01
 -1.7945601e-01
  8.3991355e-01
  6.5416980e-01
 -4.3505010e-01
 -1.9486035e-01
 -5.5118632e-01
  4.1690341e-01
 -5.9146918e-02
 -1.6490352e-01
  3.7406646e-02
  7.8088596e-02
 -5.2497603e-02
 -4.0287766e-01
 -5.5367166e-01
  3.6909851e-01
  6.8968612e-01
  5.1470351e-01
  1.1907741e-01
  2.2999546e-01
 -6.7457581e-01
 -3.7972608e-01
 -2.1501699e-01
  2.0975786e-01
  5.0764996e-01
 -1.9269525e-01
 -9.6322812e-02
  7.6413488e-01
  5.4305899e-01
 -7.2429550e-01
  1.9650391e-01
 -8.3680248e-01
  8.0794466e-01
 -9.6631312e-01
 -4.7683191e-01
  3.6891663e-01
 -1.0491832e+00
  9.2224771e-01
 -5.8047515e-01
  7.5904906e-01
  1.3107541e-01
  5.5811799e-01
  3.5548186e-01
 -4.7986025e-01
  3.3748540e-01
  1.8921123e-01
  2.4795352e-01
 -5.3045702e-01
  1.2807838e+00
 -1.1924186e+00
  3.4581482e-01
  7.7181077e-01
 -9.5359236e-02
  3.4807959e-01
 -8.3375978e-01
  2.1844076e-01
  7.1277566e-02
  1.7144476e-01
 -2.7061012e-01
 -9.7049975e-01
 -7.4969137e-01
  5.3511560e-01
 -1.0215648e+00
 -1.6611126e-01
 -7.6998210e-01
 -5.7081360e-01
  1.3422351e-02
  1.0562693e+00
  1.2542132e+00
  5.0246155e-01
 -3.2444182e-01
  1.9587371e-01
  1.4110126e-01
 -7.0729178e-01
 -4.4022098e-01
  5.6394839e-01
 -9.1911025e-02
 -8.9759022e-01
 -8.4427226e-01
  3.7304547e-01
  7.2216988e-01
  8.2168572e-02
 -4.4850731e-01
  4.6778607e-01
 -2.1093597e-01
  8.0658895e-01
 -7.1107961e-02
  1.8251359e-01
  7.1957886e-01
 -6.7823559e-01
  7.9836351e-01
 -7.1592247e-01
 -3.0992964e-01
  4.9299762e-01
  1.6685252e-01
  1.2764811e-02
  1.2336915e-01
 -1.7558110e-01
  8.2968515e-01
 -3.2196525e-01
 -1.3203798e-01
 -7.2651899e-01
 -3.7773404e-01
 -9.5466018e-01
  1.2708737e+00
 -7.3385757e-01
 -1.1720278e+00
  1.1579027e-01
 -5.5558544e-01
 -5.4880863e-01
  1.0678621e-01
 -3.6257082e-01
 -8.7581128e-01
  1.1978828e-01
 -1.0970728e+00
 -4.9800149e-01
 -6.5463817e-01
  1.5533112e-01
 -8.9939654e-01
  8.3066708e-01
 -9.2993850e-01
 -7.5590014e-01
  9.4397730e-01
 -5.7582206e-01
 -4.2845529e-01
 -2.4002039e-01
  9.8714244e-01
 -2.1794958e-01
 -5.7886785e-01
 -1.0033832e-01
  2.5085706e-02
 -7.1443021e-01
 -1.1285665e+00
  3.3443168e-01
  1.5758915e-01
 -9.6303187e-02
 -8.8446587e-01
 -4.3813932e-01
  9.3585527e-01
  3.1825686e-01
  1.4297481e+00
  2.0263425e-01
 -3.3500651e-01
 -7.5762671e-01
 -4.8693904e-01
 -6.2590706e-01
  3.7446651e-01
  2.8958455e-01
 -3.2395390e-01
 -5.3897545e-02
  7.2102493e-01
 -1.2633044e+00
  2.0374340e-01
  3.0196092e-01
 -1.0113668e+00
  1.4114319e-01
  3.4366000e-01
  5.7777178e-01
  3.7550796e-02
 -4.5170137e-01
 -3.3929694e-01
  6.8592870e-01
  6.4091349e-01
  4.8469797e-01
  2.4336201e-01
 -1.2073729e+00
  1.9976985e-01
 -7.0167261e-01
  4.5865458e-01
 -9.2162594e-04
  3.1225288e-01
 -7.8494948e-01
 -6.5718383e-01
  2.6883879e-01
  4.1819934e-02
 -5.9008390e-01
 -5.9899682e-01
  1.0016365e+00
 -5.0648177e-01
 -1.2120866e-01
  6.6039789e-01
 -7.9715639e-01
 -4.7014850e-01
 -4.9975482e-01
  9.9942446e-01
 -5.6626827e-01
 -9.1331488e-01
 -7.4001151e-01
  2.6580709e-01
 -9.3628114e-01
 -4.1944352e-01
 -6.2943822e-01
 -3.4316814e-01
 -6.4586657e-01
 -8.3510417e-01
 -3.0831626e-01
 -3.7759298e-01
 -4.3289343e-01
 -7.0211120e-02
  2.3975140e-01
 -4.8312753e-01
  1.0288664e+00
  6.2078393e-01
  2.5361270e-01
 -3.0171826e-01
  1.9342652e-01
  8.1348515e-01
 -4.3254244e-01
 -2.9607552e-01
 -1.2738243e-01
  6.2564850e-02
 -6.7320824e-01
  1.5162187e+00
 -7.2295225e-01
  2.3019204e-01
  1.0668913e+00
  6.8294066e-01
  2.3136571e-01
 -5.2146691e-01
 -6.3671190e-01
 -8.6974049e-01
  8.0143034e-01
 -4.4183272e-01
 -3.8857800e-01
  1.4292675e-01
  9.8661622e-03
 -5.2639443e-01
  4.6359867e-02
  5.1486808e-01
 -1.0530854e+00
 -1.1532778e+00
 -1.2274350e+00
 -6.2068093e-01
  7.7007395e-01
 -9.3222156e-02
  2.2664438e-01
  1.0146588e+00
  7.4715102e-01
 -2.8886873e-01
  5.3512752e-01
 -8.4572929e-01
 -5.7245266e-01
  2.9544064e-01
  6.1748773e-01
 -4.9123296e-01
  9.9266869e-01
  2.1107513e-01
  7.2343862e-01
 -3.6936781e-01
  6.0134268e-01
 -7.3328632e-01
  3.9843151e-01
  6.6356041e-02
  6.3007772e-02
 -1.6289417e-01
  3.1324300e-01
 -3.2919232e-02
 -1.0881466e-01
  1.2173634e+00
 -1.0017622e+00
  6.6663373e-01
 -2.6828730e-01
 -1.9441065e-01
  1.0097130e-01
  2.0176776e-02
  1.3037499e+00
 -3.4419852e-01
 -2.6625657e-01
  3.3324233e-01
  3.4443417e-01
 -4.6162122e-01
 -7.5757796e-01
  3.8405237e-01
  6.3619852e-01
  5.0041819e-01
 -4.6765310e-01
 -2.1517549e-01
  7.2112221e-01
  3.6388928e-01
 -9.3746161e-01
 -4.6568471e-01
 -1.3712843e-01
  1.1648630e-01
  2.5313655e-01
 -4.8113394e-01
  1.2394936e-01
 -8.6153978e-01
  9.2539626e-01
 -4.2315573e-01
  1.6812119e-01
 -1.3805011e-01
  7.7200532e-01
  7.1683860e-01
  4.4510013e-01
 -8.4038562e-01
  8.2318670e-01
 -4.4929463e-01
  5.6649722e-02
  5.5874175e-01
 -8.9979607e-01
  3.6303306e-01
  5.9011823e-01
 -2.0412628e-01
 -4.1051689e-01
 -6.0186553e-01
  8.3870155e-01
  9.2375827e-01
  8.5106778e-01
  5.2302736e-01
  5.8433813e-01
  5.0057316e-01
  8.5159117e-01
  2.3637423e-01
  2.6841307e-01
 -1.2321548e-01
  1.8083273e-01
 -4.2548344e-01
  2.0545115e-01
  6.3292241e-01
  1.2868479e-01
 -2.3620290e-01
 -1.0473455e-01
  8.4404385e-01
  2.0323597e-01
  6.9532907e-01
  4.5934588e-01
  4.8058394e-01
 -4.7899383e-01
  1.3814725e+00
  6.5289479e-01
 -2.2702059e-01
  7.2794342e-01
 -2.1074252e-01
 -4.6696582e-01
 -6.2213063e-01
 -7.2191823e-01
  5.2335924e-01
  1.9493239e-01
 -3.6377785e-01
 -3.4745574e-01
 -3.7738115e-01
  8.2621861e-01
  5.2731597e-01
  1.0413586e+00
  7.9306084e-01
  2.3860213e-01
 -5.3383905e-01
 -9.6138072e-01
  1.1696125e+00
 -8.2918513e-01
 -2.3578174e-01
  4.2886582e-01
  2.9385632e-01
 -1.0454376e+00
 -6.4281392e-01
  6.1798346e-01
 -8.5463470e-01
  8.2109505e-01
  9.4697362e-01
  4.6757963e-01
 -1.7555271e-01
 -5.1594043e-01
  9.8717701e-01
  2.7933398e-01
  2.4872132e-02
 -8.8589060e-01
  7.2385949e-01
 -7.9035503e-01
 -1.9243711e-01
 -2.9866257e-01
  1.1637065e+00
  4.9629113e-01
  8.4310097e-01
 -7.6091105e-01
  5.0206220e-01
  1.0416914e+00
 -1.2671148e+00
 -1.1972154e+00
  1.0370228e+00
 -1.5671824e-01
 -2.8422749e-01
  4.7728208e-01
  5.3748238e-01
 -3.1551388e-01
  7.8613949e-01
  4.5003150e-02
  5.6024289e-01
  9.4370818e-01
  1.2493471e-01
 -5.0293928e-01
 -2.5685474e-01
 -5.8651251e-01
 -3.5479161e-01
  5.3607017e-01
  1.4202734e+00
 -1.0245892e-01
 -4.3563882e-01
  7.5525254e-01
 -9.5858538e-01
  9.6564686e-01
  3.1875440e-01
 -6.5262276e-01
  7.3812878e-01
  2.9269022e-01
  9.3860227e-01
 -8.1987566e-01
 -2.8023403e-02
 -1.4106786e-01
  2.3653655e-01
 -2.1899487e-01
 -1.4245390e+00
 -1.1302476e+00
  9.6613026e-01
  6.1129272e-01
 -1.4905143e-01
  1.3102589e+00
  7.3249167e-01
 -2.2316213e-01
 -1.7060612e-01
 -6.6489410e-01
  6.7302263e-01
 -3.5793006e-01
 -7.3541403e-01
 -7.3240377e-02
 -6.9993830e-01
  5.3139323e-01
  2.3279090e-01
 -6.1671299e-01
  2.3717250e-01
  5.1628858e-01
 -1.0479606e+00
  5.0810373e-01
  4.9877742e-01
  7.6001680e-01
 -4.1796824e-01
  4.4219917e-01
  5.8985478e-03
 -8.5465348e-01
  8.7941986e-01
  4.8741456e-02
 -6.8401957e-01
 -1.9515000e-01
  3.3872911e-01
 -5.7274598e-01
 -5.4252440e-01
 -2.4026547e-01
 -4.2249909e-01
  9.0394855e-01
 -1.3848141e-01
  9.8981667e-01
 -1.0284038e+00
 -9.0339792e-01
 -6.9752872e-01
 -4.4049632e-02
 -3.3895957e-01
  4.8778719e-01
  4.7351432e-01
 -2.8598732e-01
 -5.5896735e-01
  8.6171263e-01
 -4.9270180e-01
 -5.3772616e-01
  1.1374601e-02
  1.0710842e-01
 -3.7691936e-01
 -3.4555972e-01
  5.1230294e-01
  5.0329882e-01
  2.3736164e-01
 -3.6270197e-03
  6.8510133e-01
 -8.8111520e-01
  5.0764865e-01
  2.5078529e-01
  3.0479184e-01
 -9.0633649e-01
 -7.5388086e-01
  5.6640697e-01
  1.2668560e+00
 -2.5527269e-01
 -4.1181290e-01
 -3.6624005e-01
 -1.0695701e+00
 -6.8478942e-01
 -1.7329703e-01
  7.9615808e-01
 -1.0531662e+00
  9.9879611e-01
  5.1682103e-01
 -5.1197243e-01
 -7.9141062e-01
 -4.4329181e-01
  1.9733361e-03
  3.3905640e-01
  5.5175237e-02
 -1.1549203e+00
 -1.7431901e-01
 -3.4942463e-01
 -5.4643661e-01
  3.3948073e-01
 -7.0460033e-01
 -1.1253784e+00
 -2.8147817e-01
  3.8350055e-01
 -5.4433817e-01
 -7.9962671e-02
  3.0425826e-01
 -1.5273203e+00
 -8.9290446e-01
  1.4181413e-01
  7.1505129e-02
  4.4108364e-01
 -1.1275113e-01
 -5.9416056e-01
  1.0897260e+00
 -6.0685329e-02
  2.2492586e-01
  1.0172278e-01
 -8.2372785e-01
  7.5110734e-01
 -8.8426268e-01
 -8.0636543e-01
  2.5010863e-01
 -4.3903992e-01
  6.4114934e-01
 -8.9883542e-01
  2.5415012e-01
  1.1201250e-01
 -8.4628212e-01
 -3.6990482e-01
  5.7556832e-01
  1.0097245e+00
 -1.1948406e+00
  2.8534142e-02
 -5.0284487e-01
  8.3954728e-01
 -5.3335351e-01
  5.4006833e-01
 -2.3542918e-01
  7.6125753e-01
 -8.2299340e-01
 -6.4101315e-01
 -8.8699841e-01
  6.1053461e-01
 -6.9996995e-01
  1.5095047e+00
 -2.8606766e-01
  5.2655628e-03
  5.9029210e-01
 -2.7669394e-01
 -6.4189696e-01
  8.4090918e-02
 -3.5884857e-01
  5.6327480e-01
  9.3615335e-01
 -2.5761613e-01
 -2.7871796e-01
 -2.1335547e-01
 -1.3120733e+00
  5.8272547e-01
 -3.2778910e-01
 -8.2116179e-02
 -6.9433958e-03
 -3.2719266e-01
 -1.5633906e-01
  5.3529155e-01
 -3.4295654e-01
 -2.2368550e-01
  5.2762914e-01
  4.5503527e-01
 -1.3509278e-01
  2.9008570e-01
 -5.0784868e-01
  6.4032805e-01
  1.0394996e+00
  3.4775749e-01
  1.9984171e-01
  3.8980868e-01
 -5.0153774e-01
  2.6601100e-01
 -1.3155965e+00
 -2.0500109e-01
  1.9143095e-02
  6.7297108e-02
  5.0198001e-01
 -8.1749642e-01
 -7.4306923e-01
 -4.8010299e-01
  2.5358492e-01
 -7.4715704e-01
 -7.5469542e-01
 -4.2805943e-01
  2.5525782e-01
 -6.1467376e-02
 -1.7672585e-02
 -1.3459572e-01
 -2.9211214e-01
 -1.2428756e-01
  4.5214298e-01
 -4.5021316e-01
 -3.2919377e-01
  4.9818687e-02
 -6.2909879e-02
  4.9958441e-01
 -3.6666748e-01
 -1.0448527e-01
  1.5044899e-01
  6.1432445e-01
 -2.3823966e-01
 -4.3166876e-01
  8.9635628e-01
  1.3678765e+00
 -2.7383354e-01
  5.9232408e-01
  8.0072606e-01
  4.8641866e-01
  4.3190768e-01
 -7.2480685e-01
  2.7135244e-01
  8.7676489e-01
 -7.0024446e-02
  6.9600368e-01
 -4.9483541e-01
  4.5415023e-01
  1.1705339e-02
  6.6478479e-01
 -1.6852762e-01
  5.8794057e-01
  6.7166811e-01
 -9.1303754e-01
 -9.6125752e-01
  5.2805531e-01
 -6.1207348e-01
  2.2648135e-01
  8.8606405e-01
 -5.0335127e-01
 -4.4046041e-02
  4.8199990e-01
  8.3786413e-02
 -1.5374168e+00
  3.1037253e-01
  7.3044765e-01
 -8.4381217e-01
 -1.1553750e+00
 -3.4623411e-01
  7.1387030e-02
 -9.0514213e-01
 -2.4227056e-01
  4.4883984e-01
 -5.9385580e-01
  5.2887309e-01
 -7.0786804e-02
  7.8820533e-01
 -1.0149367e+00
  1.6754232e-01
 -2.7204436e-01
 -1.8502346e-01
 -3.6708403e-01
  3.8638234e-01
 -3.0447808e-01
  8.9463723e-01
 -7.9007125e-01
 -5.1865822e-01
 -2.0141956e-01
  3.4298196e-01
 -8.7089902e-01
  4.9830243e-01
  7.6228863e-01
  4.1552001e-01
 -6.9353408e-01
 -6.9737482e-01
 -6.3197017e-01
  7.1003014e-01
  2.3786230e-01
 -7.3141098e-02
 -1.0127225e-02
 -4.7976401e-01
 -5.2991223e-01
 -3.3025274e-01
 -2.2890484e-01
  5.5711210e-01
  3.7351632e-01
  6.3807374e-01
 -8.0681348e-01
 -7.9588696e-02
 -4.5669335e-01
  1.2201635e+00
  4.1479367e-01
 -9.3971443e-01
 -1.1383651e+00
 -4.6317838e-02
 -1.8844500e-01
  7.8573430e-01
  3.1428546e-01
  2.2850759e-01
 -1.1302838e+00
 -8.7236977e-01
 -5.1616746e-01
 -1.1798872e+00
  8.5144269e-01
  3.3228662e-02
  1.1742173e+00
 -4.9909061e-01
 -1.3397157e-01
  2.2928675e-01
 -6.0797012e-01
 -2.7732280e-01
  9.9632281e-01
 -5.8157700e-01
  5.2738082e-01
 -5.5773729e-01
  2.9652594e-02
  7.6987374e-01
  4.4859278e-01
 -6.4891666e-01
  4.7894946e-01
 -1.0007979e+00
 -4.7134548e-01
  1.1631101e+00
  2.5431684e-01
  1.9437048e-01
  2.0408426e-01
 -1.3012486e+00
  6.9957858e-01
  6.0551280e-01
 -1.0082592e+00
 -3.6698827e-01
  3.8105285e-01
  5.1653922e-01
 -1.0403068e+00
 -3.9618263e-01
 -5.9916243e-02
 -2.4087910e-01
  4.3224376e-01
 -1.0136957e+00
 -1.5247335e-01
  5.1811224e-01
  2.1295786e-01
 -7.7899343e-01
  9.6357322e-01
 -6.7641872e-01
 -1.6726272e-01
 -5.4429424e-01
  3.9623138e-01
  1.1076926e+00
 -1.7587718e-01
 -6.7141259e-01
 -1.9452009e-01
  7.0438331e-01
  9.4046170e-01
  1.0526665e-01
 -2.1741724e-01
  5.8258849e-01
  5.1310289e-01
  9.7274077e-01
  4.7280550e-01
 -1.1435856e+00
 -8.1828636e-01
  6.5908670e-02
  4.6975523e-02
  3.8554379e-01
  6.7070431e-01
 -6.8986112e-01
 -1.1610411e-01
 -4.5975676e-01
  9.0259862e-01
 -6.3917136e-01
  7.3169357e-01
  7.3041856e-01
 -1.0521259e+00
 -7.8069992e-02
 -9.2367101e-01
  3.1220073e-01
  9.6112287e-01
 -5.4162037e-02
 -5.1852483e-01
  1.4043862e-01
 -6.2156254e-01
  3.4847254e-01
 -3.8973203e-01
 -4.4450119e-02
  8.1541973e-01
 -1.0517206e+00
 -2.9207048e-01
 -4.8027742e-01
  8.0472881e-01
  1.7644769e-01
  8.6332989e-01
  9.3489116e-01
  3.4228733e-01
 -5.1900309e-01
 -6.7677712e-01
  2.2509889e-01
  4.2090687e-01
  8.4028798e-01
  5.8070546e-01
  4.7053671e-01
 -4.2358899e-01
  5.5061924e-01
  1.1949347e+00
  1.8034104e-01
  6.0396604e-03
 -6.4657927e-01
  4.6143153e-01
 -8.9147830e-01
 -6.5660489e-01
  9.5952980e-02
 -5.4609132e-01
 -3.7423486e-01
  1.3118829e-01
  7.5202775e-01
  8.2016176e-01
 -5.2688479e-01
  9.6864027e-01
 -1.5848158e-01
  8.5075438e-01
  3.4514883e-01
  4.9727046e-01
  1.2611894e-01
 -6.7213619e-01
 -2.3218136e-01
  8.4075236e-01
 -1.7854206e-01
  9.4274038e-01
  6.3055778e-01
  8.6425912e-01
 -5.3535050e-01
 -1.5869427e-01
  5.8177853e-01
  2.8554302e-01
  9.9957114e-01
 -3.1898379e-01
  7.1222365e-01
  4.5940390e-01
 -9.1828460e-01
  1.0184813e-01
 -5.0103170e-01
 -2.8795201e-01
  6.0424703e-01
 -5.0650573e-01
 -1.3593155e+00
 -1.2527183e-01
 -4.4607124e-01
 -9.0959263e-01
 -2.7983505e-01
  4.1815838e-01
  5.2817142e-01
 -5.6536525e-01
  3.8653111e-01
 -2.9486236e-01
  1.6498843e-01
  6.7928123e-01
  6.2347132e-01
 -1.6137900e-02
 -1.9881196e-01
  6.4890856e-01
 -7.1791869e-01
  1.0525402e+00
 -1.1136087e+00
 -4.5850191e-01
  9.2059761e-01
  7.9313374e-01
  1.5581867e-01
 -4.7055769e-01
  7.2604692e-01
 -4.4053835e-01
 -6.8045890e-01
  3.0048415e-01
 -7.6133746e-01
 -8.9638948e-01
 -3.1125435e-01
 -6.2006038e-01
 -3.8186777e-01
  5.3674936e-02
  2.2121948e-01
 -2.8211519e-02
  6.1641067e-01
  1.8086112e-01
  5.1457626e-01
 -7.6941609e-02
  9.7073364e-01
 -8.0933332e-01
  2.6417170e-02
 -5.1448876e-01
 -1.0037558e+00
  7.5558048e-01
  2.1423176e-01
  6.6855866e-01
 -1.2432125e+00
 -1.4675333e-01
  6.7159033e-01
 -6.4758849e-01
  7.0751913e-02
 -7.5630170e-01
  7.7393639e-01
  1.3517252e-01
  4.4604641e-01
 -3.7830430e-01
  2.1686594e-01
 -1.9460323e-01
 -6.0131824e-01
  9.7010207e-01
 -1.0511009e+00
 -1.4859577e-01
  2.9510164e-01
 -5.4353517e-01
  2.2733849e-01
 -4.2582113e-01
 -3.9532557e-02
  3.7844443e-01
 -2.8663245e-01
 -9.4111121e-01
  6.9099033e-01
  5.7434827e-01
  9.5610642e-01
  1.0477708e-01
 -8.8215739e-01
 -7.5464301e-02
  4.0397021e-01
 -1.5772825e-01
  6.2948799e-01
 -6.8355733e-01
 -2.4540368e-01
  5.8298331e-01
 -2.0120187e-01
 -2.5935349e-01
 -6.0836089e-01
  5.1762801e-01
  6.1285979e-01
 -7.2149992e-01
  2.6130292e-01
 -6.2938768e-01
 -5.2156740e-01
 -1.9035050e-01
  9.1959590e-01
  1.0102997e+00
 -4.9475423e-01
 -3.9116523e-01
  3.1378254e-01
 -7.7273113e-01
  9.9665022e-01
 -4.8842096e-01
 -7.7382022e-01
  5.7439435e-01
  5.7311291e-01
  8.1075644e-01
 -7.5344229e-01
 -3.1341580e-01
 -9.4855106e-01
  2.9735959e-01
  1.0848496e+00
 -1.2988678e-01
 -6.0473615e-01
  9.9845153e-01
  3.4875232e-01
  4.3823513e-01
 -3.9066076e-02
 -8.7897909e-01
 -1.0756122e+00
 -4.8565969e-02
 -3.9628136e-01
  5.6533754e-01
  2.4584953e-01
  5.4447222e-01
 -4.7982809e-01
  2.0719926e-01
  6.7767674e-01
  3.0718936e-02
 -3.6614355e-01
 -6.4644510e-01
 -1.1408297e+00
  3.4697145e-01
 -7.7432573e-01
 -5.7934153e-01
  5.7225162e-01
  4.9698025e-01
 -5.4356408e-01
 -8.1220520e-01
  2.4596842e-01
 -1.2940963e-01
 -4.0494832e-01
 -7.7852899e-01
 -6.1094856e-01
 -1.1812813e+00
 -1.0222000e+00
  4.8555867e-04
 -2.5360081e-01
  5.7543713e-01
 -4.4147074e-01
  3.8875696e-01
 -2.4894994e-01
 -8.2135904e-01
  3.7511873e-01
  5.9152460e-01
 -2.2389105e-01
  6.0529846e-01
  5.7969904e-01
 -1.4996068e-01
  2.7167383e-01
  5.0424224e-01
  3.9543158e-01
  8.7771699e-02
  6.6017699e-01
  9.0047807e-01
  4.6513325e-01
  9.6433442e-03
 -7.7163547e-01
  2.4902925e-01
 -6.7531502e-01
  1.7018516e-01
  7.4707997e-01
  9.2525178e-01
 -6.1737603e-01
  5.8720958e-01
  1.1396224e-01
 -4.1388012e-02
  1.8034624e-01
 -2.7582109e-01
  1.1110276e+00
  4.5431289e-01
  6.7237711e-01
 -4.5400670e-01
  4.1012812e-01
  9.8552459e-01
  2.5265835e-02
  8.6752337e-01
 -4.4205305e-01
  3.5776478e-01
  1.1611401e+00
  2.7114049e-01
  6.0609084e-01
  1.9574904e-01
  1.6306905e-01
 -1.0784650e+00
 -5.2170879e-01
  8.5751928e-02
  3.3571559e-01
 -5.8311814e-01
  1.0350349e+00
 -9.3753892e-01
  9.4263774e-01
 -9.9983191e-01
 -5.0949669e-01
  1.4608474e-01
 -2.8203392e-01
 -9.9663287e-01
 -9.7430247e-01
  6.5884203e-01
  1.5531561e-01
  6.2223915e-02
  4.7452235e-01
  8.4808749e-01
 -8.3981323e-01
 -2.3072042e-01
 -2.9884410e-01
 -7.1578383e-01
 -1.1321729e+00
  5.8323634e-01
  5.5607408e-01
 -3.5427698e-01
 -3.5441267e-01
 -1.0531061e+00
  8.2254186e-02
  8.3886772e-01
  4.5679849e-01
  1.4538488e+00
 -9.4515163e-01
 -8.6495453e-01
  7.5362748e-01
  8.1911522e-01
 -7.4851859e-01
 -2.6101953e-01
  8.3358359e-01
  6.7091161e-01
  9.9296784e-01
  6.9438058e-01
 -2.7238345e-01
  6.4625710e-01
 -5.6694764e-01
 -6.9758338e-01
  1.1401280e-02
 -8.5434997e-01
  1.0788708e-01
  6.5203357e-01
 -1.1177799e+00
  2.8328285e-01
  9.4661498e-01
 -3.1185409e-01
 -7.2101700e-01
  1.0666464e-01
  6.6287768e-01
  8.1617862e-01
 -1.2892321e-01
  1.1461211e+00
 -4.2409500e-01
  5.1280969e-01
  1.5581241e-01
  6.8770222e-02
  4.0512148e-01
 -4.5593423e-01
 -6.8961543e-01
  3.3066562e-01
  4.1036248e-02
  9.0267533e-01
 -5.9782529e-01
 -3.8937458e-01
  1.6505562e-01
 -3.8127419e-01
 -8.9615893e-01
  1.1021764e-03
 -2.6149678e-01
 -3.5557657e-01
  6.1757547e-01
  4.9743253e-01
  5.1720858e-01
  8.8487697e-01
 -4.8264414e-01
 -1.0586687e+00
 -3.3157939e-01
  1.2068747e+00
  1.1163633e-01
 -1.0512494e-01
  1.2373034e+00
  1.0500076e+00
  3.9677718e-01
  5.1725459e-01
  2.5788391e-01
  1.2447013e+00
  9.4847870e-01
  2.5895804e-01
 -7.5537753e-01
  8.1707329e-01
  1.4805669e-01
 -1.1067396e+00
  8.9076214e-02
  4.4319370e-01
 -4.9290741e-03
  8.3585817e-01
  7.6438564e-01
 -7.4766088e-01
  8.2136214e-01
 -5.2135026e-01
 -5.5824381e-01
 -3.2104662e-01
 -5.5959845e-01
 -3.3967590e-01
 -3.1570520e-02
 -8.6634022e-01
  1.3131119e+00
  7.6504445e-01
  9.4568580e-01
  7.4376917e-01
  4.6343151e-01
 -5.6474757e-01
 -1.1688229e+00
 -1.1654619e+00
  8.1504637e-01
 -3.0757242e-01
 -1.3419087e+00
 -7.4014312e-01
  1.1944399e+00
 -3.4802690e-01
  4.0847823e-01
  5.2975452e-01
 -3.6003110e-01
 -3.0445325e-01
 -7.5913322e-01
 -8.4331445e-03
 -1.0394260e+00
 -1.3513851e-01
  1.1552404e+00
 -3.1910118e-01
 -1.0366492e+00
  6.0322607e-01
  5.7943124e-01
  1.4898658e-01
  1.0975688e-01
  1.1080852e-01
 -1.5567274e-01
 -5.8846354e-01
  2.9150167e-01
  8.5934722e-01
  7.1553725e-01
  9.1290796e-01
  8.9366078e-01
 -9.3765140e-01
  3.3647135e-01
 -3.4828991e-02
 -1.1101605e+00
  5.2798396e-01
 -4.6285886e-01
 -4.1846681e-01
  2.9904366e-02
  1.1754438e+00
 -6.3802135e-01
 -2.2907503e-01
  7.5159675e-01
  5.5939966e-01
  7.7502626e-01
 -5.4863429e-01
  9.2945033e-01
 -6.2898660e-01
 -5.5211633e-01
  8.5736352e-01
  1.0980817e+00
 -4.1423216e-01
 -2.0379668e-01
  4.1634709e-01
 -1.6170490e-01
  8.2316983e-01
  1.0201287e+00
 -1.0936037e+00
 -3.0404654e-01
  8.9528000e-01
 -8.0726117e-01
 -4.4691488e-01
 -4.0211612e-01
 -1.4560839e+00
 -6.3065505e-01
  8.5977501e-01
 -9.0038234e-01
 -5.5737609e-01
 -3.8028395e-01
 -8.8757239e-02
  9.8020327e-01
 -6.8916136e-01
 -6.5892354e-02
  1.0652779e+00
 -3.7586725e-01
  1.0509704e-02
 -2.9523453e-01
 -5.2894399e-02
  2.2409495e-02
  1.1330835e+00
  5.8024907e-01
  2.2820024e-01
  6.5565485e-01
  1.1914501e-01
  3.1616610e-01
  1.2803750e+00
  4.5502985e-01
 -8.2683188e-01
 -1.1513928e-01
  6.6361171e-01
  8.8808715e-01
  1.1725794e-01
  8.3580744e-01
  1.9980665e-01
 -5.2390921e-01
  5.2836478e-01
  3.0209899e-01
  5.4236662e-01
 -1.1510936e+00
 -1.0962826e+00
  2.2938566e-01
 -4.6140385e-01
 -4.8496270e-01
 -9.6533746e-01
  7.2970659e-01
  1.1016804e+00
 -5.4354435e-01
 -6.9925582e-01
  1.0150421e+00
 -6.6070640e-01
  1.0961741e+00
 -5.7836837e-01
 -5.6697345e-01
 -3.3559483e-01
 -6.5164745e-01
 -3.3731583e-01
 -4.3343294e-01
 -5.4778659e-01
  3.9262753e-02
 -2.2475368e-01
 -1.0073467e+00
  7.3158544e-01
 -1.7836285e-01
  3.5230607e-01
  1.0902545e+00
  6.6972464e-01
 -1.9400504e-01
  7.9890317e-01
 -2.4326800e-01
 -7.4075091e-01
 -7.2913301e-01
  9.9334562e-01
  3.7412113e-01
  7.5950265e-01
  9.6507959e-02
 -8.6893755e-01
  1.3749687e-01
 -8.2712400e-01
 -5.6627202e-01
 -4.3879151e-02
  1.0969414e+00
 -5.7664037e-01
  6.4268589e-01
 -4.9292585e-01
 -5.0111473e-01
  4.7783655e-01
 -1.6069251e-01
 -1.1781897e-01
 -5.0250328e-01
 -4.2860156e-01
  6.0460067e-01
 -2.2309700e-01
 -3.5841733e-01
 -5.5659431e-01
 -6.0448021e-02
 -3.4609747e-03
  4.5744771e-01
  4.7645268e-01
  1.2161387e+00
 -6.5592486e-01
  5.9085202e-01
  8.8867480e-01
  2.0343234e-01
  6.6300762e-01
 -5.6762403e-01
 -2.2124857e-01
  4.4925758e-01
  9.9826038e-01
  8.9239776e-03
 -6.2035799e-01
  5.2939934e-01
  2.8428093e-01
 -1.0019239e+00
  9.5444366e-02
 -9.1729689e-01
  8.7667666e-02
 -1.2014816e+00
  1.1829959e+00
  9.5087206e-01
  3.7085804e-01
 -8.5747075e-01
  2.3284510e-01
  3.8141090e-01
  9.9706268e-01
 -1.6579936e+00
  5.8982410e-02
  5.6944519e-01
 -7.8829634e-01
 -6.5262842e-01
  9.0632731e-01
 -2.8704458e-01
 -8.4998526e-02
 -1.0261337e+00
  2.0646024e-01
  4.1681081e-01
 -5.6779468e-01
 -7.3671550e-02
  5.9429127e-01
 -9.5778570e-02
  1.8165453e-01
  3.8261372e-01
 -5.3180188e-01
 -4.7253281e-01
  1.5639894e-01
 -5.4417288e-01
  7.3921007e-01
 -7.4387282e-01
 -7.1738982e-01
 -6.7411864e-01
 -9.8216933e-01
 -8.5548669e-01
 -5.8940393e-01
 -8.6476511e-01
 -1.0242572e+00
 -7.4811947e-01
 -1.4401247e-01
 -1.9166440e-01
  8.0742574e-01
  1.0952546e-01
  2.7286610e-01
 -7.9641032e-01
  1.0321718e+00
 -4.9972457e-01
  1.2306557e+00
  6.8069972e-02
 -9.5319641e-01
 -2.1415985e-01
 -6.9724268e-01
 -4.8588315e-01
 -9.1136384e-01
 -7.2297496e-01
 -3.1971473e-01
 -2.6856929e-01
  1.4036421e-01
 -7.4035501e-01
  7.1588069e-02
  3.5916740e-01
 -9.4574279e-01
 -9.7024786e-01
 -6.1397862e-01
 -6.9152009e-01
  8.4480911e-01
 -6.9162345e-01
  8.4693760e-01
  3.4370357e-01
  7.4868125e-01
 -9.2327058e-01
  1.0663528e+00
  5.7744104e-01
 -2.8510883e-01
  1.2049117e+00
 -1.6859102e-01
  9.2248124e-01
 -9.5460594e-01
 -2.4707955e-01
  5.2115911e-01
 -1.2866962e+00
  8.1986743e-01
  5.2213174e-01
  7.5450979e-02
  4.7427791e-01
 -1.0369471e+00
 -5.4830033e-01
 -8.0908209e-02
 -5.7878506e-01
 -1.0507933e+00
  1.0327606e+00
  5.9319866e-01
  1.6125629e-02
 -5.7919151e-01
 -4.1820544e-01
  3.0236515e-01
 -3.0558515e-01
 -7.3547643e-01
  4.7159135e-01
 -4.7691938e-01
 -1.8740113e-01
 -1.1414546e+00
  1.2833135e-01
 -7.2331548e-01
  4.7264114e-01
 -2.0050742e-01
  2.7381822e-01
 -8.6120683e-01
 -3.4278807e-01
 -1.1630145e+00
 -1.0750066e+00
 -2.7838174e-01
  5.2179748e-01
 -2.7143421e-02
  4.4339049e-01
 -6.5763593e-01
 -1.2038171e+00
  4.0263388e-01
 -7.4783915e-01
 -2.0609100e-01
 -7.6889759e-01
 -6.4762700e-01
 -2.3364758e-01
  2.5448439e-01
  1.9733104e-01
 -9.2364746e-01
  1.2175813e+00
  9.7707409e-01
  1.3868657e-01
  1.7628229e-01
 -4.7060609e-01
 -7.5579351e-01
  4.0756989e-01
 -1.5181865e-01
  6.4432645e-01
 -1.2282708e-01
 -5.0825649e-01
  1.1665548e+00
 -3.0414715e-01
  7.2657800e-01
 -6.6374540e-01
 -1.4454825e-01
  3.9530513e-01
  6.2617439e-01
  6.7512244e-01
 -2.2964206e-01
 -7.2751731e-01
  7.7349550e-01
  2.7198789e-01
 -3.0435912e-02
  3.8059741e-01
 -3.9821148e-01
  2.3008476e-01
  4.4173077e-01
  7.6620275e-01
  5.6698513e-01
 -8.6654919e-01
  3.1202298e-01
 -1.2011646e+00
 -1.0136895e+00
  8.6640644e-01
 -5.5194080e-01
 -6.6901433e-01
  5.6335336e-01
 -1.3264592e-01
  2.5791714e-01
  4.9459049e-01
  9.8055065e-01
  4.9595329e-01
  9.1724449e-01
 -2.1956904e-01
  1.7470233e-01
 -1.0798905e+00
  3.9238665e-02
 -1.6381836e-01
  8.7883461e-01
  9.0374404e-01
 -8.3674896e-01
  8.1486934e-01
  6.4865702e-01
  3.6785665e-01
 -1.5292919e-01
 -8.3419502e-01
 -4.4477761e-01
 -7.2763287e-02
 -6.5553296e-01
  7.4624985e-01
 -7.6693940e-01
  5.9465146e-01
 -8.7395030e-01
  8.0166125e-01
 -6.1998981e-01
  7.4631101e-01
 -4.3683305e-01
 -5.0414884e-01
 -5.3477180e-01
  4.2886147e-01
  2.5809157e-01
  7.3248297e-01
 -4.6595648e-01
 -5.9834123e-01
 -2.6072413e-01
 -5.8671427e-03
 -1.5235032e-01
 -9.4837427e-02
 -9.7697729e-01
 -4.6999034e-01
  7.6391107e-01
  5.5230874e-01
  8.3983493e-01
  2.6008826e-02
 -2.4935311e-01
 -7.3369563e-02
  3.2755971e-02
 -6.3707656e-01
  4.7416070e-01
 -6.2285560e-01
  4.7282463e-01
 -2.1524076e-01
 -7.7585322e-01
  1.8682744e-01
 -2.2028255e-01
  2.9272380e-01
  6.7851506e-02
 -2.5759611e-01
 -8.3676696e-01
  4.7857022e-01
 -8.3734059e-01
 -7.7942556e-01
  3.9085275e-01
  3.5702345e-01
  5.7008964e-01
  6.3010901e-01
  1.6981235e-01
 -3.0823198e-01
 -3.6400396e-01
  9.9825430e-01
  4.8184872e-01
  4.2426220e-01
  3.1977028e-01
  3.3876866e-01
  6.5964997e-01
  6.2092799e-01
  7.4663919e-01
 -8.7668598e-01
  7.6703823e-01
 -5.6616426e-01
 -1.3137047e+00
 -5.7364011e-01
  1.9566232e-01
 -3.0993536e-01
  2.7049559e-01
 -6.3096270e-02
  2.8856918e-01
 -3.8935030e-01
 -6.0349602e-01
 -4.6695706e-01
  9.7890252e-01
 -6.6912091e-01
  4.1115728e-01
  7.6529819e-01
  3.1165403e-01
  4.2870183e-02
  6.5111393e-01
  6.7660171e-01
 -1.3081126e+00
 -9.9660456e-01
  1.0056940e+00
  1.4151497e-01
 -4.8024499e-01
 -5.2915758e-01
 -1.0937655e+00
  2.9358488e-01
  5.4227704e-01
  6.8672168e-01
  6.5200341e-01
  2.6927957e-01
 -1.8984921e-02
 -2.8342292e-01
  9.2712492e-01
  6.7161489e-01
  1.1873063e+00
 -2.8428191e-01
 -7.1117836e-01
 -3.8845500e-01
 -6.3159919e-01
  3.4704396e-01
 -8.5513905e-02
  6.0742867e-01
 -2.3921752e-01
  4.5678109e-01
  3.7221003e-01
  9.1788054e-01
  5.4500058e-02
  7.1898705e-01
  1.1787055e+00
  7.1606821e-01
 -7.3689544e-01
  5.3989273e-01
 -2.8521284e-01
  2.3101182e-01
 -1.0922298e+00
  4.3683222e-01
 -4.6832494e-02
 -2.1526795e-02
 -7.2396323e-02
  2.4303906e-01
  1.5137035e-01
 -2.2200672e-01
  6.2389213e-01
 -7.5367856e-01
 -5.1874590e-01
  6.9371492e-02
  3.9024124e+00
  1.1874944e+00
 -2.3720892e-01
  2.3055965e-01
  1.1352888e+00
 -1.1457548e-02
 -3.9897203e-02
  3.1072372e-01
 -8.2761294e-01
  1.3600303e+00
  4.9935916e-01
  2.4873929e-01
 -7.7147281e-01
 -8.1070232e-01
  8.7004340e-01
  6.1727679e-01
  1.0870838e-01
  4.2588669e-01
  8.6359584e-01
 -4.6206656e-01
  1.5809101e-01
 -5.1213223e-01
 -1.2703341e-01
 -9.6410054e-01
  5.2173513e-01
  5.4799557e-01
 -3.0761296e-01
 -3.0757925e-01
  1.8207400e-01
 -5.0926864e-01
  5.8733481e-01
 -1.5444261e-01
 -1.2594205e+00
 -9.3191326e-01
  5.2446574e-01
  1.1656047e-01
 -6.5633178e-01
 -6.5281451e-01
 -5.8378053e-01
 -6.9583565e-01
  3.9978293e-01
 -7.3962295e-01
  9.6047467e-01
 -9.9478459e-01
 -2.5576767e-01
 -5.3254879e-01
  3.1029853e-01
 -6.8092084e-01
  9.5476037e-01
 -8.5293812e-01
  1.2122548e+00
  1.3625689e+00
  6.0221493e-01
  8.2151091e-01
 -5.3189199e-02
  8.7868446e-01
  6.5938449e-01
  1.9271053e-01
 -1.2288141e-01
 -8.5543621e-01
 -8.8094026e-02
  7.5474322e-01
 -7.7086443e-01
 -7.6128900e-01
  1.4273353e+00
 -1.3692489e+00
  8.3722991e-01
 -1.1085570e+00
 -1.6712752e-01
 -6.4358991e-01
 -7.3824841e-01
 -3.5227671e-01
  1.0117174e+00
  7.8587574e-01
  2.2553696e-01
 -3.5140604e-01
 -5.4501855e-01
 -1.3661970e-01
  5.6805611e-01
  1.2455165e+00
  2.1321660e-01
  1.1104307e-01
 -6.0655445e-01
  8.2254732e-01
 -8.4625453e-01
  6.6749996e-01
  5.5129409e-01
  1.2197708e-01
  1.3046851e+00
 -2.9673842e-01
  7.2355551e-01
 -3.5449892e-01
 -2.6612440e-01
  7.5794846e-02
 -4.4444078e-01
 -1.0607895e+00
 -3.7528399e-01
  3.1478640e-01
  8.5202974e-01
 -6.7935526e-01
  7.8023344e-01
 -1.3568446e-01
  1.8075554e-01
  1.1304642e+00
  2.2964551e-01
  5.3322917e-01
 -7.5894254e-01
 -6.1951649e-01
  8.0461615e-01
 -6.2299627e-01
 -8.4872723e-01
 -1.1285670e-01
 -3.7422669e-01
 -1.0236772e+00
 -9.0893644e-01
  1.2302998e+00
 -1.3776718e-01
 -2.5968358e-02
 -9.6949434e-01
 -2.3763075e-01
  4.2703325e-01
  1.0441517e+00
  7.1465170e-01
 -1.1923994e-01
  4.8666663e-02
  6.4599037e-01
  2.9458517e-01
  1.1430203e-01
 -1.4802274e+00
  2.7883837e-03
  8.6462021e-01
 -1.0039262e+00
 -1.0090518e+00
  8.2075769e-01
 -5.4393917e-01
  1.0415385e+00
 -6.4989507e-01
 -1.1030962e+00
 -4.0897217e-01
 -4.3005699e-01
 -1.0490389e+00
 -6.7827451e-01
  4.6223721e-01
 -5.0754839e-01
 -1.3396176e+00
 -7.4147773e-01
 -2.8293279e-01
  9.3452483e-01
  9.4850022e-01
  8.5640199e-02
 -3.0050181e-02
 -5.4507291e-01
 -8.2964975e-01
 -3.4427053e-01
 -9.3559361e-01
 -5.0894234e-02
  1.3346352e-01
  1.2891571e-01
  6.3413131e-01
  4.7414312e-01
 -1.2325668e+00
  1.1291470e-01
 -3.8047993e-01
 -4.3102041e-01
 -3.3396918e-01
 -1.4559059e-01
  4.3594953e-02
  9.4611788e-01
  3.0422864e-02
 -2.7073368e-01
  4.1381240e-01
  2.5468710e-01
  6.5655524e-01
 -7.8870934e-01
  4.8727489e-01
 -1.0541633e+00
  5.6424606e-01
 -5.9042788e-01
  1.2080444e-01
  1.0847643e-01
 -5.7318920e-01
 -2.7695519e-01
 -2.8244391e-01
  1.6205199e-01
  8.6592712e-02
  7.3667103e-01
  5.3559941e-01
  4.1599208e-01
 -1.0916539e+00
  5.9981835e-01
 -5.3164852e-01
 -5.1972264e-01
 -9.5365822e-02
  1.0236142e+00
  4.4601893e-01
 -1.3990093e+00
  9.7994512e-01
  7.8740901e-01
 -9.6466988e-01
 -3.1839132e-01
  6.8674111e-01
  9.1810328e-01
  3.7997648e-01
  5.3373694e-01
 -2.9469165e-01
  7.7254790e-01
 -4.9343348e-01
  3.2288533e-01
  6.0017645e-01
 -6.1211783e-01
  4.5192376e-01
 -3.0757979e-01
 -6.3563615e-01
  9.5151283e-02
  2.2045766e-01
  2.2519319e-01
 -5.4577219e-01
 -2.6990414e-01
 -6.8916047e-01
 -1.1060622e+00
 -4.9512669e-01
  8.2077205e-01
 -6.2511933e-01
 -1.2302268e+00
 -8.6104113e-01
 -5.4493386e-01
  8.8165927e-01
  1.7701079e-01
  6.4012277e-01
 -7.0368594e-01
 -2.4537548e-01
 -1.3430345e-01
 -1.1593472e+00
 -3.9262819e-01
 -6.5779161e-01
 -4.4557542e-02
 -1.2219182e+00
  3.9450899e-01
 -4.5134458e-01
  7.8340821e-02
  1.5998885e-01
  2.8452420e-01
  5.8080637e-01
  6.5268743e-01
 -8.6665761e-01
  2.0861231e-01
  6.3571960e-01
 -2.9038799e-01
  1.8018149e-01
 -7.6792759e-01
  7.8178769e-01
  4.8495287e-01
  6.1346018e-01
 -5.1280159e-01
 -2.0249468e-01
  1.0550373e+00
 -1.0549223e-01
  2.2345513e-02
  6.2429714e-01
  9.5873082e-01
 -1.6164902e-01
 -6.5031058e-01
  6.2392825e-01
 -1.7208910e-02
  4.1774336e-02
 -7.8836507e-01
  2.9514778e-01
 -6.2573105e-01
 -7.5672179e-01
 -5.0470644e-01
  4.5554498e-01
  4.0477026e-01
 -5.9947282e-01
  3.1878626e-01
 -1.1163670e+00
 -7.1118134e-01
 -1.1191473e+00
 -4.5342237e-01
  4.5195809e-01
  1.6179322e-01
  1.2975688e-01
 -1.0028525e-01
  5.3004551e-01
 -3.6317056e-01
  2.3582506e-01
  3.8454756e-01
  1.9434072e-01
 -3.2996735e-01
 -4.9713096e-01
  1.2671076e-01
  1.3151902e-01
  3.5879821e-02
  1.1994710e+00
 -2.6184273e-01
 -3.4066904e-01
 -1.0691904e+00
 -3.5674497e-01
 -5.4119110e-01
  1.0658805e+00
 -9.8771459e-01
 -2.5283414e-01
 -4.4618610e-01
  4.0265188e-01
 -2.5143854e-02
 -7.4608570e-01
 -1.8296625e-01
 -4.5313701e-01
 -6.5438777e-01
 -6.0066146e-01
  4.7278079e-01
 -5.4127705e-01
  3.3938068e-01
 -1.3876897e+00
  3.1440556e-01
 -5.2060191e-02
  4.1904831e-01
  2.9995552e-01
  4.6825057e-01
 -3.1112984e-01
  2.5938252e-01
  5.1886106e-01
 -1.1838926e+00
 -6.3256556e-01
  6.4663127e-02
  6.8775129e-01
  2.7325028e-01
  7.2732784e-02
  8.1064904e-01
  3.6033716e-02
  2.1238144e-01
  8.0040544e-01
 -7.9279286e-01
 -5.7503408e-01
  8.0420122e-02
 -4.5083967e-01
 -2.9348949e-01
 -4.6272162e-01
  3.4432244e-01
 -4.1064650e-01
  5.5304027e-01
 -8.3297335e-02
  5.0281900e-01
  5.0985318e-01
  1.6656380e-02
  4.7587222e-01
  1.7883986e-01
 -3.3076853e-01
 -2.1300343e-01
 -2.6357040e-01
 -8.5654902e-01
 -2.9802981e-01
 -4.7377226e-01
  7.6391399e-01
 -9.6311253e-01
 -4.4200078e-01
 -5.4076570e-01
 -5.8858281e-01
 -2.8269279e-01
  1.6439654e-01
 -8.3765960e-01
 -5.2330989e-01
  3.7390247e-02
  3.7390247e-02
  3.7390247e-02
  3.7390247e-02
  3.7390247e-02
  3.9980469e+01
  3.9980469e+01
  3.9980469e+01
  3.9980469e+01
  3.9980469e+01
  6.2033421e+01
  6.2033421e+01
  6.2033421e+01
  6.2033421e+01
  6.2033421e+01
  7.4439864e+00
  7.4439864e+00
  7.4439864e+00
  7.4439864e+00
  7.4439864e+00
  7.6397926e-02
  7.6397926e-02
  7.6397926e-02
  7.6397926e-02
  7.6397926e-02
  1.8503668e+03
  1.8503668e+03
  1.8503668e+03
  1.8503668e+03
  1.8503668e+03
